    0.337750533417852257E-03    0.106344764314914533E+00   -0.504297029972076416E+01    0.272695428133010864E+03    0.167550301551818848E+01    0.187918424606323242E+00   -0.490756157636642421E+01   -0.555760355591773969E+01   -0.156244808435439531E+00   -0.528354531526565552E+01    0.695294102294289874-309
    0.482760175755078125E+00    0.359059649108404335E-04   -0.807461500167846680E+00    0.185052326321601868E+03   -0.194782662391662598E+01   -0.232518196105957031E+00   -0.534687728881835866E+01   -0.546930193305015599E+01   -0.635698878765106201E+01   -0.698980515599250829E+01    0.695294102294289874-309
    0.397977174898277511E-02    0.421555773364270842E-04   -0.232327401638031006E+01    0.341153448820114136E+03   -0.304713964462280273E+00    0.236942481994628906E+01   -0.444565904140471702E+00   -0.502830707430839574E+01   -0.694263743758201635E+01   -0.573595187067985535E+01    0.695294102294289874-309
    0.386653651457024294E+00    0.416497668453944764E-04   -0.535861802101135254E+01    0.127585178613662720E+03    0.227889776229858398E+00    0.256739723682403564E+01   -0.175794883370399457E+01   -0.105529034137725297E+00   -0.688247163891792280E+01   -0.327317399978637713E+01    0.695294102294289874-309
    0.485473147926153140E-05    0.277045902960139847E-04   -0.217896401882171631E+01    0.213088905811309814E+03    0.148927688598632812E+00    0.295131433010101318E+01   -0.669238625168800372E+01   -0.353692898750305140E+01   -0.414779308438301086E+01   -0.305826795101165061E+00    0.695294102294289874-309
    0.189257508183560269E+00    0.263232979550823643E+00   -0.757381439208984375E+00    0.290020710229873657E+03    0.339713215827941895E+00    0.194089365005493164E+01   -0.267498872876167315E+01   -0.686587276458740270E+01   -0.394527702331542951E+01   -0.514109899401664716E+01    0.695294102294289874-309
    0.878145421909037054E-05    0.856158407432270341E-01   -0.133129692077636719E+01    0.254852092266082764E+03   -0.239912724494934082E+01    0.234762382507324219E+01   -0.656875569224357569E+01   -0.912791562080382590E+00   -0.683755329847335780E+01   -0.380280715823173487E+01    0.695294102294289874-309
    0.250445842792895335E+00    0.657154677535836812E-01   -0.504913222789764404E+01    0.278892612457275391E+03    0.101447474956512451E+01   -0.249005520343780518E+01   -0.615648148655891436E+01   -0.822322493791579845E+00   -0.144751960635185206E+01   -0.196106997132301331E+01    0.695294102294289874-309
    0.168337699531597752E-02    0.109179058095701456E-01   -0.233313095569610596E+01    0.247515743970870972E+03   -0.242771494388580322E+01   -0.722773432731628418E+00   -0.346243111491203326E+01   -0.132783970236778259E+01   -0.370483514070510811E+01   -0.494141619801521337E+01    0.695294102294289874-309
    0.447319630118286293E+00    0.271916677110914406E-03   -0.530081033706665039E+00    0.240299975872039795E+03   -0.242339694499969482E+01   -0.214026761054992676E+01   -0.553384829759597707E+01   -0.634528797268867528E+01   -0.570174126625061017E+01   -0.184612802863120962E+01    0.695294102294289874-309
    0.201010655570279360E-05    0.117827942169872741E-03   -0.498380827903747559E+01    0.129307827353477478E+03    0.528129816055297852E+00   -0.765372991561889648E+00   -0.308183090090751666E+01   -0.224318020343780500E+01   -0.736058617830276507E+01   -0.139226853847503662E+00    0.695294102294289874-309
    0.319935345640578041E-04    0.534827423595249027E-02   -0.342904222011566162E+01    0.346510505676269531E+03   -0.125128698348999023E+01    0.118318927288055420E+01   -0.725416098237037676E+01   -0.391231235861778259E+01   -0.515333001613616926E+01   -0.386679148674010875E+00    0.695294102294289874-309
    0.102192205534903046E-02    0.288224875073220706E-01   -0.118955361843109131E+01    0.291211685538291931E+03   -0.193866026401519775E+01    0.230933332443237305E+01   -0.132987012267112714E+01   -0.475874947309494001E+01   -0.675144596099853533E+01   -0.576937752366066015E+01    0.695294102294289874-309
    0.117081361324343103E+00    0.763772915201217564E-02   -0.596844470500946045E+01    0.113040199875831604E+03   -0.462664604187011719E+00   -0.181725347042083740E+01   -0.671731964349746669E+01   -0.275569699406623858E+01   -0.435243327021598780E+01   -0.749243118166923505E+01    0.695294102294289874-309
    0.239355132570448063E-04    0.274077035533188491E-03   -0.350691676139831543E+01    0.297393164038658142E+03   -0.135176503658294678E+01    0.207894086837768555E+01   -0.617115635871887225E+01   -0.572570841908454931E+01   -0.513819933533668483E+01   -0.490592998862266505E+01    0.695294102294289874-309
    0.736360869818145574E-04    0.211958826698780897E-01   -0.955410718917846680E+00    0.252427494525909424E+03   -0.123760628700256348E+01   -0.263274657726287842E+01   -0.481656653881072927E+01   -0.608400226235389674E+01   -0.282078675031661952E+01   -0.714345692992210424E+01    0.695294102294289874-309
    0.109622049826886156E+00    0.149678469979774673E-05   -0.508656477928161621E+01    0.183995282649993896E+03    0.123447883129119873E+01   -0.267653274536132812E+01   -0.130563362836837715E+01   -0.561903460025787282E+01   -0.996292597055434825E+00   -0.220873651504516566E+01    0.695294102294289874-309
    0.294818048183213362E-04    0.138266443220112500E+00   -0.524160611629486084E+01    0.241351744532585144E+03    0.122270464897155762E+00    0.232962620258331299E+01   -0.847032219171524048E+00   -0.286646461486816406E+01   -0.271024279594421369E+01   -0.263640933036804181E+01    0.695294102294289874-309
    0.221924126557346666E-05    0.466983856604290148E+00   -0.206476521492004395E+01    0.196854060888290405E+03    0.122394490242004395E+01    0.143769264221191406E+01   -0.586404257416725194E+01   -0.328218092918395943E+01   -0.207564180493354744E+01   -0.507456552982330322E+01    0.695294102294289874-309
    0.659385633440609173E-02    0.193887146421068252E-04   -0.440888142585754395E+01    0.139685517549514771E+03   -0.106169378757476807E+01    0.142619955539703369E+01   -0.406387720704078603E+01   -0.123541414141654915E+01   -0.595376906991004873E+01   -0.210715051889419502E+01    0.695294102294289874-309
    0.150029337107423673E-01    0.168801191322561516E-05   -0.340788638591766357E+01    0.256628265976905823E+03    0.462264060974121094E+00   -0.230465197563171387E+01   -0.762701951265335065E+01   -0.164616035223007184E+01   -0.592111989259719884E+01   -0.397622539401054365E+01    0.695294102294289874-309
    0.470405593229796595E-01    0.132947846454592542E-02   -0.376051783561706543E+01    0.311981624364852905E+03    0.203997516632080078E+01   -0.431105375289916992E+00   -0.202592570185661280E+01   -0.457354283928871119E+01   -0.724115630984306335E+01   -0.736813433170318621E+01    0.695294102294289874-309
    0.108398425486275266E-04    0.212972243868379429E+00   -0.340862131118774414E+01    0.245336538553237915E+03   -0.284714734554290771E+01   -0.192675662040710449E+01   -0.115967739224433863E+01   -0.231059044003486580E+01   -0.354301318526268005E+01   -0.311808699369430542E+01    0.695294102294289874-309
    0.378783727548592658E-01    0.132960035605958365E-04   -0.414950609207153320E+00    0.200553944706916809E+03   -0.289167666435241699E+01    0.226827156543731689E+01   -0.213569977283477730E+01   -0.473248350024223363E+01   -0.399100856781005842E+01   -0.767151218056678807E+01    0.695294102294289874-309
    0.488439687326115145E-05    0.383543178790959763E-02   -0.372521638870239258E+01    0.337741515040397644E+03    0.133030092716217041E+01   -0.601889848709106445E+00   -0.475594681501388550E+01   -0.172478451728820747E+01   -0.742906012535095250E+01   -0.547070232033729553E+01    0.695294102294289874-309
    0.161047417108593188E+00    0.118719391186785004E-03   -0.248678004741668701E+01    0.172751566767692566E+03    0.222752773761749268E+01   -0.181973791122436523E+01   -0.445066916942596258E+00   -0.247012581825256294E+01   -0.648296855092048663E+01   -0.733388417363166845E+01    0.695294102294289874-309
    0.165910193835468900E+00    0.129384096804034787E+00   -0.238446092605590820E+01    0.276799625158309937E+03   -0.184074103832244873E+01   -0.537264347076416016E-01   -0.545279864668846059E+01   -0.267002615928649867E+01   -0.102602045536041242E+01   -0.211957742571830732E+01    0.695294102294289874-309
    0.645401470136570787E+00    0.517503962037368085E-04   -0.254601395130157471E+01    0.343961066007614136E+03    0.116371572017669678E+01   -0.671205639839172363E+00   -0.577317796945571882E+01   -0.526562233567237836E+01   -0.790858352780342067E+01   -0.667407197356224025E+01    0.695294102294289874-309
    0.678498185855259894E+00    0.632054875253882449E-03   -0.173545718193054199E+01    0.137521898746490479E+03   -0.268735170364379883E+00    0.194632387161254883E+01   -0.645523250102996826E+01   -0.533185255527496338E+01   -0.763197219371795654E+01   -0.172895083427429164E+01    0.695294102294289874-309
    0.250942327721470930E-03    0.148100669605319792E-02   -0.295788717269897461E+01    0.334533831477165222E+03    0.162240135669708252E+01    0.227258205413818359E+01   -0.233331542015075666E+01   -0.296278102993965131E+01   -0.691069504618644714E+01   -0.676082299947738630E+01    0.695294102294289874-309
    0.539527200558897980E-03    0.839432153728246651E-02   -0.127498018741607666E+01    0.337777471542358398E+03    0.208240091800689697E+01   -0.167078733444213867E+00   -0.188227111101150513E+01   -0.182277160286903328E+01   -0.574179215431213308E+01   -0.246232103705406136E+01    0.695294102294289874-309
    0.254578754760733739E-02    0.126750655892187802E-03   -0.456833553314208984E+01    0.154705306887626648E+03    0.214621961116790771E+01    0.139379668235778809E+01   -0.220828306078910774E+01   -0.283597648143768311E+00   -0.184300705790519714E+01   -0.477451677918434125E+01    0.695294102294289874-309
    0.170071658752756927E+00    0.239735577570218385E-05   -0.445784568786621094E+00    0.215700021386146545E+03    0.869106888771057129E+00    0.279893124103546143E+01   -0.764139066934585554E+01   -0.156574120521545357E+01   -0.336621735095977748E+01   -0.512346720695495250E+00    0.695294102294289874-309
    0.537705166620061403E+00    0.145006729925471235E-02   -0.105509197711944580E+01    0.311544528603553772E+03    0.165025413036346436E+01   -0.185023498535156250E+01   -0.785489699244499207E+01   -0.285026598572730983E+01   -0.372456789016723633E+00   -0.879485511779784623E+00    0.695294102294289874-309
    0.339786695131279071E+00    0.740596778479201724E-02   -0.381594800949096680E+01    0.341132840514183044E+03   -0.287039172649383545E+01    0.220593130588531494E+01   -0.332658601403236354E+01   -0.442987996339797796E+00   -0.787242255210876429E+01   -0.238044782280921918E+01    0.695294102294289874-309
    0.597649035902718482E-02    0.151249994597908277E+00   -0.590370762348175049E+01    0.292102283239364624E+03    0.166073334217071533E+01    0.217592132091522217E+01   -0.267478154301643389E+01   -0.220202510952949471E+01   -0.128090883493423391E+01   -0.270197910070418601E+00    0.695294102294289874-309
    0.418184384925949712E-01    0.438820247746873893E+00   -0.400079798698425293E+01    0.253383016586303711E+03    0.210124504566192627E+01   -0.169626438617706299E+01   -0.394674050807952881E+01   -0.591133978366851842E+01   -0.309107609391212446E+01   -0.372698518037795967E+01    0.695294102294289874-309
    0.382668155328921428E-01    0.558456678029000623E-02   -0.965446114540100098E+00    0.142133063077926636E+03    0.279570400714874268E+01   -0.788681030273437500E+00   -0.499380640983581525E+01   -0.338813901543617213E+01   -0.255826828479766810E+01   -0.274564236402511597E+01    0.695294102294289874-309
    0.149265067721775268E-04    0.242496538411757251E+00   -0.583395695686340332E+01    0.334247043728828430E+03   -0.119072270393371582E+01   -0.111684536933898926E+01   -0.195689894556999189E+01   -0.153046783208846993E+01   -0.548942814469337392E+01   -0.564560353755950928E+00    0.695294102294289874-309
    0.409460996202027430E-01    0.440167998077395040E+00   -0.373642981052398682E+01    0.320065236091613770E+03   -0.248002767562866211E+01    0.902038693428039551E+00   -0.132282015681266785E+01   -0.513034228682517934E+01   -0.285661528706550616E+01   -0.534353142976760509E+00    0.695294102294289874-309
    0.760764541334319616E-01    0.711900042305431413E-01   -0.176693201065063477E+00    0.226527786254882812E+03   -0.234491229057312012E+01    0.212845265865325928E+01   -0.486640177369117666E+01   -0.715109521150588456E+00   -0.200687732696533150E+01   -0.728111773133277929E+01    0.695294102294289874-309
    0.881360764685164939E-04    0.768356724937856395E-04   -0.198715102672576904E+01    0.248829847574234009E+03    0.560354948043823242E+00    0.133205437660217285E+01   -0.906977176666259766E+00   -0.442123023867607046E+01   -0.730127549171447754E+01   -0.447580456733703613E+00    0.695294102294289874-309
    0.235574225185286423E+00    0.161673169625606643E-05   -0.486454510688781738E+01    0.324218398332595825E+03    0.270165145397186279E+01    0.145164906978607178E+01   -0.755424410700797999E+01   -0.552300541996955907E+01   -0.185454165339469856E+01   -0.534149187207222020E+01    0.695294102294289874-309
    0.603208083194921494E-04    0.231298055551418371E-03   -0.162663102149963379E+00    0.196834853291511536E+03   -0.108747124671936035E+00   -0.246035599708557129E+01   -0.523178768157958274E+00   -0.152095094323158264E+01   -0.599444434046745300E+01   -0.990619474649428788E+00    0.695294102294289874-309
    0.324516502613126474E-03    0.373373759839590081E-05   -0.560838031768798828E+01    0.103056123852729797E+03    0.206041181087493896E+01   -0.297208428382873535E+01   -0.618646691441535967E+01   -0.321423295140266418E+01   -0.667845112681388819E+01   -0.325650684833526594E+01    0.695294102294289874-309
    0.333631395103947516E-04    0.315008482425106282E-05   -0.145443034172058105E+01    0.121475240588188171E+03   -0.224651455879211426E+00    0.228551316261291504E+01   -0.201607449054717947E+01   -0.478707289695739391E+00   -0.178441822528839111E+01   -0.546132292747497594E+01    0.695294102294289874-309
    0.637949358842941766E-01    0.149990013945718752E-05   -0.423572981357574463E+01    0.121458745002746582E+03   -0.182339501380920410E+01   -0.417190074920654297E+00   -0.490512102246284520E+01   -0.286680006980895463E+00   -0.258666685819625819E+01   -0.405342091917991620E+01    0.695294102294289874-309
    0.294606021430673254E-03    0.244760658212326136E-04   -0.325861823558807373E+01    0.198457992076873779E+03   -0.741023540496826172E+00    0.280718278884887695E+01   -0.441795105338096583E+01   -0.318865492939949036E+01   -0.321414442658424360E+01   -0.357919412851333441E+00    0.695294102294289874-309
    0.549546617997381359E+00    0.197607339054745265E-04   -0.449186503887176514E+01    0.226310914754867554E+03   -0.188232100009918213E+01   -0.198976278305053711E+00   -0.627649100422859174E+01   -0.701053550243377721E+01   -0.535332359075546194E+01   -0.522414704561233556E+01    0.695294102294289874-309
    0.496610700658712002E-05    0.460788361343601682E+00   -0.342444777488708496E+01    0.250229662656784058E+03   -0.920154690742492676E+00    0.195591831207275391E+01   -0.180334464311599696E+01   -0.108868020772933782E+00   -0.629409237504005414E+01   -0.110569185018539429E+01    0.695294102294289874-309
    0.477819850211428265E-04    0.605215527525139897E-02   -0.589333605766296387E+01    0.125988250970840454E+03   -0.140550220012664795E+01   -0.100183331966400146E+01   -0.654086472392082197E+01   -0.957433027029036765E+00   -0.210345507860183734E+01   -0.743421339988708496E+01    0.695294102294289874-309
    0.620207102703814427E-04    0.344930728706155654E-01   -0.122453927993774414E+00    0.255587643384933472E+03   -0.753349542617797852E+00   -0.415657997131347656E+00   -0.404506050348281843E+01   -0.630012148022651708E+01   -0.381087892651557869E+01   -0.492182019352912903E+01    0.695294102294289874-309
    0.756039229083223328E-02    0.476116154611921694E+00   -0.493300080299377441E+01    0.145980215072631836E+03   -0.258384883403778076E+01    0.276739597320556641E-01   -0.525238363742828351E+01   -0.785357429981231725E+01   -0.726761628389358538E+01   -0.666173735857009852E+01    0.695294102294289874-309
    0.898582524283468714E-01    0.903255358926973915E-05   -0.259895503520965576E+01    0.218096500635147095E+03   -0.288730859756469727E+00    0.272632277011871338E+01   -0.433063328266143799E+00   -0.180993267893791199E+01   -0.129032778143882698E+01   -0.465199089646339381E+01    0.695294102294289874-309
    0.526424973516559497E-05    0.207108248233385615E-02   -0.930222988128662109E+00    0.174741810560226440E+03    0.104339861869812012E+01   -0.190066695213317871E+00   -0.235187078714370745E+01   -0.742700804471969622E+01   -0.561690294146537816E+01   -0.513600834608078038E+01    0.695294102294289874-309
    0.393662247705624810E-03    0.503385936591001837E+00   -0.206781864166259766E+00    0.110382115840911865E+03   -0.644976496696472168E+00   -0.288544535636901855E+00   -0.455067000389099086E+01   -0.415376285910606313E+01   -0.218251150846481323E+01   -0.314830880165100080E+01    0.695294102294289874-309
    0.140784486765284255E-04    0.126624598602363050E-01   -0.421403968334197998E+01    0.114747291803359985E+03    0.159675765037536621E+01    0.142098426818847656E+00   -0.979224729537963690E+00   -0.580837976932525635E+01   -0.759661877155303955E+01   -0.223867815136909432E+01    0.695294102294289874-309
    0.603142022664771867E-04    0.104511988743833523E-01   -0.514206612110137939E+01    0.197089514136314392E+03    0.406329631805419922E+00    0.137078940868377686E+01   -0.727129288911819494E+01   -0.671342784762382472E+01   -0.733665292859077489E+01   -0.540122634768485987E+01    0.695294102294289874-309
    0.122747692895514033E-01    0.345036881176519379E-02   -0.440662765502929688E+01    0.200783422589302063E+03   -0.150807881355285645E+01    0.239664566516876221E+01   -0.566133627891540492E+01   -0.668922996520996094E+01   -0.491376961469650198E+01   -0.525457227230072021E+01    0.695294102294289874-309
    0.355667047431992289E+00    0.184342198040875538E+00   -0.387387871742248535E+00    0.293195283412933350E+03    0.270706737041473389E+01   -0.293661510944366455E+01   -0.513839992880821228E+01   -0.390381868481636030E+01   -0.351579086184501666E+01   -0.763430256247520411E+01    0.695294102294289874-309
    0.158457321184922460E-04    0.184605961983019684E-05   -0.662006735801696777E+00    0.257528996467590332E+03   -0.480071067810058594E+00   -0.145183575153350830E+01   -0.172651640176773036E+01   -0.564485889077186620E+01   -0.759598261713981593E+01   -0.510148555040359497E+01    0.695294102294289874-309
    0.235322950872553785E-03    0.124436405451508175E-01   -0.299907803535461426E+00    0.130901715159416199E+03   -0.682518124580383301E+00   -0.110061407089233398E+00   -0.278842998743057269E+01   -0.383522513508796692E+01   -0.300329761505126935E+01   -0.702909576892852606E+00    0.695294102294289874-309
    0.124939074388268415E-02    0.628451684213907503E-02   -0.259396719932556152E+01    0.172360202670097351E+03   -0.216123461723327637E+00    0.261931800842285156E+01   -0.300614123940467781E+01   -0.352731227278709358E+01   -0.565592308044433523E+01   -0.161026495099067635E+01    0.695294102294289874-309
    0.121892291900661566E-05    0.254462781706605646E-03   -0.713940024375915527E+00    0.146750456094741821E+03    0.747351408004760742E+00   -0.119235885143280029E+01   -0.332692080736160278E+01   -0.460917568206786754E+00   -0.796061916947364789E+01   -0.628256531357765180E+01    0.695294102294289874-309
    0.551776391837891737E-02    0.162413792151666452E-01   -0.217999756336212158E+01    0.177788546681404114E+03    0.202650797367095947E+01   -0.146647596359252930E+01   -0.326709403991699165E+01   -0.118478971719741821E+01   -0.214369007945060730E+01   -0.772570019960403442E+01    0.695294102294289874-309
    0.157294812930541920E-01    0.255931072341714690E-03   -0.224517667293548584E+01    0.218579477071762085E+03    0.218318080902099609E+01    0.809972405433654785E+00   -0.604706481099128723E+01   -0.716110303401947057E+01   -0.340080936551094037E+01   -0.441789615154266180E+00    0.695294102294289874-309
    0.276446547690705006E-04    0.109269720488183262E-01   -0.375141263008117676E+01    0.347629538178443909E+03   -0.306852221488952637E+00   -0.180804562568664551E+01   -0.778574545383453387E+01   -0.315530508756637573E+01   -0.194942613244056684E+01   -0.480049363374710047E+01    0.695294102294289874-309
    0.290341172013778501E-01    0.938562612487705726E-04   -0.160014867782592773E+01    0.136771938204765320E+03    0.574760198593139648E+00   -0.277055525779724121E+01   -0.748667801022529567E+01   -0.525745874643325806E+01   -0.567979982495307922E+01   -0.734957095980644226E+01    0.695294102294289874-309
    0.298763139792445210E-03    0.103305981047296755E+00   -0.210425126552581787E+01    0.309346562623977661E+03   -0.230371356010437012E+00    0.250877773761749268E+01   -0.418659662008285505E+01   -0.699631879329681361E+01   -0.195981979370117188E+01   -0.273518325090408343E+01    0.695294102294289874-309
    0.403808357775585956E-05    0.361438209683788932E-04   -0.359560453891754150E+01    0.331274038553237915E+03   -0.237125444412231445E+01    0.245076012611389160E+01   -0.620188953876495397E+01   -0.500434415936470067E+01   -0.652859151363372803E+00   -0.481566339731216431E+01    0.695294102294289874-309
    0.120724245643198439E-05    0.439107377722889651E-05   -0.142642879486083984E+01    0.203940621018409729E+03    0.174646139144897461E+01    0.574607849121093750E+00   -0.463551652431487327E+00   -0.179907774925231578E+00   -0.570201013684272695E+01   -0.195547944307326915E+00    0.695294102294289874-309
    0.103110422076810806E-03    0.443922499923093119E-05   -0.774655938148498535E+00    0.143734505772590637E+03   -0.254680395126342773E+01    0.194081389904022217E+01   -0.497591168284416163E+01   -0.162276908159255928E+01   -0.701334023475646440E+00   -0.207372015714645386E+01    0.695294102294289874-309
    0.504601815434324558E-04    0.459611564185755027E-04   -0.417588543891906738E+01    0.105309164524078369E+03   -0.148286640644073486E+01   -0.120849359035491943E+01   -0.213375740647315926E+01   -0.622563490867614711E+01   -0.591617757081985474E+01   -0.104063740968704188E+01    0.695294102294289874-309
    0.890047491160432134E-03    0.101677960123415054E+00   -0.303346037864685059E+01    0.257590001821517944E+03   -0.864505290985107422E+00   -0.175408315658569336E+01   -0.623989964723587054E+01   -0.239142348766326851E+01   -0.452690674066543508E+01   -0.426686508655548025E+01    0.695294102294289874-309
    0.253623137852579394E-02    0.312731785047500881E-04   -0.344253659248352051E+01    0.319586685299873352E+03    0.195497131347656250E+01   -0.613944768905639648E+00   -0.133810340166091901E+01   -0.749718279838562029E+01   -0.425661833882331830E+01   -0.329790208935737628E+01    0.695294102294289874-309
    0.712860539224675167E-03    0.168987464679656089E-04   -0.236563789844512939E+01    0.135127222537994385E+03   -0.225094199180603027E+00   -0.793500065803527832E+00   -0.419753131866455043E+01   -0.183168596029281261E+00   -0.142094662189483589E+01   -0.368084915280342084E+01    0.695294102294289874-309
    0.660761901594444778E-05    0.118154536100967581E-05   -0.239428424835205078E+01    0.168752601742744446E+03    0.284643745422363281E+01    0.254038166999816895E+01   -0.102589049339294380E+01   -0.476881700754165472E+00   -0.688044922351837140E+01   -0.199788659811019897E+00    0.695294102294289874-309
    0.166491305467690831E-03    0.187461421642797551E-02   -0.353250610828399658E+01    0.299850752949714661E+03    0.213591027259826660E+01   -0.250974690914154053E+01   -0.109164230227470327E+01   -0.236375571489334124E+01   -0.783435546755790746E+01   -0.132290067672729439E+01    0.695294102294289874-309
    0.412064160142509053E-04    0.432998400317330612E+00   -0.161510288715362549E+01    0.317832565307617188E+03   -0.154343390464782715E+01    0.261264503002166748E+01   -0.200591485500335676E+01   -0.541196516156196594E+01   -0.770604203939437848E+01   -0.388466718792915344E+01    0.695294102294289874-309
    0.912569843853496820E+00    0.519898900031632166E-01   -0.400828635692596436E+01    0.229347100853919983E+03   -0.150114941596984863E+01    0.100791120529174805E+01   -0.706537681818008245E+00   -0.570416251420974696E+01   -0.958592325448989868E+00   -0.765780731439590490E+01    0.695294102294289874-309
    0.317196037290737908E-05    0.225986111771630423E-01   -0.515429162979125977E+01    0.243133476376533508E+03    0.233650946617126465E+01    0.168532311916351318E+01   -0.368670167922973580E+01   -0.568306347131729162E+01   -0.566059794425964391E+01   -0.229146719574928248E+01    0.695294102294289874-309
    0.730195584281560783E-02    0.144308721371856283E-01   -0.556109976768493652E+01    0.266187986731529236E+03    0.225107932090759277E+01    0.939892172813415527E+00   -0.169068127274513191E+01   -0.470480395555496145E+01   -0.662613578438758832E+01   -0.141305802464485097E+01    0.695294102294289874-309
    0.426891208716121632E-03    0.316058375435424586E-03   -0.339077138900756836E+01    0.315658247470855713E+03   -0.295021033287048340E+01    0.274642431735992432E+01   -0.131903713345527596E+01   -0.657688255310058612E+01   -0.356678021550178492E+01   -0.466582431197166425E+01    0.695294102294289874-309
    0.760275220224319610E-02    0.233062505096338296E-04   -0.369669449329376221E+01    0.303755736351013184E+03   -0.230232453346252441E+01    0.232156240940093994E+01   -0.538494974374771118E+00   -0.658859137296676600E+01   -0.464049350023269636E+01   -0.568185520172119141E+01    0.695294102294289874-309
    0.533156760372598235E-03    0.135545159212349664E+00   -0.325826811790466309E+01    0.209370827674865723E+03   -0.261133682727813721E+01    0.307642221450805664E+00   -0.375563378930091840E+01   -0.275941503643989527E+01   -0.746855679154396057E+01   -0.181754110455512929E+01    0.695294102294289874-309
    0.852780758708446909E-05    0.114637484758365177E-04   -0.730978131294250488E+00    0.310845574736595154E+03    0.197712743282318115E+01   -0.233502101898193359E+01   -0.125942178964614815E+01   -0.204535972476005501E+01   -0.692602019906044042E+01   -0.568448222279548609E+01    0.695294102294289874-309
    0.341717020273392841E-05    0.151805882188260743E+00   -0.355265271663665771E+01    0.249686366319656372E+03    0.260337352752685547E+00   -0.280156409740447998E+01   -0.859821230173110962E+00   -0.451088374853134155E+01   -0.561025698781013471E+01   -0.352126386165618843E+01    0.695294102294289874-309
    0.115586052194536007E-04    0.457328359337037403E-03   -0.445712184906005859E+01    0.186276620626449585E+03   -0.156335163116455078E+01   -0.590487957000732422E+00   -0.245794800519943202E+01   -0.460058689117431641E+00   -0.330413508415222168E+01   -0.123712342381477303E+01    0.695294102294289874-309
    0.912479421129408312E-04    0.318251561429218205E-01   -0.489566266536712646E+01    0.122760942578315735E+03   -0.243170177936553955E+01    0.353666782379150391E+00   -0.378389863371849078E+01   -0.423780116438865662E+01   -0.449428958296775782E+01   -0.244193961024284345E+01    0.695294102294289874-309
    0.465845450506787795E-03    0.321359591898707359E-04   -0.189488768577575684E+00    0.321012145280838013E+03    0.259840464591979980E+01   -0.326025009155273438E+00   -0.118198564648628235E+01   -0.472254517674446106E+01   -0.781400464773178083E+01   -0.780802780985832179E+01    0.695294102294289874-309
    0.176057762853629575E-03    0.523994507260354921E-04   -0.378103816509246826E+01    0.345234474539756775E+03    0.250947904586791992E+01    0.381291031837463379E+00   -0.516947967410087550E+01   -0.135215247869491506E+01   -0.653930941820144618E+01   -0.230310962200164759E+01    0.695294102294289874-309
    0.124846616435012546E-02    0.180469198092896520E-02   -0.288726890087127686E+01    0.261594331264495850E+03   -0.121609103679656982E+01   -0.253949868679046631E+01   -0.574155436158180166E+01   -0.529001751542091370E+01   -0.552506738901138306E+01   -0.157714207172393728E+01    0.695294102294289874-309
    0.336376791717139662E-01    0.215286359942722463E-03   -0.279169499874114990E+01    0.134437373280525208E+03   -0.226815426349639893E+01   -0.154812097549438477E+01   -0.291663935184478706E+01   -0.582387632131576538E+01   -0.167857550382614118E+01   -0.139433097839354758E+00    0.695294102294289874-309
    0.962307869430444794E-04    0.751962848629875581E-03   -0.176705861091613770E+01    0.317328831553459167E+03    0.884607911109924316E+00   -0.139805960655212402E+01   -0.255675131082534257E+00   -0.278395760059356689E+01   -0.111071563363075221E+01   -0.693225837349891627E+01    0.695294102294289874-309
    0.340623590922413489E-05    0.939830212853604713E-01   -0.458793783187866211E+01    0.320656752586364746E+03   -0.370241761207580566E+00   -0.106573569774627686E+01   -0.510591179132461548E+01   -0.370095935463905334E+01   -0.608505373001098615E+01   -0.649016448855400085E+01    0.695294102294289874-309
    0.215001538866162753E-02    0.146282938897924196E-05   -0.440798056125640869E+01    0.230631729960441589E+03   -0.153054642677307129E+01    0.262473499774932861E+01   -0.512273734807967784E+00   -0.629626358747482318E+01   -0.542069709897041285E+01   -0.687865066528320135E+00    0.695294102294289874-309
    0.440629294503695590E+00    0.796171630566073346E-01   -0.259246408939361572E+01    0.239839828014373779E+03   -0.572284698486328125E+00   -0.265992879867553711E-01   -0.758600332736969030E+01   -0.530815003514289785E+01   -0.449525205492973257E+01   -0.799729292988777196E+01    0.695294102294289874-309
    0.153967757958714951E+00    0.104718196462885178E-05   -0.384829080104827881E+01    0.140309101343154907E+03   -0.221857345104217529E+01    0.191975533962249756E+01   -0.964607304334640148E+00   -0.593204093575477565E+01   -0.596437980532646161E+01   -0.718204621672630328E+01    0.695294102294289874-309
    0.541378441458382795E-04    0.201205408386731362E-05   -0.586591315269470215E+01    0.122257909178733826E+03   -0.290589880943298340E+01   -0.179012739658355713E+01   -0.278221206068992633E+01   -0.692966384291648829E+01   -0.242552013993263227E+01   -0.113680408596992422E+01    0.695294102294289874-309
    0.686496694791375206E+00    0.159647394710059516E-03   -0.157842421531677246E+01    0.248861870169639587E+03    0.136411750316619873E+01   -0.275295603275299072E+01   -0.399685685634613019E+01   -0.430536019802093506E+01   -0.211260374188423139E+01   -0.224952573776245135E+01    0.695294102294289874-309
    0.110026331889479033E-02    0.610039661367314176E-01   -0.394565463066101074E+01    0.282285100221633911E+03    0.178884387016296387E+00    0.284498298168182373E+01   -0.670434699058532679E+01   -0.447521060109138524E+01   -0.610906608700752241E+01   -0.325170767307281494E+01    0.695294102294289874-309
    0.762019132571558760E-01    0.354461840009509754E+00   -0.411162757873535156E+01    0.298678061366081238E+03    0.278473734855651855E+00   -0.299309384822845459E+01   -0.965542465448379517E+00   -0.514438665509223902E+01   -0.589776017069816572E+01   -0.476584323048591596E+01    0.695294102294289874-309
    0.915957743842020000E+00    0.152670888216748568E+00   -0.433758473396301270E+01    0.107693022489547729E+03    0.134747850894927979E+01   -0.985205054283142090E+00   -0.698609794378280657E+01   -0.177311294674873299E+01   -0.737242825627326948E+01   -0.565967455506324768E+01    0.695294102294289874-309
    0.539658280173277105E+00    0.297063062363817354E+00   -0.596842789649963379E+01    0.198947837948799133E+03   -0.155192720890045166E+01   -0.812700390815734863E+00   -0.249267516136169398E+01   -0.558067039251327479E+01   -0.753977077007293683E+01   -0.222392134666442853E+01    0.695294102294289874-309
    0.206527838389991428E-02    0.423913507492370278E-01   -0.150096380710601807E+01    0.109356051683425903E+03    0.361392617225646973E+00   -0.105071425437927246E+01   -0.602618095874786341E+01   -0.548248789310455287E+01   -0.174089367985725385E+01   -0.328336141705513018E+01    0.695294102294289874-309
    0.108793625776778174E+00    0.479155444287775622E-05   -0.528652632236480713E+01    0.100311002135276794E+03    0.213007915019989014E+01   -0.294619417190551758E+01   -0.554633218050003052E+01   -0.730394442081451434E+01   -0.160670465230941772E+01   -0.622995661497116071E+01    0.695294102294289874-309
    0.117795086734052498E-05    0.135746815289664326E-05   -0.388501203060150146E+01    0.276614925265312195E+03   -0.345579385757446289E-01    0.276150906085968018E+01   -0.339699432253837585E+01   -0.754521881341934186E+01   -0.381804755330085754E+01   -0.793446244001388568E+01    0.695294102294289874-309
    0.887554154931459102E-02    0.971690521811160676E-04   -0.117409980297088623E+01    0.227449840307235718E+03   -0.228883731365203857E+01    0.552241086959838867E+00   -0.320822644829750026E+01   -0.226967831850051827E+01   -0.658881080150604248E+01   -0.261507484912872279E+01    0.695294102294289874-309
    0.652211950273838023E-05    0.186200323253119956E-05   -0.705353021621704102E+00    0.238779267668724060E+03   -0.172573542594909668E+01   -0.160046446323394775E+01   -0.334741449356078746E+00   -0.265356383919715899E+01   -0.504964014291763341E+01   -0.907309144735336304E+00    0.695294102294289874-309
    0.407621226224380855E-03    0.648742747080470570E-04   -0.205627298355102539E+01    0.297818964719772339E+03   -0.181085622310638428E+01    0.609669685363769531E+00   -0.257624635696411097E+01   -0.694130909442901611E+01   -0.472247030735015905E+01   -0.173108108043670583E+01    0.695294102294289874-309
    0.932504858047226080E-05    0.478992383328467275E+00   -0.378978109359741211E+01    0.191177254915237427E+03   -0.420663356781005859E+00   -0.176254105567932129E+01   -0.548239089250564504E+01   -0.500746936798095632E+01   -0.426496980786323476E+01   -0.559595928788185049E+01    0.695294102294289874-309
    0.537442365164783968E-05    0.181253133116036830E+00   -0.429391086101531982E+01    0.143943226337432861E+03   -0.183736252784729004E+01    0.130318915843963623E+01   -0.291211705207824689E+01   -0.778458521366119349E+01   -0.536980757117271423E+01   -0.432453523874282819E+01    0.695294102294289874-309
    0.648992988027740081E+00    0.340634997821879625E-03   -0.209068894386291504E+00    0.269174328446388245E+03    0.255499792098999023E+01   -0.109190368652343750E+01   -0.122918067574500967E+01   -0.353260304331779462E+01   -0.345675705075263995E+01   -0.768788644671440125E+01    0.695294102294289874-309
    0.429398282406211152E-03    0.573311358105165272E-03   -0.203692531585693359E+01    0.120312756299972534E+03   -0.831085681915283203E+00   -0.211150074005126953E+01   -0.578113154768943716E+01   -0.410316951274871755E+01   -0.490426402688026464E+01   -0.235715873241424578E+01    0.695294102294289874-309
    0.244291758840790873E-03    0.499149892396550185E-04   -0.196559822559356689E+01    0.159047475457191467E+03   -0.296048319339752197E+01    0.170828819274902344E+00   -0.905555599927901689E+00   -0.342862499356269801E+01   -0.179500777125358546E+01   -0.546933866143226588E+01    0.695294102294289874-309
    0.450838529633852884E-04    0.478657887660461135E-04   -0.145272624492645264E+01    0.103069326281547546E+03    0.175611770153045654E+01   -0.438107013702392578E+00   -0.336703432202339137E+01   -0.340735596418380737E+01   -0.282025089263915962E+01   -0.864525759220122758E+00    0.695294102294289874-309
    0.107139571102694923E-05    0.273168022155503165E-04   -0.181658971309661865E+01    0.194143435359001160E+03   -0.127923953533172607E+01   -0.291576218605041504E+01   -0.382509375214576686E+01   -0.520178746581077611E+01   -0.249320960640907252E+01   -0.410078923106193471E+01    0.695294102294289874-309
    0.454277237625779027E-03    0.452388067156218009E-02   -0.470052015781402588E+01    0.100906303524971008E+03    0.116165006160736084E+01   -0.171747601032257080E+01   -0.318730398416519112E+01   -0.208183807134628296E+01   -0.331729514598846453E+01   -0.391676120162010211E+01    0.695294102294289874-309
    0.617878680804578639E+00    0.170272326740349367E+00   -0.111555647850036621E+01    0.113001009821891785E+03   -0.173771345615386963E+01    0.231263387203216553E+01   -0.316820805072784406E+01   -0.148505036234855581E+01   -0.394268767237663287E+01   -0.669157446026802027E+01    0.695294102294289874-309
    0.367868552281280445E-01    0.198919429972691528E-02   -0.502875816822052002E+01    0.250319784879684448E+03   -0.137664198875427246E+01    0.298969030380249023E+00   -0.242749970555305428E+01   -0.310620677471160889E+01   -0.694481712579727173E+01   -0.407354665994644094E+01    0.695294102294289874-309
    0.553528950126459965E-05    0.652341040327337411E-04   -0.156905794143676758E+01    0.189462324976921082E+03    0.124700403213500977E+01    0.904359698295593262E+00   -0.680366665720939601E+01   -0.219272623658180255E+01   -0.463583135008811986E+01   -0.932686573266982677E+00    0.695294102294289874-309
    0.411085588520150983E-05    0.249834623980078364E-01   -0.126910543441772461E+01    0.280817067623138428E+03    0.936159610748291016E+00   -0.145732998847961426E+00   -0.147201319932937569E+01   -0.304163404107093793E+01   -0.118894897103309560E+01   -0.693098794817924535E+01    0.695294102294289874-309
    0.346906654896131098E-05    0.435496989345770248E-05   -0.418275582790374756E+01    0.275707921385765076E+03   -0.252803063392639160E+01    0.259440886974334717E+01   -0.473221980929374730E+01   -0.326080595254898054E+01   -0.169750568866729701E+01   -0.563595178723335266E+01    0.695294102294289874-309
    0.373923084924433118E-04    0.807218975784327318E-03   -0.381673800945281982E+01    0.181514745950698853E+03    0.189682066440582275E+01    0.140932559967041016E+01   -0.935975646972655895E+00   -0.259537478089332563E+01   -0.734805803298950178E+01   -0.462345294356346059E+01    0.695294102294289874-309
    0.152273503494263884E+00    0.249989656057670803E-03   -0.545880317687988281E+00    0.231771728396415710E+03   -0.280005562305450439E+01    0.844823956489562988E+00   -0.249254614114761353E+01   -0.660996116995811445E+01   -0.154698901176452619E+01   -0.483740424513816869E+01    0.695294102294289874-309
    0.720903502058770025E-04    0.742384801495177911E-04   -0.522515594959259033E+01    0.297531461715698242E+03   -0.165124404430389404E+01    0.353799104690551758E+00   -0.118386350274085927E+01   -0.764471835494041407E+01   -0.103315564990043640E+01   -0.551386523246765137E+01    0.695294102294289874-309
    0.383800776683463046E-04    0.394008611948474803E-03   -0.531239140033721924E+01    0.130595019459724426E+03   -0.190811812877655029E+01   -0.238984358310699463E+01   -0.490120191574096609E+01   -0.556897993683814985E+01   -0.790858635306358337E+01   -0.764863765239715221E+00    0.695294102294289874-309
    0.164063988609982009E-03    0.503436234501827528E-05   -0.150910341739654541E+01    0.140951132774353027E+03   -0.165547871589660645E+01   -0.291259753704071045E+01   -0.186287522912025416E+01   -0.661645550131797755E+01   -0.648321783542632701E+00   -0.584567179083824140E+01    0.695294102294289874-309
    0.847870620816290328E-03    0.589786856902465239E-03   -0.594250845909118652E+01    0.170669412612915039E+03    0.269906222820281982E+01   -0.133431529998779297E+01   -0.227327393293380720E+01   -0.529983199834823537E+01   -0.600379830598831177E+01   -0.786431593894958514E+01    0.695294102294289874-309
    0.242025465953413545E-01    0.130467934823760611E-05   -0.406841611862182617E+01    0.346099621057510376E+03   -0.188308417797088623E+01   -0.153187751770019531E+00   -0.573763666749000478E+01   -0.555221955180168081E+01   -0.780311750769615209E+01   -0.304928343296051008E+01    0.695294102294289874-309
    0.525729385911149621E-01    0.216264510313313285E+00   -0.369587159156799316E+01    0.321908405423164368E+03   -0.192174983024597168E+01    0.117117369174957275E+01   -0.638160904645919835E+01   -0.161256753802299446E+01   -0.717121840715408343E+01   -0.125025476217269826E+01    0.695294102294289874-309
    0.121009266191982073E+00    0.765607645658383058E-03   -0.351313233375549316E+01    0.101493036746978760E+03   -0.126125121116638184E+01   -0.403545498847961426E+00   -0.976588761806487682E+00   -0.300068989992141688E+01   -0.185578429698944092E+01   -0.233740282058715110E+00    0.695294102294289874-309
    0.215883858177500972E-04    0.726537491225261443E-05   -0.186585366725921631E+01    0.328257730603218079E+03   -0.139852917194366455E+01    0.710105895996093750E+00   -0.782726472616195323E+00   -0.696556112766265834E+01   -0.388230668306350690E+01   -0.764503619670867884E+01    0.695294102294289874-309
    0.435774887458707371E-03    0.106333263870073708E-01   -0.333393216133117676E+01    0.324937379360198975E+03   -0.273862946033477783E+01   -0.580006957054138184E+00   -0.246336591243743896E+01   -0.561927192211151105E+01   -0.185390455722808767E+01   -0.615201380848884583E+01    0.695294102294289874-309
    0.168763016291932355E-01    0.167440680005940699E-03   -0.189079642295837402E+01    0.151176115870475769E+03    0.372859239578247070E-01    0.101712048053741455E+01   -0.706977084875106776E+01   -0.642409295439720118E+01   -0.393237264752387983E+01   -0.537566103935241735E+01    0.695294102294289874-309
    0.171305553862589818E-01    0.512415506738430411E-03   -0.577986717224121094E+01    0.239364570379257202E+03   -0.135186588764190674E+01   -0.286591672897338867E+01   -0.256957403421401942E+01   -0.216138845086097664E+01   -0.790184010267257708E+01   -0.124196262359619070E+01    0.695294102294289874-309
    0.409808324659200000E-05    0.232203906630788937E-04   -0.552068817615509033E+01    0.207933461666107178E+03    0.433221459388732910E+00    0.275430715084075928E+01   -0.117323157787322963E+01   -0.302380617856979317E+01   -0.425395976901054418E+01   -0.591123995780944789E+01    0.695294102294289874-309
    0.163162286031651150E-02    0.283099890923258109E-02   -0.380339276790618896E+01    0.128498634696006775E+03   -0.118553102016448975E+01   -0.180071532726287842E+01   -0.422076154947280813E+01   -0.129714372158050484E+01   -0.709056711792945826E+01   -0.269973235726356453E+01    0.695294102294289874-309
    0.814902020033300727E-04    0.574188410487795639E-05   -0.544075620174407959E+01    0.255823677778244019E+03    0.270266425609588623E+01    0.139489531517028809E+01   -0.458374297022819555E+01   -0.100922192931175214E+01   -0.103148545026779104E+01   -0.289952129125595093E+00    0.695294102294289874-309
    0.181101751012716029E-05    0.367861080128199954E-03   -0.402515602111816406E+01    0.187657779455184937E+03    0.122872066497802734E+01   -0.285686588287353516E+01   -0.223306671380996669E+01   -0.637358248233795166E+01   -0.501670749783515912E+01   -0.465335973501205480E+01    0.695294102294289874-309
    0.508540761963322246E-02    0.135040957150263244E-02   -0.178051650524139404E+01    0.199526882171630859E+03   -0.491219401359558105E+00   -0.720247507095336914E+00   -0.138147820830345136E+01   -0.722309677600860578E+01   -0.570396568775177037E+01   -0.482280235886573827E+01    0.695294102294289874-309
    0.301270067053770463E-05    0.208612796193189624E-02   -0.242036712169647217E+01    0.315384572744369507E+03   -0.147861385345458984E+01    0.232814490795135498E+01   -0.784601437449455297E+01   -0.493578922152519262E+01   -0.232384157180785422E+00   -0.574848472476005590E+01    0.695294102294289874-309
    0.119295558369818342E-02    0.899947295775780043E-04   -0.576293706893920898E+01    0.280984914302825928E+03   -0.292254638671875000E+01    0.274740314483642578E+01   -0.760847187042235973E+00   -0.473437077403068507E+01   -0.182402130961418152E+01   -0.558971028327941877E+01    0.695294102294289874-309
    0.278691085046870492E-01    0.103480406633952701E-04   -0.365081191062927246E+00    0.224699637293815613E+03    0.909158349037170410E+00   -0.582686305046081543E+00   -0.310046914219856262E+01   -0.383647578358650154E+01   -0.256851220726966822E+01   -0.799875076413154584E+01    0.695294102294289874-309
    0.196808521414253146E-01    0.486106132618832959E-04   -0.126527273654937744E+01    0.103983914852142334E+03   -0.251698207855224609E+01    0.185256922245025635E+01   -0.154279726743698120E+01   -0.598543646931648254E+01   -0.150022106766700691E+01   -0.221240370273590070E+01    0.695294102294289874-309
    0.111521997461323748E-03    0.328048580457114825E+00   -0.107127070426940918E+01    0.278741961717605591E+03   -0.540372848510742188E+00   -0.445654749870300293E+00   -0.767965175509452802E+01   -0.440973755121231115E+01   -0.727910096645355242E+01   -0.451389641761779714E+01    0.695294102294289874-309
    0.326609122464144447E-01    0.765337858953447525E+00   -0.419764459133148193E+01    0.156492120027542114E+03   -0.288202428817749023E+01    0.301019668579101562E+00   -0.612789362072944677E+01   -0.158901287317275930E+01   -0.360540199279785156E+01   -0.337075095176696760E+01    0.695294102294289874-309
    0.199360167808881411E+00    0.160150116481108358E-03   -0.354902565479278564E+01    0.206929197907447815E+03    0.113148128986358643E+01    0.242081630229949951E+01   -0.255934988856315560E+01   -0.224916787147521990E+01   -0.591503616571426427E+01   -0.264186255335807818E+01    0.695294102294289874-309
    0.229905698042200243E-04    0.452224060674755678E-03   -0.137411963939666748E+01    0.179637184739112854E+03    0.894939422607421875E+00   -0.179736220836639404E+01   -0.122950322628021169E+01   -0.258597466945648158E+01   -0.396789181828498805E+01   -0.599871660470962453E+01    0.695294102294289874-309
    0.799514434983108915E-04    0.879875151384672716E-03   -0.503920197486877441E+00    0.291830739378929138E+03   -0.173183083534240723E+00    0.167625117301940918E+01   -0.518739653229713404E+01   -0.631998211741447413E+01   -0.766496464014053380E+01   -0.152611994743346635E+00    0.695294102294289874-309
    0.262633731924283341E-02    0.643163450927316112E-04   -0.186152529716491699E+01    0.176628968119621277E+03    0.234931468963623047E+00   -0.212034451961517334E+01   -0.250823010206222552E+01   -0.351138204336166382E+01   -0.576492350101470930E+01   -0.121206402778625488E+00    0.695294102294289874-309
    0.118934825074775812E-01    0.889339766013748756E+00   -0.199272859096527100E+01    0.276724910736083984E+03   -0.110470783710479736E+01   -0.276563072204589844E+01   -0.602906272411346400E+01   -0.323725128769874537E+01   -0.546598225235939061E+01   -0.140968278050422668E+01    0.695294102294289874-309
    0.757720802558929845E-05    0.251351676863337524E-05   -0.164997160434722900E+01    0.118968805670738220E+03    0.213318908214569092E+01   -0.147067701816558838E+01   -0.497318671941757184E+01   -0.348661110401153529E+01   -0.683397510647773743E+01   -0.170219185352325386E+01    0.695294102294289874-309
    0.547782309444152071E+00    0.259345833535831252E-01   -0.461500883102416992E-01    0.122324517369270325E+03    0.132522475719451904E+01    0.269548022747039795E+01   -0.719942910075187648E+01   -0.768046495914459193E+01   -0.440806923508644033E+01   -0.112419118285179120E+01    0.695294102294289874-309
    0.120866821197776093E-01    0.829201434362258731E-03   -0.260757565498352051E+00    0.284869259595870972E+03   -0.107365429401397705E+01    0.101203429698944092E+01   -0.133695936203002574E+00   -0.443231750130653346E+01   -0.197423521280288661E+01   -0.805500423908233287E+00    0.695294102294289874-309
    0.276878347822585857E+00    0.110208655679717456E-03   -0.420640146732330322E+01    0.114406219124794006E+03   -0.295414459705352783E+01   -0.345756053924560547E+00   -0.907675015926360906E+00   -0.100535132288932783E+01   -0.665241400003433192E+01   -0.153535082340240425E+01    0.695294102294289874-309
    0.117942814134318429E-05    0.129877979406735570E-01   -0.586357676982879639E+01    0.101632973551750183E+03   -0.145143020153045654E+01   -0.178543603420257568E+01   -0.332815073728561384E+01   -0.236472430825233459E+01   -0.463988230228424037E+01   -0.191267279386520350E+01    0.695294102294289874-309
    0.693992992700523474E-04    0.455588166752637566E-02   -0.808779716491699219E+00    0.174157088994979858E+03    0.291639590263366699E+01    0.490093231201171875E-01   -0.329325547814369202E+01   -0.784893098473548889E+01   -0.528733634352684057E+01   -0.167236040234565664E+01    0.695294102294289874-309
    0.123990882055053709E-03    0.886211339975706697E-01   -0.189501035213470459E+01    0.300157776474952698E+03    0.911029100418090820E+00    0.284748637676239014E+01   -0.472105673551559413E+01   -0.217850548028945212E+00   -0.657655435204505956E+01   -0.321019800901412911E+01    0.695294102294289874-309
    0.360798963867873912E+00    0.640401578217294348E-01   -0.493091940879821777E+00    0.289266696572303772E+03   -0.622257471084594727E+00   -0.929250240325927734E+00   -0.192889826297759992E+01   -0.365724692940711993E+01   -0.173441959619522024E+01   -0.603481636643409747E+01    0.695294102294289874-309
    0.158069604527447179E-04    0.114828899534710139E-04   -0.629123568534851074E+00    0.190896472334861755E+03   -0.660188913345336914E+00   -0.116698980331420898E+01   -0.764683259129524195E+01   -0.410211992859840358E+01   -0.215536782145500183E+01   -0.180004191398620605E+01    0.695294102294289874-309
    0.138153087070374075E+00    0.385602250343660162E-02   -0.408293616771697998E+01    0.209559208154678345E+03    0.163303506374359131E+01   -0.247972369194030762E+01   -0.574512803554534379E+00   -0.122710128426551801E+01   -0.803512853384017234E+00   -0.337852182984352112E+01    0.695294102294289874-309
    0.855947632531755126E-01    0.150376073435805169E+00   -0.424601411819458008E+01    0.239227747917175293E+03   -0.104127681255340576E+01   -0.154663574695587158E+01   -0.398044303655624354E+01   -0.416804266571998561E+01   -0.190381748676299978E+01   -0.751656408309936541E+01    0.695294102294289874-309
    0.998103431153219284E-01    0.116314573197086931E-01   -0.560586690902709961E+00    0.240960678458213806E+03    0.289390826225280762E+01   -0.219415354728698730E+01   -0.375152397751808131E+01   -0.185647507309913617E+01   -0.701708115935325605E+01   -0.553877413868904078E+01    0.695294102294289874-309
    0.409369855820370839E-05    0.229326415315806970E+00   -0.208632767200469971E+01    0.190913087129592896E+03    0.208757758140563965E+00    0.482129931449890137E+00   -0.748015495538711583E+01   -0.654282451272010768E+01   -0.200021253824233991E+01   -0.546377384066581762E+01    0.695294102294289874-309
    0.514559871218896962E-02    0.671779517341161703E+00   -0.487128102779388428E+01    0.315666025876998901E+03   -0.140553188323974609E+01    0.466151118278503418E+00   -0.470511190891265851E+01   -0.565053954720497131E+01   -0.395912126898765582E+01   -0.769737037420272863E+01    0.695294102294289874-309
    0.102918312504758722E-02    0.346423262988686365E+00   -0.579415583610534668E+01    0.126871323585510254E+03    0.204756689071655273E+01    0.168322026729583740E+01   -0.694773769378661754E+00   -0.405936385393142629E+01   -0.716317018270492589E+01   -0.472838734388351423E+01    0.695294102294289874-309
    0.235201933431248372E-05    0.146188368692911547E+00   -0.208783900737762451E+01    0.201352602243423462E+03   -0.384818315505981445E-01    0.912122726440429688E-01   -0.233053536415100115E+01   -0.364964933395385760E+01   -0.454738705158233625E+01   -0.588753932118415868E+01    0.695294102294289874-309
    0.213156936328337612E-01    0.528757412617016109E-03   -0.197233486175537109E+01    0.167613616585731506E+03    0.266449105739593506E+01   -0.728995800018310547E+00   -0.336814794540405238E+01   -0.420976394414901200E+00   -0.269689363241194968E+00   -0.237430241107940621E+01    0.695294102294289874-309
    0.580255391576762440E-05    0.112651771024655648E-05   -0.678678631782531738E+00    0.175678586959838867E+03   -0.228609859943389893E+01    0.124543797969818115E+01   -0.368443158268928528E+01   -0.626372082829475385E+01   -0.236250318288803118E+01   -0.212132955789566058E+01    0.695294102294289874-309
    0.370029501827437334E-05    0.662600667728551973E+00   -0.579735267162322998E+01    0.245358055830001831E+03    0.112470674514770508E+01    0.593404054641723633E+00   -0.526084764599800092E+01   -0.178501011729240400E+01   -0.397925096750259222E+00   -0.590665757656097412E+00    0.695294102294289874-309
    0.119937714708259167E-01    0.317537872229631864E-02   -0.285572755336761475E+01    0.194862759113311768E+03   -0.287608802318572998E+01   -0.112138545513153076E+01   -0.133075489997863716E+01   -0.117525917291641235E+01   -0.680694085359572654E+00   -0.322535458803176844E+01    0.695294102294289874-309
    0.516220860372954116E+00    0.896579237331200369E-05   -0.121692931652069092E+01    0.126208102703094482E+03    0.935793399810791016E+00    0.123274326324462891E+00   -0.128123091459274274E+01   -0.592670307755470205E+01   -0.301481074094771984E+00   -0.151417078971862740E+01    0.695294102294289874-309
    0.368079450740260922E-04    0.709976692973039464E-02   -0.468259012699127197E+01    0.282176306843757629E+03    0.295890927314758301E+00   -0.126755368709564209E+01   -0.496289147138595510E+01   -0.385147273540496826E+01   -0.119570275545120186E+01   -0.540422771573066640E+01    0.695294102294289874-309
    0.217388896545343722E-05    0.111685614034755633E-02   -0.579484462738037109E+01    0.158484524488449097E+03    0.243008601665496826E+01    0.297509157657623291E+01   -0.674981908202171343E+01   -0.586056750416755712E+01   -0.178089324235916102E+01   -0.658754998445510331E+00    0.695294102294289874-309
    0.174660721003496026E-05    0.105307491714619936E+00   -0.435805678367614746E+00    0.318806996941566467E+03   -0.296903407573699951E+01   -0.277749395370483398E+01   -0.237150917053222621E+01   -0.735739928483963013E+01   -0.725597385764122027E+01   -0.538097817897796560E+01    0.695294102294289874-309
    0.494088087652492960E-03    0.364365714095239823E+00   -0.314437937736511230E+01    0.259086525440216064E+03   -0.128521013259887695E+01    0.162870025634765625E+01   -0.778869926333427465E+01   -0.554982655644416845E+01   -0.147564365863799996E+01   -0.276913082599639537E+00    0.695294102294289874-309
    0.190204200710832088E-05    0.337780757899634309E-04   -0.440792441368103027E+01    0.149100860953330994E+03   -0.279679942131042480E+01    0.210161697864532471E+01   -0.596773028373718262E+00   -0.660703749656677264E+01   -0.583422148227691650E+01   -0.179548288583755422E+01    0.695294102294289874-309
    0.234082865964976572E-01    0.112213629452587646E-03   -0.545829856395721436E+01    0.260807996988296509E+03    0.105488562583923340E+01   -0.263454937934875488E+01   -0.560730553269386256E+01   -0.764980052709579450E+01   -0.523506102561950648E+01   -0.792806087136268633E+01    0.695294102294289874-309
    0.118509909980568195E-02    0.428287544187408303E-01   -0.252337574958801270E+01    0.289231574535369873E+03   -0.547730684280395508E+00    0.185853588581085205E+01   -0.692474647760391271E+01   -0.568166873455047572E+01   -0.689760561585426313E+01   -0.480803613662719709E+01    0.695294102294289874-309
    0.558740490861899017E-05    0.106269362742698206E-04   -0.367792546749114990E+01    0.230535602569580078E+03   -0.173928523063659668E+01    0.198815488815307617E+01   -0.537611496448516846E+01   -0.252654296755790675E+01   -0.613180943131446821E+01   -0.368440474271774310E+01    0.695294102294289874-309
    0.515536633248749130E-02    0.512759658745090899E-02   -0.865379333496093750E+00    0.325065618753433228E+03    0.157639646530151367E+01    0.197758197784423828E+00   -0.709832999110221863E+01   -0.100423251986503548E+01   -0.670989344716072100E+01   -0.787370051145553607E+01    0.695294102294289874-309
    0.170023115476082932E-05    0.275885063041828409E-01   -0.358907711505889893E+01    0.271199768781661987E+03   -0.123999559879302979E+01    0.924836754798889160E+00   -0.184291052818298340E+01   -0.781177881360054016E+01   -0.436680536866188085E+01   -0.667696033120155352E+01    0.695294102294289874-309
    0.712773665814650070E+00    0.273845796957655242E-03   -0.397555267810821533E+01    0.142213723063468933E+03    0.131544756889343262E+01   -0.122578096389770508E+01   -0.733575261235237086E+01   -0.341827182769775373E+01   -0.115265944600105286E+01   -0.524763955473899824E+01    0.695294102294289874-309
    0.727847110266506645E-02    0.231246000515829466E-04   -0.321231007575988770E+01    0.102704590559005737E+03    0.480035305023193359E+00   -0.110878407955169678E+01   -0.113501051664352381E+01   -0.346663604378700274E+01   -0.755317474603652972E+01   -0.782693586349487269E+01    0.695294102294289874-309
    0.846417759903998236E-02    0.599783663713280291E+00   -0.240916156768798828E+01    0.276914572715759277E+03    0.198637712001800537E+01    0.830612897872924805E+00   -0.761265071034431440E+01   -0.788801657557487523E+01   -0.335828637480735726E+01   -0.430622472763061559E+01    0.695294102294289874-309
    0.109287927995459305E+00    0.113827822096652302E-02   -0.153789460659027100E+01    0.261798954010009766E+03    0.273642861843109131E+01    0.298120307922363281E+01   -0.189020867943763715E+01   -0.208946391940116882E+01   -0.139421024322509712E+01   -0.393462814688682538E+01    0.695294102294289874-309
    0.272938524456077221E-03    0.300279765949558962E-03   -0.477654755115509033E+01    0.212929090857505798E+03    0.380905866622924805E+00    0.228163754940032959E+01   -0.561786918044090200E+01   -0.696172301173210162E+01   -0.431930992007255554E+01   -0.707594498395919835E+01    0.695294102294289874-309
    0.337100898150746004E-03    0.366734122350867138E-03   -0.417976319789886475E+01    0.192219844460487366E+03   -0.145099711418151855E+01   -0.692461967468261719E+00   -0.491306329965591360E+01   -0.620854538083076513E+01   -0.693120643496513367E+01   -0.191569036245345714E+00    0.695294102294289874-309
    0.874831821758276403E-02    0.141167697589688853E-04   -0.498664748668670654E+01    0.244820511341094971E+03    0.139523148536682129E+00    0.547568321228027344E+00   -0.477296429872512817E+01   -0.581697750687599147E+01   -0.216741049289703369E+01   -0.299174889326095528E+01    0.695294102294289874-309
    0.318601355122894966E-04    0.692573172733375168E-04   -0.176526224613189697E+01    0.292848488688468933E+03    0.488535046577453613E+00    0.174182903766632080E+01   -0.556262451410293579E+01   -0.226913681030273384E+01   -0.117061397433280945E+01   -0.691848193407058698E+01    0.695294102294289874-309
    0.702113452617767059E-01    0.564589073005751160E-01   -0.379586040973663330E+01    0.125110363960266113E+03   -0.106811678409576416E+01   -0.192001497745513916E+01   -0.465508879423141408E+01   -0.789901672601699811E+01   -0.765005668401718175E+01   -0.676707059144973755E+01    0.695294102294289874-309
    0.226768991034710176E-05    0.196358009164846439E-04   -0.492343139648437500E+01    0.123080423474311829E+03   -0.144979763031005859E+01   -0.195958185195922852E+01   -0.678107559680938721E+00   -0.604789826273918152E+01   -0.747791829109191930E+01   -0.297360836863517708E+01    0.695294102294289874-309
    0.217027412293480053E-05    0.402169690623291592E-02   -0.157334089279174805E+01    0.191450780630111694E+03   -0.142969894409179688E+01    0.634147882461547852E+00   -0.422405297756194997E+01   -0.468637525439262426E+01   -0.602129420042037999E+01   -0.463658993244171125E+01    0.695294102294289874-309
    0.116875444134281048E-05    0.243178832903471198E+00   -0.110002470016479492E+01    0.138961365818977356E+03   -0.100370764732360840E+01    0.117758345603942871E+01   -0.496040382981300354E+01   -0.600806539058685285E+01   -0.674578225612640381E+01   -0.794422889351844752E+01    0.695294102294289874-309
    0.791794533778033216E+00    0.153940796820322225E-02   -0.190163326263427734E+01    0.261673337221145630E+03    0.247095501422882080E+01    0.286513602733612061E+01   -0.483312727212905813E+01   -0.750029811859130824E+01   -0.583490048646926862E+01   -0.633161983489990199E+01    0.695294102294289874-309
    0.319089978060299804E-04    0.151585862125380586E-04   -0.525816428661346436E+01    0.334140753746032715E+03    0.193754875659942627E+01   -0.161926174163818359E+01   -0.217961326241493225E+01   -0.651097676753997767E+01   -0.556954169273376465E+01   -0.260748290419578499E+01    0.695294102294289874-309
    0.468770021637030031E-03    0.123830446622537688E-04   -0.132071435451507568E+01    0.117959341406822205E+03   -0.170427203178405762E+00   -0.940182209014892578E+00   -0.711984528899192792E+01   -0.250871275067329425E+01   -0.172832598090171796E+01   -0.454294527173042262E+01    0.695294102294289874-309
    0.356239014610928252E-05    0.153165178315457047E-02   -0.440869474411010742E+01    0.287892585992813110E+03   -0.258321762084960938E-01    0.125169897079467773E+01   -0.757074692249298131E+01   -0.779282480478286743E+00   -0.137042720317840505E+01   -0.129020017385482788E+01    0.695294102294289874-309
    0.209647271664492611E-05    0.286985289123297580E-04   -0.101943933963775635E+01    0.116021415591239929E+03   -0.347752332687377930E+00   -0.399708867073059082E+00   -0.318475013971328380E+00   -0.674546818137168902E+01   -0.591408923268318176E+01   -0.315980290174484235E+01    0.695294102294289874-309
