    0.861524511690550412E+03    0.122512827754834817E+02   -0.359755250651319081E+00   -0.224258585682681577E+01   -0.161866827837087612E+01    0.285558863563754530E+05
    0.875649015173310659E+03    0.108969862713928300E+02   -0.334567482650972359E+00   -0.265877209348249366E+01   -0.196388125540393510E+01    0.285563588202091196E+05
    0.869218190890858295E+03    0.886466997148441394E+01   -0.347767804483551934E+00   -0.203049978556541610E+01   -0.173084129245221607E+01    0.285569752699698438E+05
    0.875070736093698201E+03    0.114994270810544137E+02   -0.346324037855754163E+00   -0.246486064598952304E+01   -0.149638317548309363E+01    0.285570215457782469E+05
    0.869643496978634630E+03    0.130995109279612407E+02   -0.348640446983440100E+00   -0.231845287133442923E+01   -0.188543638792842749E+01    0.285572768416396539E+05
    0.860334268718124008E+03    0.118244226545287745E+02   -0.370377688312913733E+00   -0.200721104917802862E+01   -0.162175396364516811E+01    0.285575364234689914E+05
    0.866954263627043247E+03    0.128071918306688595E+02   -0.362586476568574234E+00   -0.180840190729704364E+01   -0.160554133607676608E+01    0.285575634503763940E+05
    0.872547012397113349E+03    0.964008289767066628E+01   -0.343741268374171405E+00   -0.216962482720085958E+01   -0.167085280464358910E+01    0.285577354407544626E+05
    0.886440655409417559E+03    0.987541435814506841E+01   -0.327564761733055931E+00   -0.314307585604701956E+01   -0.192083332103886129E+01    0.285578674070527959E+05
    0.864954415342513812E+03    0.140235055579152110E+02   -0.364790420147729222E+00   -0.186585364245588714E+01   -0.159308896784171683E+01    0.285579787210137292E+05
    0.883230414197044183E+03    0.986988721572761563E+01   -0.328151487091091099E+00   -0.280664283177259044E+01   -0.203261075139496672E+01    0.285580006236170884E+05
    0.871107798350762209E+03    0.106114811006778851E+02   -0.348994278344894937E+00   -0.207904590086321761E+01   -0.162295697779805526E+01    0.285580607797868288E+05
    0.864543167820713620E+03    0.142967050748772948E+02   -0.361235112367126021E+00   -0.197638235847268096E+01   -0.174466710816203108E+01    0.285580941136242182E+05
    0.871492204058254060E+03    0.131704444224103021E+02   -0.347302781442746067E+00   -0.236642768678125659E+01   -0.160143271433880940E+01    0.285581733673539529E+05
    0.877997752716861783E+03    0.112627207365487898E+02   -0.336399615737305702E+00   -0.253160104547994713E+01   -0.200014622490961269E+01    0.285582547456661596E+05
    0.870431767271005128E+03    0.130443738146589787E+02   -0.345771214763739287E+00   -0.223321630736208832E+01   -0.172369880420128752E+01    0.285582888243879388E+05
    0.876107903844158386E+03    0.109212797622454580E+02   -0.344037021624801653E+00   -0.277161526042077799E+01   -0.175716728359706309E+01    0.285584329330860091E+05
    0.871739758322605212E+03    0.139988752673546237E+02   -0.348042760372457849E+00   -0.216168594672160186E+01   -0.161132884843448476E+01    0.285585666089391925E+05
    0.870869262122161217E+03    0.114874644999252666E+02   -0.347379142947138675E+00   -0.237077620047428894E+01   -0.179163326943558854E+01    0.285587124357376670E+05
    0.867032405876490998E+03    0.109703489835042767E+02   -0.358728893267786120E+00   -0.231204946981018544E+01   -0.166911714886725804E+01    0.285587786988727967E+05
    0.871662254106294313E+03    0.118466205596606500E+02   -0.345798292739133650E+00   -0.233431861562097076E+01   -0.182525716522770765E+01    0.285588928781264840E+05
    0.864792369833842145E+03    0.147074253592021780E+02   -0.361377054039580869E+00   -0.208020116990926596E+01   -0.164888477892725760E+01    0.285589545935518654E+05
    0.883304340914001159E+03    0.115744092942231784E+02   -0.327076720798888054E+00   -0.258114290462878948E+01   -0.211954406989201694E+01    0.285589827384591663E+05
    0.874004287004122489E+03    0.139369861778347577E+02   -0.342190227587732210E+00   -0.250120699923065892E+01   -0.179747757006345488E+01    0.285590543777144012E+05
    0.872728568672195365E+03    0.137163933976092505E+02   -0.344863007745507488E+00   -0.243713652122074631E+01   -0.179059053385055478E+01    0.285591336117274986E+05
    0.880777390175182973E+03    0.106007307793785586E+02   -0.330226705672751919E+00   -0.244732879264572389E+01   -0.207837414742518600E+01    0.285592549161355346E+05
    0.867004521569444933E+03    0.101248400346593606E+02   -0.358177848321894032E+00   -0.210891833205037127E+01   -0.170736913873173179E+01    0.285592683265022570E+05
    0.870801046157759743E+03    0.138300774721084903E+02   -0.350338155218278935E+00   -0.248333969483428518E+01   -0.167056417758468356E+01    0.285593282781846538E+05
    0.871204474204127337E+03    0.135388135928773288E+02   -0.357693095232928471E+00   -0.178033065443729743E+01   -0.166285421517777454E+01    0.285593323298823889E+05
    0.868738896748036041E+03    0.110795656423569575E+02   -0.353488906392558810E+00   -0.233184733209063655E+01   -0.165531035267811077E+01    0.285593850666242070E+05
    0.884781609533275059E+03    0.117832978696208777E+02   -0.327380790265000776E+00   -0.246966242043587325E+01   -0.222781819130223813E+01    0.285593902030372010E+05
    0.866331208150767679E+03    0.117680912660698311E+02   -0.361332464830535827E+00   -0.231823010625716197E+01   -0.157054251321978899E+01    0.285595723422700539E+05
    0.866681569643369244E+03    0.108259073653840989E+02   -0.359853259428721373E+00   -0.229009624480812590E+01   -0.157677690031264639E+01    0.285595757964797813E+05
    0.882550852320107765E+03    0.106135054062769818E+02   -0.332534364339982957E+00   -0.274962887637233866E+01   -0.191265529682933355E+01    0.285595906646939366E+05
    0.869585270283437126E+03    0.115439890560123697E+02   -0.353787569921865774E+00   -0.220681147503877284E+01   -0.158241481440427822E+01    0.285596101616841479E+05
    0.889715205362770575E+03    0.924618689950509776E+01   -0.323876470672741945E+00   -0.307173257281413115E+01   -0.193537288055351020E+01    0.285596156832937049E+05
    0.866152926781241717E+03    0.139840352908349494E+02   -0.367552253284922692E+00   -0.184291291135938096E+01   -0.165432213829020647E+01    0.285597148503620010E+05
    0.874365458256756824E+03    0.134402627773322187E+02   -0.344907635698749715E+00   -0.258890252333618420E+01   -0.168688656972963713E+01    0.285597448068513513E+05
    0.889540646395082490E+03    0.117902043559119711E+02   -0.317973967430410731E+00   -0.239727050828285293E+01   -0.246642359600365069E+01    0.285598377695792296E+05
    0.870648168298516339E+03    0.136701673273303452E+02   -0.349511633072670413E+00   -0.218848852001317606E+01   -0.169317357114431299E+01    0.285599225473329643E+05
    0.867749920758927374E+03    0.135479327475671578E+02   -0.358894120656169768E+00   -0.198663870098661999E+01   -0.168955227343157688E+01    0.285599850335454903E+05
    0.875210097734307510E+03    0.134615349032749592E+02   -0.342332762407486335E+00   -0.251782830380621458E+01   -0.171799145753928073E+01    0.285600175767456531E+05
    0.889831998732894363E+03    0.931105204997865599E+01   -0.321271882176795032E+00   -0.281559854442814661E+01   -0.209818246383930784E+01    0.285600452273244518E+05
    0.876703854267149154E+03    0.134417187822383095E+02   -0.344290367983309586E+00   -0.273099539395538393E+01   -0.161226221056880092E+01    0.285600677960865942E+05
    0.869670346094938395E+03    0.128529020957068241E+02   -0.357963283703285562E+00   -0.190272820405823850E+01   -0.163067813483994062E+01    0.285601007283846702E+05
    0.872963766002881471E+03    0.115171696076766246E+02   -0.345281097973161977E+00   -0.230051359706031633E+01   -0.175497001452908918E+01    0.285601625105825879E+05
    0.888409421777828129E+03    0.109838212516300651E+02   -0.321199037025695411E+00   -0.245905526567332711E+01   -0.232745670332520405E+01    0.285602193071768052E+05
    0.867589320419666933E+03    0.109062157808756073E+02   -0.360962354761479531E+00   -0.210153283550574166E+01   -0.165068149496404448E+01    0.285602257516933278E+05
    0.868907827601670192E+03    0.148750746087096175E+02   -0.361376021335512831E+00   -0.184309123230027794E+01   -0.169363886503946581E+01    0.285603109175457103E+05
    0.869520842963366476E+03    0.140282963032255914E+02   -0.355884479168133261E+00   -0.207612853558127330E+01   -0.172694477356650555E+01    0.285603182235622771E+05
    0.872139054419187005E+03    0.139686001234070911E+02   -0.352097310978039424E+00   -0.246031952295653866E+01   -0.155422941388850244E+01    0.285604010266867699E+05
    0.871616145735466375E+03    0.141366963942667514E+02   -0.353285964864213042E+00   -0.240113866539890619E+01   -0.166597359068785522E+01    0.285604335175806627E+05
    0.868990966696478608E+03    0.146761651507246853E+02   -0.358859757430510129E+00   -0.191890365943426477E+01   -0.167054301896362922E+01    0.285604566582021944E+05
    0.872243651631031867E+03    0.144339368621270339E+02   -0.348001807353792714E+00   -0.212659432615380162E+01   -0.169847184790565287E+01    0.285604896248537189E+05
    0.875160316664423135E+03    0.136486304165837762E+02   -0.345333946265331093E+00   -0.236393315277689187E+01   -0.159508446460057840E+01    0.285605115884155202E+05
    0.871383575271038012E+03    0.136876775661846555E+02   -0.350440954403969940E+00   -0.229751951954964095E+01   -0.165179013818523579E+01    0.285605432926628819E+05
    0.866053499356342854E+03    0.127986543081929796E+02   -0.366405905363576423E+00   -0.218203025094063019E+01   -0.149927124198408457E+01    0.285605687937745461E+05
    0.871601388531754196E+03    0.126164420311301235E+02   -0.350478655632570302E+00   -0.226144318703528935E+01   -0.170881598460682760E+01    0.285606332317232773E+05
    0.869248024073769670E+03    0.133336526988717612E+02   -0.356777303934181056E+00   -0.213896599086823791E+01   -0.166988885536684162E+01    0.285606549184556752E+05
    0.872607994841370100E+03    0.136268706814108516E+02   -0.356235533719205577E+00   -0.182193993227916984E+01   -0.164982674420079967E+01    0.285606561708416775E+05
    0.868696195894864445E+03    0.138338518626909153E+02   -0.357685189882500865E+00   -0.216946433616754941E+01   -0.161329180934716820E+01    0.285607152357787709E+05
    0.872250595546888349E+03    0.135716461429708630E+02   -0.353183366375083629E+00   -0.251635165834430641E+01   -0.156288516290187118E+01    0.285607324532866951E+05
    0.872201990983599217E+03    0.121059805640046552E+02   -0.348831633707292532E+00   -0.222295203285807830E+01   -0.167808900770662195E+01    0.285607765179002272E+05
    0.873391612112501548E+03    0.138368681184871072E+02   -0.353645072288571782E+00   -0.184210666517455213E+01   -0.167474399482876812E+01    0.285608077076929585E+05
    0.871574247953037229E+03    0.134494385014193174E+02   -0.354526278627428582E+00   -0.208030132582819860E+01   -0.156349003890454963E+01    0.285608086506031177E+05
    0.871696540935138501E+03    0.146417133806472659E+02   -0.353628646754310161E+00   -0.237817627027982947E+01   -0.164416808511513679E+01    0.285609196682172478E+05
    0.869250864732018954E+03    0.140302097533387755E+02   -0.360367932996873641E+00   -0.195486816760982585E+01   -0.159289374750350898E+01    0.285609715875097463E+05
    0.875208595175052551E+03    0.128425929169439854E+02   -0.349050796561659382E+00   -0.260220607485199018E+01   -0.163647918726158892E+01    0.285609923750116941E+05
    0.875198183593158205E+03    0.136307597373477840E+02   -0.346854201956665165E+00   -0.255608241560877580E+01   -0.162723151385634424E+01    0.285610065889812649E+05
    0.873338174724894429E+03    0.143807467343715807E+02   -0.347287184500808088E+00   -0.227995999086356615E+01   -0.171218807496415426E+01    0.285610936614294988E+05
    0.870906956555282704E+03    0.128693693707629144E+02   -0.355434857069960586E+00   -0.211433825659292651E+01   -0.169663181568418420E+01    0.285611359384894022E+05
    0.871088977310548898E+03    0.141977414377872453E+02   -0.356386592533334046E+00   -0.207680904764588714E+01   -0.155352309556310431E+01    0.285611494086656894E+05
    0.870149918592334984E+03    0.138422306813525289E+02   -0.359820812375056143E+00   -0.215788205061038330E+01   -0.163839733773413432E+01    0.285612169574596774E+05
    0.869164103688164232E+03    0.144497528233310657E+02   -0.360788192541575903E+00   -0.206499882391439904E+01   -0.153972668726980721E+01    0.285612198637017427E+05
    0.874074548811177237E+03    0.128173631232399181E+02   -0.352739102486705924E+00   -0.229454840109453961E+01   -0.170154643935116212E+01    0.285612373925739557E+05
    0.872792477985194182E+03    0.124229634007263954E+02   -0.355733790565557761E+00   -0.236407277941999894E+01   -0.163670750020655920E+01    0.285612413146553117E+05
    0.869866911878887436E+03    0.136051115674357330E+02   -0.359618771321637887E+00   -0.199474632791812390E+01   -0.157144266632761376E+01    0.285612580596679400E+05
    0.871793865543450352E+03    0.123417224635748575E+02   -0.354112341477046400E+00   -0.238884156622128963E+01   -0.157835435632111754E+01    0.285613015977544565E+05
    0.873657678708403523E+03    0.146125535156317596E+02   -0.360644550581275425E+00   -0.181829445985699767E+01   -0.175731396062711376E+01    0.285613100823562781E+05
    0.875311472295586896E+03    0.135945101202591712E+02   -0.349569262187557683E+00   -0.258195600102345413E+01   -0.155524965358345302E+01    0.285613749868009800E+05
    0.868862582036370554E+03    0.124460313700691430E+02   -0.361385803017040708E+00   -0.216660825744411234E+01   -0.154017935689921615E+01    0.285614697498042515E+05
    0.873243577857981450E+03    0.139855662917964949E+02   -0.349174198017665915E+00   -0.225879661667074583E+01   -0.164316762177613196E+01    0.285615175387295531E+05
    0.873800157142273747E+03    0.129449408013934875E+02   -0.351034723259203929E+00   -0.246428350904105731E+01   -0.158238355032241973E+01    0.285615454458241074E+05
    0.874494126800664276E+03    0.148509889595817075E+02   -0.345917558672850234E+00   -0.224658727308074369E+01   -0.172998079358786772E+01    0.285615675521773119E+05
    0.874484332698895628E+03    0.142077658879316857E+02   -0.360347707884080215E+00   -0.171092454766725766E+01   -0.175204557304285657E+01    0.285616103248203035E+05
    0.872959281222232676E+03    0.148579380879317959E+02   -0.350545637347756234E+00   -0.205204012956708226E+01   -0.167759192397393520E+01    0.285616158915015039E+05
    0.876060021195168247E+03    0.129607851193257524E+02   -0.347097772712769981E+00   -0.202388716037264160E+01   -0.163082556075620300E+01    0.285616173754428964E+05
    0.873983321590821674E+03    0.143945362637845680E+02   -0.354000448541657242E+00   -0.191786008979128653E+01   -0.179062509391686042E+01    0.285616224448611720E+05
    0.875564445193761685E+03    0.129374625567408295E+02   -0.347577528348123721E+00   -0.241550927805583360E+01   -0.157289636499891472E+01    0.285616372493314484E+05
    0.874012966678689736E+03    0.130827179137666487E+02   -0.353516490443905873E+00   -0.226806024617164237E+01   -0.168305642561157587E+01    0.285616760443743879E+05
    0.869570549449724467E+03    0.137370016143246492E+02   -0.360717465730061804E+00   -0.210647812748648011E+01   -0.153941777055329077E+01    0.285616908543018617E+05
    0.873162207717235447E+03    0.139923666808844924E+02   -0.350808496641598744E+00   -0.229853810729795871E+01   -0.161573071311952798E+01    0.285617871313632531E+05
    0.871882909122733281E+03    0.128315036149604538E+02   -0.356902952128610451E+00   -0.240051886698979899E+01   -0.152428364261223237E+01    0.285617992195139923E+05
    0.871534028415500757E+03    0.127490950231660509E+02   -0.356548568607315985E+00   -0.229842064347103658E+01   -0.159582695016920351E+01    0.285618308403731571E+05
    0.873325546177708475E+03    0.135486174262898587E+02   -0.350759868905666572E+00   -0.219042155836335084E+01   -0.170303711987259110E+01    0.285618449145633822E+05
    0.870035249034642334E+03    0.137381742883318019E+02   -0.359298221276158181E+00   -0.209423330190626000E+01   -0.158644928967625454E+01    0.285618661711532222E+05
    0.871760831705437681E+03    0.123266152051163953E+02   -0.357421165636355731E+00   -0.240064757359865499E+01   -0.153239547716576219E+01    0.285618687344136924E+05
    0.874000184498049862E+03    0.138733229843321162E+02   -0.352542126365898767E+00   -0.238268873313186802E+01   -0.152475121779659961E+01    0.285618691450010629E+05
    0.875191763465649046E+03    0.149938975449329508E+02   -0.350149179386564313E+00   -0.186808351686237462E+01   -0.177612947623654538E+01    0.285618708257101171E+05
    0.874733442238156044E+03    0.146543452299601960E+02   -0.347456262423075479E+00   -0.233437381428564628E+01   -0.164355141267017490E+01    0.285619113974836437E+05
    0.874177770753167465E+03    0.144788667365460100E+02   -0.354586291934383624E+00   -0.199554205662540518E+01   -0.175117069577100004E+01    0.285619152659717729E+05
    0.874677466773074343E+03    0.135286709844229804E+02   -0.349370363249626337E+00   -0.225715658331524782E+01   -0.157626424261440423E+01    0.285619528302764156E+05
    0.875349893951587660E+03    0.144321088092032710E+02   -0.350392629572140457E+00   -0.194268033130651840E+01   -0.181773435129781635E+01    0.285619753915890833E+05
    0.869925573163146055E+03    0.131146579045548926E+02   -0.361894445608059279E+00   -0.218677654838261759E+01   -0.149727584795403956E+01    0.285619858330320749E+05
    0.869813813021225201E+03    0.123767527420803276E+02   -0.362426898446341461E+00   -0.225848859239828048E+01   -0.149754359042676377E+01    0.285620373761213959E+05
    0.869813813021225201E+03    0.123767527420803276E+02   -0.362426898446341461E+00   -0.225848859239828048E+01   -0.149754359042676377E+01    0.285620373761213959E+05
    0.871487939363395299E+03    0.139372237399539696E+02   -0.356749140770372897E+00   -0.200859854841036967E+01   -0.162816797934471680E+01    0.285620494781452617E+05
    0.875228446967113769E+03    0.146304050793714762E+02   -0.349817966426013705E+00   -0.200211815055615450E+01   -0.180139979208913648E+01    0.285620550240465418E+05
    0.874494762850005145E+03    0.133071775153469751E+02   -0.351263203875856078E+00   -0.204914744183303998E+01   -0.175972096631814612E+01    0.285620866564226308E+05
    0.870274170349115366E+03    0.131372743572559791E+02   -0.362410118368477363E+00   -0.197787387458768560E+01   -0.154432632212781762E+01    0.285621222939458748E+05
    0.874381647222744846E+03    0.141169218937612886E+02   -0.350312529284474650E+00   -0.197228811242069924E+01   -0.175339055168148139E+01    0.285621297408889695E+05
    0.872929252943367374E+03    0.130966036362704425E+02   -0.354115440731670894E+00   -0.216876768161878264E+01   -0.166922712932427242E+01    0.285621429844962622E+05
    0.876143517229953659E+03    0.140958713855637452E+02   -0.348639759552207273E+00   -0.188332890991648316E+01   -0.178713089981043982E+01    0.285622150420950966E+05
    0.874782284205520455E+03    0.132554061222808297E+02   -0.350399631647014154E+00   -0.242753765134453658E+01   -0.160947130197817501E+01    0.285622156791894377E+05
    0.875288109018667456E+03    0.135770647874999479E+02   -0.353284928769899587E+00   -0.182969004065548280E+01   -0.169567815801142618E+01    0.285622187125566998E+05
    0.873696648836118925E+03    0.139386615075868399E+02   -0.353668405858675428E+00   -0.202744926232888290E+01   -0.158065930630349438E+01    0.285622281812395304E+05
    0.873806921833108959E+03    0.144115581932858667E+02   -0.350015538607224563E+00   -0.218249022669751991E+01   -0.164405582304339326E+01    0.285622324820637768E+05
    0.872772294007252412E+03    0.118917604540500328E+02   -0.356038527293471851E+00   -0.236104302008783584E+01   -0.157380382588026624E+01    0.285622717583486155E+05
    0.874067148306589047E+03    0.131156447539453236E+02   -0.358027101630358224E+00   -0.190377277743808282E+01   -0.171908472860120298E+01    0.285622765043273394E+05
    0.873686084252329010E+03    0.137690260383509528E+02   -0.351410093258207823E+00   -0.209352287950631943E+01   -0.170367008864214409E+01    0.285622957625766794E+05
    0.870979482533787973E+03    0.133578694222398653E+02   -0.358778665996634771E+00   -0.209892606642096791E+01   -0.156583222069853356E+01    0.285622990814115255E+05
    0.874053619175550352E+03    0.146667929849774019E+02   -0.351442354807979029E+00   -0.224475890489522101E+01   -0.166596778581031479E+01    0.285623905553710465E+05
    0.875191453432785011E+03    0.134753496527232901E+02   -0.355818824607270656E+00   -0.179871824350412179E+01   -0.173981111045805736E+01    0.285624104547297829E+05
    0.873523363982155956E+03    0.136320858552896791E+02   -0.356185917437326083E+00   -0.194977420253455946E+01   -0.157980713162015096E+01    0.285624415144771083E+05
    0.875999272845947416E+03    0.149230206800849743E+02   -0.351873052001403508E+00   -0.193168600757170950E+01   -0.178983566035114094E+01    0.285624885931200697E+05
    0.876243375534490610E+03    0.139442350861804485E+02   -0.355192669021740848E+00   -0.187148238381347110E+01   -0.177103836291430383E+01    0.285625310442992741E+05
    0.873947084629993014E+03    0.147261602914007899E+02   -0.360204520227505043E+00   -0.182249545308663752E+01   -0.169422872327100205E+01    0.285625640533022561E+05
    0.876222529638663673E+03    0.141554036097112625E+02   -0.346223927312567348E+00   -0.233783362770887848E+01   -0.164989145297140372E+01    0.285625764518957949E+05
    0.875438837881330301E+03    0.137869120823427274E+02   -0.355049332820501107E+00   -0.193361306505970720E+01   -0.174327050968125352E+01    0.285625912858329357E+05
    0.873991344294538862E+03    0.148722997650564341E+02   -0.351919309068557062E+00   -0.203120777745837433E+01   -0.169223050599161606E+01    0.285626026035615068E+05
    0.872367377458728470E+03    0.132472976325531562E+02   -0.356135087511832538E+00   -0.214065967269157653E+01   -0.158448091439387895E+01    0.285626779778527125E+05
    0.873408728958079791E+03    0.142768987267270404E+02   -0.357313995060028589E+00   -0.195026557264394462E+01   -0.167828040208886620E+01    0.285627095694054260E+05
    0.873408728958079791E+03    0.142768987267270404E+02   -0.357313995060028589E+00   -0.195026557264394462E+01   -0.167828040208886620E+01    0.285627095694054260E+05
    0.874438635908638275E+03    0.134415859795665469E+02   -0.356011853014313040E+00   -0.185849849543271350E+01   -0.167060817843321008E+01    0.285627567061281006E+05
    0.875573220195867179E+03    0.142471859825035150E+02   -0.356858467449027827E+00   -0.178167399800054493E+01   -0.170212385203699590E+01    0.285627815504764658E+05
    0.876461341984687579E+03    0.142335957373629398E+02   -0.360213305783231519E+00   -0.177906338018294807E+01   -0.153428947158416751E+01    0.285627829600309706E+05
    0.874575059580040033E+03    0.139869194251837587E+02   -0.351772763462857796E+00   -0.224031269876310546E+01   -0.164073066421832614E+01    0.285629015243142894E+05
    0.874575059580040033E+03    0.139869194251837587E+02   -0.351772763462857796E+00   -0.224031269876310546E+01   -0.164073066421832614E+01    0.285629015243142894E+05
    0.876775830759936866E+03    0.141559155831863510E+02   -0.349791343483475181E+00   -0.191853082427404953E+01   -0.178734086998913977E+01    0.285629074461952441E+05
    0.875035304036329990E+03    0.136877376209729604E+02   -0.350994051634475390E+00   -0.199616206906345894E+01   -0.168495060336976366E+01    0.285629291008716209E+05
    0.875035304036329990E+03    0.136877376209729604E+02   -0.350994051634475390E+00   -0.199616206906345894E+01   -0.168495060336976366E+01    0.285629291008716209E+05
    0.876525690247196280E+03    0.131530179051501470E+02   -0.347075943198942305E+00   -0.234000395435906761E+01   -0.162969908493833149E+01    0.285629473959634852E+05
    0.877223013009958663E+03    0.149903031282004644E+02   -0.347286017984336226E+00   -0.196161490769272806E+01   -0.179984528480901229E+01    0.285629503649386970E+05
    0.877223013009958663E+03    0.149903031282004644E+02   -0.347286017984336226E+00   -0.196161490769272806E+01   -0.179984528480901229E+01    0.285629503649386970E+05
    0.875070125131367945E+03    0.142859582317536642E+02   -0.354499299428963077E+00   -0.209291399831523961E+01   -0.168151036562581435E+01    0.285629653984147881E+05
    0.876764140524573804E+03    0.148454833608655985E+02   -0.350826583872659192E+00   -0.201198531209713316E+01   -0.176251365427002860E+01    0.285629789981846916E+05
    0.876764140524573804E+03    0.148454833608655985E+02   -0.350826583872659192E+00   -0.201198531209713316E+01   -0.176251365427002860E+01    0.285629789981846916E+05
    0.877835040677800407E+03    0.149757687499660790E+02   -0.350129498275708606E+00   -0.194913573739603230E+01   -0.180271529605355596E+01    0.285629847176308831E+05
    0.877835040677800407E+03    0.149757687499660790E+02   -0.350129498275708606E+00   -0.194913573739603230E+01   -0.180271529605355596E+01    0.285629847176308831E+05
    0.876345139084606672E+03    0.131255010693048355E+02   -0.347300333877042178E+00   -0.229820554733757643E+01   -0.164941837355237375E+01    0.285630165053091914E+05
    0.876345139084606672E+03    0.131255010693048355E+02   -0.347300333877042178E+00   -0.229820554733757643E+01   -0.164941837355237375E+01    0.285630165053091914E+05
    0.875441717010655339E+03    0.144791576516085527E+02   -0.357831603202439119E+00   -0.179688815424051285E+01   -0.169358525653169867E+01    0.285630441972466724E+05
    0.875441717010655339E+03    0.144791576516085527E+02   -0.357831603202439119E+00   -0.179688815424051285E+01   -0.169358525653169867E+01    0.285630441972466724E+05
    0.877372957501787255E+03    0.132532724478370110E+02   -0.347249369292592647E+00   -0.241928880712966610E+01   -0.163990737554531218E+01    0.285630951239433416E+05
    0.877372957501787255E+03    0.132532724478370110E+02   -0.347249369292592647E+00   -0.241928880712966610E+01   -0.163990737554531218E+01    0.285630951239433416E+05
    0.873648206530116909E+03    0.136751446244400547E+02   -0.361130869783722552E+00   -0.192441378877495417E+01   -0.163809451864364153E+01    0.285631226124956374E+05
    0.874388893680695446E+03    0.133239006084951086E+02   -0.359764500974446122E+00   -0.192375202501529419E+01   -0.165917582863617774E+01    0.285631303457806425E+05
    0.876316815503076327E+03    0.143653135426006440E+02   -0.348255444636182077E+00   -0.209362614200045893E+01   -0.173135448922844848E+01    0.285631320982829930E+05
    0.876316815503076327E+03    0.143653135426006440E+02   -0.348255444636182077E+00   -0.209362614200045893E+01   -0.173135448922844848E+01    0.285631320982829930E+05
    0.874266436207981201E+03    0.142522741045311250E+02   -0.355365427930061983E+00   -0.194091235248614513E+01   -0.164795199534889747E+01    0.285631641536939242E+05
    0.876899283557041713E+03    0.144210246524325409E+02   -0.352768481278055823E+00   -0.198322459955281349E+01   -0.174064710134273426E+01    0.285631916831486924E+05
    0.873158578900185034E+03    0.130803727835367862E+02   -0.357057679778280068E+00   -0.203408467090162048E+01   -0.160603076026499370E+01    0.285631973092134867E+05
    0.872884442012557315E+03    0.130672035734206311E+02   -0.362490796351247369E+00   -0.187865935803009787E+01   -0.156012419489295340E+01    0.285632173486709471E+05
    0.874048485615711684E+03    0.131303725182185165E+02   -0.359854767511627927E+00   -0.185307443738962707E+01   -0.163438490679136361E+01    0.285632346685865923E+05
    0.874048485615711684E+03    0.131303725182185165E+02   -0.359854767511627927E+00   -0.185307443738962707E+01   -0.163438490679136361E+01    0.285632346685865923E+05
    0.874009249832059140E+03    0.138358164304701603E+02   -0.356802967137184623E+00   -0.194140823275491581E+01   -0.160324136938257489E+01    0.285632453173224712E+05
    0.878153528103271356E+03    0.144359395313273318E+02   -0.346486352339948844E+00   -0.206659394631576365E+01   -0.179036088476731869E+01    0.285632700493985212E+05
    0.873993669163678646E+03    0.130432438618669693E+02   -0.355133665066341919E+00   -0.202035718996766178E+01   -0.163078350420850260E+01    0.285632740723017741E+05
    0.875261838440529914E+03    0.136424424152921979E+02   -0.351116408642897504E+00   -0.211924725969233663E+01   -0.160318557650279025E+01    0.285632746799829074E+05
    0.875261838440529914E+03    0.136424424152921979E+02   -0.351116408642897504E+00   -0.211924725969233663E+01   -0.160318557650279025E+01    0.285632746799829074E+05
    0.878108138876218163E+03    0.143254347238322062E+02   -0.350469659436678960E+00   -0.191638500016781066E+01   -0.179003446894422336E+01    0.285633344379026166E+05
    0.878108138876218163E+03    0.143254347238322062E+02   -0.350469659436678960E+00   -0.191638500016781066E+01   -0.179003446894422336E+01    0.285633344379026166E+05
    0.875399809487345351E+03    0.135955598083408198E+02   -0.350843760735322974E+00   -0.217557554577877443E+01   -0.165197514107212129E+01    0.285633450190902513E+05
    0.876457117649408815E+03    0.140341987118915856E+02   -0.349421351396777879E+00   -0.210304123337028948E+01   -0.171588802265947749E+01    0.285633469746804731E+05
    0.876307926965189495E+03    0.135664884035667033E+02   -0.348977505503342833E+00   -0.220082290811680181E+01   -0.167670234100879867E+01    0.285633776189908094E+05
    0.877151378268387816E+03    0.143316699570348831E+02   -0.352437868800813625E+00   -0.191313004076807314E+01   -0.174996006993686404E+01    0.285634268967879980E+05
    0.875837422799967726E+03    0.129565315375371686E+02   -0.349861267072814286E+00   -0.216278834432361045E+01   -0.162227728983637576E+01    0.285634698440983921E+05
    0.875837422799967726E+03    0.129565315375371686E+02   -0.349861267072814286E+00   -0.216278834432361045E+01   -0.162227728983637576E+01    0.285634698440983921E+05
    0.875791565972465492E+03    0.128811227195331686E+02   -0.350598118479826582E+00   -0.221922217060667215E+01   -0.158474906977908336E+01    0.285634698906353442E+05
    0.875402194451110404E+03    0.132595585893985586E+02   -0.355726734055556548E+00   -0.193394655865572851E+01   -0.168267642238156157E+01    0.285634719693325351E+05
    0.877362964213477653E+03    0.144544741472098863E+02   -0.348454754858392057E+00   -0.198057113748020885E+01   -0.175086544375724618E+01    0.285635222600133202E+05
    0.877606751001825046E+03    0.135653960932947300E+02   -0.348182948060878239E+00   -0.242790580630788710E+01   -0.159167079835345504E+01    0.285635232446501686E+05
    0.877606751001825046E+03    0.135653960932947300E+02   -0.348182948060878239E+00   -0.242790580630788710E+01   -0.159167079835345504E+01    0.285635232446501686E+05
    0.875732837581945660E+03    0.141604117369588050E+02   -0.358621097149815604E+00   -0.196224404342269043E+01   -0.165715281544491688E+01    0.285635244145577635E+05
    0.877117259192849019E+03    0.140828487493365326E+02   -0.348278709869330960E+00   -0.203506317659289859E+01   -0.173179716202420320E+01    0.285635635192490226E+05
    0.877117259192849019E+03    0.140828487493365326E+02   -0.348278709869330960E+00   -0.203506317659289859E+01   -0.173179716202420320E+01    0.285635635192490226E+05
    0.876353515033495455E+03    0.143151141971055686E+02   -0.356588807585343837E+00   -0.190236221231474900E+01   -0.169588414977449720E+01    0.285635778054320326E+05
    0.877369695343962007E+03    0.147996805942879881E+02   -0.349868588335914055E+00   -0.207720275966532508E+01   -0.172312723776952215E+01    0.285636529402613232E+05
    0.877369695343962007E+03    0.147996805942879881E+02   -0.349868588335914055E+00   -0.207720275966532508E+01   -0.172312723776952215E+01    0.285636529402613232E+05
    0.876561907926975209E+03    0.138716461553312023E+02   -0.349165259359343061E+00   -0.226525128651600749E+01   -0.160455826191511175E+01    0.285636625279871769E+05
    0.875590104513989672E+03    0.137530520041145863E+02   -0.353578969566945567E+00   -0.216866249277794143E+01   -0.163503359385935720E+01    0.285636773324860515E+05
    0.878488080433686150E+03    0.135919138817906919E+02   -0.347449148424279208E+00   -0.237299404635035671E+01   -0.165617025905130077E+01    0.285636853796316827E+05
    0.878488080433686150E+03    0.135919138817906919E+02   -0.347449148424279208E+00   -0.237299404635035671E+01   -0.165617025905130077E+01    0.285636853796316827E+05
    0.876263791886040849E+03    0.145735112151066986E+02   -0.357793046024084127E+00   -0.198583785651972722E+01   -0.165615488353360973E+01    0.285637070055727454E+05
    0.877958706525353591E+03    0.147555284701530312E+02   -0.354134521715640638E+00   -0.183454791392490169E+01   -0.174344891223594622E+01    0.285637237952028954E+05
    0.877704919846164444E+03    0.136733695957190964E+02   -0.347079204619019421E+00   -0.232297280373555370E+01   -0.160787270937460747E+01    0.285637339726310529E+05
    0.877704919846164444E+03    0.136733695957190964E+02   -0.347079204619019421E+00   -0.232297280373555370E+01   -0.160787270937460747E+01    0.285637339726310529E+05
    0.875631256908435148E+03    0.133995942517243343E+02   -0.351707484379207180E+00   -0.213452174896625024E+01   -0.161421937778880142E+01    0.285637776563931548E+05
    0.875631256908435148E+03    0.133995942517243343E+02   -0.351707484379207180E+00   -0.213452174896625024E+01   -0.161421937778880142E+01    0.285637776563931548E+05
    0.875578020669678608E+03    0.130639123374303061E+02   -0.358904319624828716E+00   -0.198210958717301544E+01   -0.163595427718536968E+01    0.285637786621156738E+05
    0.876505829114316271E+03    0.146041078491247323E+02   -0.354477534800244243E+00   -0.199052420286143583E+01   -0.168619614754929348E+01    0.285637883800110467E+05
    0.876505829114316271E+03    0.146041078491247323E+02   -0.354477534800244243E+00   -0.199052420286143583E+01   -0.168619614754929348E+01    0.285637883800110467E+05
    0.876980114254182809E+03    0.136728251545443218E+02   -0.348635113501641669E+00   -0.218906060760084920E+01   -0.160658400675278212E+01    0.285638350999924805E+05
    0.876980114254182809E+03    0.136728251545443218E+02   -0.348635113501641669E+00   -0.218906060760084920E+01   -0.160658400675278212E+01    0.285638350999924805E+05
    0.878523921355986204E+03    0.135657232674606423E+02   -0.346547960430339863E+00   -0.240282657858634074E+01   -0.160327364204965406E+01    0.285638460725332516E+05
    0.878523921355986204E+03    0.135657232674606423E+02   -0.346547960430339863E+00   -0.240282657858634074E+01   -0.160327364204965406E+01    0.285638460725332516E+05
    0.875076457080728574E+03    0.137863119717408438E+02   -0.356277671328329326E+00   -0.194789266853845611E+01   -0.162476687138869114E+01    0.285638627012137695E+05
    0.875076457080728574E+03    0.137863119717408438E+02   -0.356277671328329326E+00   -0.194789266853845611E+01   -0.162476687138869114E+01    0.285638627012137695E+05
    0.876071056994385344E+03    0.139880742337273336E+02   -0.356021605989878864E+00   -0.196554269503448964E+01   -0.166595241851155329E+01    0.285638870026517470E+05
    0.876071056994385344E+03    0.139880742337273336E+02   -0.356021605989878864E+00   -0.196554269503448964E+01   -0.166595241851155329E+01    0.285638870026517470E+05
    0.875491827202658328E+03    0.129148222841513878E+02   -0.355466222757284456E+00   -0.194649370404370359E+01   -0.163504280300082083E+01    0.285639159850405340E+05
    0.875880662699051641E+03    0.137122456132530797E+02   -0.354382694258500663E+00   -0.209367270235519776E+01   -0.164247338982270286E+01    0.285639203067841627E+05
    0.877672217861121567E+03    0.144023542681389998E+02   -0.350566871200958197E+00   -0.208183510371197578E+01   -0.170541469673829660E+01    0.285639240845607346E+05
    0.877672217861121567E+03    0.144023542681389998E+02   -0.350566871200958197E+00   -0.208183510371197578E+01   -0.170541469673829660E+01    0.285639240845607346E+05
    0.875156012757156645E+03    0.143261165921344045E+02   -0.355877721920363932E+00   -0.196807955794099687E+01   -0.159477913230094792E+01    0.285639243922308815E+05
    0.878260486627659247E+03    0.140909387239840527E+02   -0.346555484994737206E+00   -0.213581066547335663E+01   -0.172187130576503122E+01    0.285639376318870418E+05
    0.878260486627659247E+03    0.140909387239840527E+02   -0.346555484994737206E+00   -0.213581066547335663E+01   -0.172187130576503122E+01    0.285639376318870418E+05
    0.874714630850246976E+03    0.127611921012759879E+02   -0.357695051898232030E+00   -0.202157157063876713E+01   -0.161176391656115836E+01    0.285639382240042978E+05
    0.875037541060788044E+03    0.136928902747023322E+02   -0.359267297274398878E+00   -0.188211519355136314E+01   -0.161643431331665433E+01    0.285639477116969356E+05
    0.876316734711188701E+03    0.142884711256932881E+02   -0.356756868980268926E+00   -0.184888146520176644E+01   -0.165686756737951413E+01    0.285639481695232535E+05
    0.876252545563895865E+03    0.139118166682767441E+02   -0.352640144618961315E+00   -0.219950679018579542E+01   -0.162525399665500370E+01    0.285639788597581864E+05
    0.874761527061428296E+03    0.133296193584123852E+02   -0.358545465134800345E+00   -0.195424984207233532E+01   -0.161238023986243295E+01    0.285639940382357345E+05
    0.876133294997152120E+03    0.140251253167385830E+02   -0.354701183891785732E+00   -0.191620792625768921E+01   -0.163829458532946237E+01    0.285640029401885949E+05
    0.876424359164467091E+03    0.137778621447628620E+02   -0.356220197883797773E+00   -0.197790303422999081E+01   -0.165850602596416863E+01    0.285640492871854440E+05
    0.875439021407473774E+03    0.148368234699384942E+02   -0.356359265235188793E+00   -0.207021266760814093E+01   -0.162098326782803870E+01    0.285640561211155873E+05
    0.876294742001856434E+03    0.143030666192902789E+02   -0.354637119620186070E+00   -0.197263291629431325E+01   -0.166513279665306957E+01    0.285640661825069292E+05
    0.878997229287796472E+03    0.132784536178502712E+02   -0.345423941020690961E+00   -0.232840102391525594E+01   -0.165729270846364773E+01    0.285640740118742870E+05
    0.876696293530886237E+03    0.136856755022683192E+02   -0.351734992732768426E+00   -0.203049363024955731E+01   -0.167172110430519449E+01    0.285640848264347260E+05
    0.874915248223626236E+03    0.145479476078056269E+02   -0.355903636064293316E+00   -0.206752255121924655E+01   -0.159762603372032785E+01    0.285640876439417661E+05
    0.876988445412899182E+03    0.143547722100541719E+02   -0.353414392321130144E+00   -0.217304605851693111E+01   -0.163573397577407942E+01    0.285641106537040068E+05
    0.876988445412899182E+03    0.143547722100541719E+02   -0.353414392321130144E+00   -0.217304605851693111E+01   -0.163573397577407942E+01    0.285641106537040068E+05
    0.877706459246961117E+03    0.143976203948505770E+02   -0.350459178182741304E+00   -0.212405489730122010E+01   -0.168331440055824100E+01    0.285641211973566787E+05
    0.876833417952185641E+03    0.141923874592669463E+02   -0.355904650602097306E+00   -0.206413232568000726E+01   -0.164051299252128047E+01    0.285641357078991678E+05
    0.876499240142159124E+03    0.139112172478629557E+02   -0.353665232133045571E+00   -0.194037366548501033E+01   -0.163130523872215161E+01    0.285641513603862404E+05
    0.874870878256281458E+03    0.140912963412832433E+02   -0.359983361586990291E+00   -0.191259154881858695E+01   -0.159891737105121834E+01    0.285641602217557302E+05
    0.874870878256281458E+03    0.140912963412832433E+02   -0.359983361586990291E+00   -0.191259154881858695E+01   -0.159891737105121834E+01    0.285641602217557302E+05
    0.875224313160665588E+03    0.141932082055047317E+02   -0.355248749434361244E+00   -0.211232037357246849E+01   -0.159219961057708748E+01    0.285641795965081546E+05
    0.876708738159771769E+03    0.143863262829011713E+02   -0.351571314884574271E+00   -0.219947511611453894E+01   -0.162482292513606996E+01    0.285641879186513761E+05
    0.876092526417518911E+03    0.143259435507211421E+02   -0.354711222305956753E+00   -0.205004272128991172E+01   -0.163871366952427788E+01    0.285641890491937302E+05
    0.878000267281965307E+03    0.142576461929412517E+02   -0.350799973829334810E+00   -0.213865179946614425E+01   -0.167666230170198194E+01    0.285642026831052026E+05
    0.878000267281965307E+03    0.142576461929412517E+02   -0.350799973829334810E+00   -0.213865179946614425E+01   -0.167666230170198194E+01    0.285642026831052026E+05
    0.877076146588953407E+03    0.141303277347932372E+02   -0.351293193184899266E+00   -0.214358467431308863E+01   -0.165125629399201479E+01    0.285642284758215937E+05
    0.875974554661745174E+03    0.147533474038062167E+02   -0.356762406256945219E+00   -0.191445724977261023E+01   -0.163420079678724761E+01    0.285642337694642665E+05
    0.874919268133724358E+03    0.133041418418197068E+02   -0.361093689203898727E+00   -0.190464973523209391E+01   -0.159282136624742066E+01    0.285642427736832469E+05
    0.877174773349086649E+03    0.138406124166745688E+02   -0.352061695778540518E+00   -0.205601558292732367E+01   -0.167136856194340666E+01    0.285642450701058369E+05
    0.876542421171312185E+03    0.149859328147060378E+02   -0.356146788948223936E+00   -0.198754150061963930E+01   -0.164786496628041323E+01    0.285642744492628844E+05
    0.877136682422645436E+03    0.148956152187529316E+02   -0.352272436458727967E+00   -0.217808802606261942E+01   -0.163371435806563259E+01    0.285643183194274789E+05
    0.875604486905553927E+03    0.144755910928296103E+02   -0.356481733877575202E+00   -0.203485745556217967E+01   -0.161120626191206817E+01    0.285643363073059518E+05
    0.876704606273466197E+03    0.140086329111065506E+02   -0.356243627140994334E+00   -0.192681281853439579E+01   -0.165225292492441778E+01    0.285643597367973889E+05
    0.877319997924921495E+03    0.132103096439082623E+02   -0.350359017432563036E+00   -0.214733205350351053E+01   -0.164437932194758751E+01    0.285643657291342788E+05
    0.876066007112876832E+03    0.129273059583750118E+02   -0.354626146710540269E+00   -0.210720036154097201E+01   -0.160747684704029314E+01    0.285643943461755043E+05
    0.878757426174801481E+03    0.134912857536738571E+02   -0.347881285569014764E+00   -0.231272525289497555E+01   -0.163442956583146604E+01    0.285643979346040833E+05
    0.875752038851811562E+03    0.133725097491781693E+02   -0.355372213732073838E+00   -0.205030853887841680E+01   -0.156025424131778667E+01    0.285644054076781758E+05
    0.876299223484158347E+03    0.128552553241548626E+02   -0.356315247454045192E+00   -0.197618690259277763E+01   -0.163153307567481942E+01    0.285644108799281348E+05
    0.876299223484158347E+03    0.128552553241548626E+02   -0.356315247454045192E+00   -0.197618690259277763E+01   -0.163153307567481942E+01    0.285644108799281348E+05
    0.877338180062313199E+03    0.143714685586996502E+02   -0.354968984263797083E+00   -0.205847629608647598E+01   -0.164335323860081495E+01    0.285644203895846185E+05
    0.876348560293153128E+03    0.135970583835187195E+02   -0.355264809064333775E+00   -0.196872091227541723E+01   -0.163132914456450351E+01    0.285644288150504290E+05
    0.876184948107456876E+03    0.149709109987910907E+02   -0.355088245489251442E+00   -0.204257393188715142E+01   -0.162188924577572280E+01    0.285644569319099610E+05
    0.875662479909442595E+03    0.130747405255772584E+02   -0.357699241766354703E+00   -0.194562984186762566E+01   -0.157586165519015164E+01    0.285644595339297957E+05
    0.876591480080452811E+03    0.141139453574517724E+02   -0.353797049236717953E+00   -0.198846688771229374E+01   -0.162640658880036248E+01    0.285644741715708515E+05
    0.875650622124950019E+03    0.135798343677293367E+02   -0.355625875770851252E+00   -0.207866968234247196E+01   -0.155726773279078490E+01    0.285644892512425358E+05
    0.876890790646159076E+03    0.137406371536779108E+02   -0.355558081653364333E+00   -0.198911910093160049E+01   -0.164349217322018770E+01    0.285644914235275464E+05
    0.878398998276520388E+03    0.146946188984271515E+02   -0.355226621338588622E+00   -0.182080626479932661E+01   -0.168495467370263619E+01    0.285644955433310497E+05
    0.876403447338114347E+03    0.143089004251064136E+02   -0.353362914016391194E+00   -0.216520883053051971E+01   -0.155740965410635646E+01    0.285645481175081222E+05
    0.877070540837717203E+03    0.141878697986955320E+02   -0.352963896258970067E+00   -0.219507374645484532E+01   -0.160577346844771540E+01    0.285645731390267974E+05
    0.876054066211350346E+03    0.139747029409161581E+02   -0.355226554040324771E+00   -0.202929325653685755E+01   -0.159299123483330085E+01    0.285645811734746239E+05
    0.878608063231354890E+03    0.138316366330699552E+02   -0.350325294673505816E+00   -0.221900408949642802E+01   -0.164401611577475482E+01    0.285645854939174387E+05
    0.876558678206142645E+03    0.134503741512606023E+02   -0.353403288346124000E+00   -0.219085624899543596E+01   -0.157979042850262275E+01    0.285646000263968745E+05
    0.875731238502951214E+03    0.131911205703348564E+02   -0.356895139987255305E+00   -0.207904431147503654E+01   -0.152029350668314311E+01    0.285646004632091499E+05
    0.875968747375333351E+03    0.142601605562063263E+02   -0.357258589890230738E+00   -0.196773179999475545E+01   -0.160019827706752782E+01    0.285646226878600974E+05
    0.875340606172818298E+03    0.136550687503735872E+02   -0.358955128550369373E+00   -0.196856479283811403E+01   -0.155933441844235698E+01    0.285646275822083298E+05
    0.875701140472469774E+03    0.130709165207648716E+02   -0.358081834202757854E+00   -0.202007057122147593E+01   -0.158782283581815964E+01    0.285646283172673866E+05
    0.877025591165462060E+03    0.143249601264728383E+02   -0.352776809059055729E+00   -0.205192180458990858E+01   -0.163195199125159629E+01    0.285646371083701015E+05
    0.875821657212973605E+03    0.143385827514599900E+02   -0.355770454556385118E+00   -0.206922659486218219E+01   -0.156170584472192697E+01    0.285646383377949533E+05
    0.876751191453086903E+03    0.122410073483186466E+02   -0.356097479135647710E+00   -0.209206617677156181E+01   -0.160366975098503772E+01    0.285646610941050894E+05
    0.876693040352768890E+03    0.142120046590122975E+02   -0.354044583591085704E+00   -0.201280673294426737E+01   -0.160619977783209844E+01    0.285646899256430552E+05
    0.875918504043746907E+03    0.132679336819479037E+02   -0.355721701158565828E+00   -0.212350893550844155E+01   -0.155740305042314020E+01    0.285647160090852158E+05
    0.876361166688357002E+03    0.143890176314976177E+02   -0.357697580095142520E+00   -0.195239266607349471E+01   -0.160745307250375902E+01    0.285647404793032911E+05
    0.876734392664626625E+03    0.129027315598534678E+02   -0.353394845980281147E+00   -0.211247773871730260E+01   -0.158965087041420094E+01    0.285647424898904501E+05
    0.878221773348813713E+03    0.136534601232869885E+02   -0.350448886480422495E+00   -0.221619929380297620E+01   -0.162450957570284960E+01    0.285647457769301109E+05
    0.875946939696685945E+03    0.133752106133635476E+02   -0.357750499135942590E+00   -0.196964974717962438E+01   -0.157710016023861410E+01    0.285647579465234921E+05
    0.875884911480159076E+03    0.125812403876603689E+02   -0.356510701565934340E+00   -0.211242272494465233E+01   -0.154148348825556347E+01    0.285648163171160486E+05
    0.876463349709399722E+03    0.129402618921972667E+02   -0.354766876245398599E+00   -0.210087931474524137E+01   -0.157457146217682897E+01    0.285648342067773083E+05
    0.875940775914958749E+03    0.132256178803412485E+02   -0.357316888724936277E+00   -0.202234953320443633E+01   -0.156987920611637755E+01    0.285648455061304776E+05
    0.876821006567009363E+03    0.132280698844848352E+02   -0.354914939060051893E+00   -0.203336308209822381E+01   -0.160632937503789019E+01    0.285648579876723234E+05
    0.876949605825697972E+03    0.146175137770266481E+02   -0.358774818059169220E+00   -0.189602731950219638E+01   -0.161163241716882055E+01    0.285648917512908956E+05
    0.876291268136175177E+03    0.149521055246609773E+02   -0.356165984861274154E+00   -0.208803965908767708E+01   -0.157801752370037196E+01    0.285649012812516485E+05
    0.876646541202194612E+03    0.146026590609738314E+02   -0.354623209453747812E+00   -0.207160182636587020E+01   -0.158420321212180948E+01    0.285649084129877228E+05
    0.880041646606464951E+03    0.147570260003516189E+02   -0.358498984809475729E+00   -0.174255889051073787E+01   -0.157131867775331457E+01    0.285649151999246315E+05
    0.878102371047503539E+03    0.145589094389716678E+02   -0.360813162185500858E+00   -0.179568494104248444E+01   -0.162236440709497387E+01    0.285649575054995003E+05
    0.877467037680820567E+03    0.132518641087756492E+02   -0.352125306519879722E+00   -0.215034358396266168E+01   -0.158342110346781517E+01    0.285649590603449724E+05
    0.876021255055188249E+03    0.128974235837856099E+02   -0.358352307209541365E+00   -0.202354393904129726E+01   -0.156814827313362048E+01    0.285649668821219529E+05
    0.878317548684447388E+03    0.146485397577364687E+02   -0.358100389739741232E+00   -0.181005216431649973E+01   -0.162826660546978008E+01    0.285649959129946292E+05
    0.877124975913904223E+03    0.148749028492453483E+02   -0.357035268001300921E+00   -0.194422389805573115E+01   -0.160723038038925381E+01    0.285650623301599735E+05
    0.876915893334107068E+03    0.143120769177212743E+02   -0.356168739151633496E+00   -0.200449699869350528E+01   -0.159226436413286976E+01    0.285651009092898930E+05
    0.878924748725990185E+03    0.148934973718969630E+02   -0.354338333905569236E+00   -0.220764690716164402E+01   -0.159376658726045140E+01    0.285651098069594082E+05
    0.878063087502331427E+03    0.139134595693034839E+02   -0.353925004094720386E+00   -0.207197497317816381E+01   -0.151581592831565892E+01    0.285651336396148872E+05
    0.878263858557163871E+03    0.144593509050105560E+02   -0.351466598622869775E+00   -0.226585216019353552E+01   -0.154498140296937336E+01    0.285651444557098876E+05
    0.877946001456840918E+03    0.146075946233066389E+02   -0.357010278771522138E+00   -0.195319965657124239E+01   -0.161788070962769659E+01    0.285652170110901934E+05
    0.878268310523141622E+03    0.148399035020072088E+02   -0.359438846407888590E+00   -0.184944226451302640E+01   -0.161789954299735417E+01    0.285652354668626431E+05
    0.878441181937258534E+03    0.135341519771393912E+02   -0.352861567994438907E+00   -0.219412596068961907E+01   -0.159463125384307247E+01    0.285652396276777072E+05
    0.878395810602334109E+03    0.142712473136016165E+02   -0.353165748795785106E+00   -0.220170604076530552E+01   -0.159046417928829609E+01    0.285652455912273617E+05
    0.878094388599976583E+03    0.141526575764537750E+02   -0.355655798718743199E+00   -0.192971414406551123E+01   -0.161969360426086606E+01    0.285652954128558922E+05
    0.877075560034764180E+03    0.144846898463017961E+02   -0.355263050239456923E+00   -0.208251638279423279E+01   -0.155875355324688947E+01    0.285653000391661844E+05
    0.879461019056985265E+03    0.148638711447177823E+02   -0.357381508573899609E+00   -0.181053777618345713E+01   -0.164866577041885343E+01    0.285653019917570491E+05
    0.877919171991400049E+03    0.144774577728135529E+02   -0.353772199780945762E+00   -0.200283216508956841E+01   -0.159836237245590507E+01    0.285653257511899137E+05
    0.878654362762672122E+03    0.142706389145977770E+02   -0.356010462062050337E+00   -0.190882337175478511E+01   -0.158413354372504500E+01    0.285656988402101670E+05
    0.878709391711441526E+03    0.146562187035532894E+02   -0.354653526955501341E+00   -0.196236307339769489E+01   -0.161588174524509043E+01    0.285656180671455659E+05
    0.878642488517967763E+03    0.146576672850311418E+02   -0.354889057751441861E+00   -0.190811833203545778E+01   -0.157307565584968145E+01    0.285653526274484575E+05
    0.878692728619043351E+03    0.149084761591610757E+02   -0.356046401063861317E+00   -0.192289764687792708E+01   -0.157382699782748503E+01    0.285658256187921870E+05
    0.879155077126196943E+03    0.147650248929131500E+02   -0.355937886168528728E+00   -0.187708968412173771E+01   -0.156447925971310653E+01    0.285656179874041154E+05
    0.878526925768309184E+03    0.143117494180863982E+02   -0.353395698202564112E+00   -0.198807320250566644E+01   -0.160978224524649249E+01    0.285655199902551685E+05
    0.878869892775175003E+03    0.144359522607971034E+02   -0.353572938137033610E+00   -0.196247886561138163E+01   -0.157628319246014481E+01    0.285656141607142854E+05
    0.879425515434077624E+03    0.146039666589193153E+02   -0.353356233076624449E+00   -0.192322916102718722E+01   -0.156246918016242375E+01    0.285654035516466902E+05
    0.878776426007163309E+03    0.145806312654694246E+02   -0.357383505171033455E+00   -0.191114671796369784E+01   -0.159704800705375316E+01    0.285658187263553518E+05
    0.877685601665851891E+03    0.145466900256034908E+02   -0.358376424511765101E+00   -0.189473499844222726E+01   -0.158582818904888079E+01    0.285654257257397148E+05
    0.879342066709675692E+03    0.140725069960391060E+02   -0.352794874723511676E+00   -0.194831628179821781E+01   -0.158370645376372021E+01    0.285656337688081403E+05
    0.878774022172696505E+03    0.148112166449514788E+02   -0.357838716785847666E+00   -0.186806565093194266E+01   -0.159831429539455883E+01    0.285657147111354861E+05
    0.878774022172696505E+03    0.148112166449514788E+02   -0.357838716785847666E+00   -0.186806565093194266E+01   -0.159831429539455883E+01    0.285657147111354861E+05
    0.879518551641480826E+03    0.147214990183192533E+02   -0.358680766721702682E+00   -0.178330919184333148E+01   -0.158035020924257985E+01    0.285655016646899458E+05
    0.879221724931968311E+03    0.147242519155988525E+02   -0.356713275594440660E+00   -0.184222404240557402E+01   -0.162533931218067984E+01    0.285655357785412307E+05
    0.879821049372674679E+03    0.143610736775101806E+02   -0.357355312361879562E+00   -0.181451095942324070E+01   -0.161126873385751157E+01    0.285657824974417126E+05
    0.878271689266853400E+03    0.147655551920256389E+02   -0.361183959645331676E+00   -0.179107990138478179E+01   -0.158785631869306254E+01    0.285653312332732930E+05
    0.878263281607857834E+03    0.141342657873035709E+02   -0.356437538580024693E+00   -0.211797684059310942E+01   -0.154121584840293124E+01    0.285660500408437147E+05
    0.877818905305057228E+03    0.139653196091152978E+02   -0.354344280191605243E+00   -0.209984310630139070E+01   -0.152792028431887683E+01    0.285654348001816616E+05
    0.877247155737216076E+03    0.144955664764904419E+02   -0.356222128575126362E+00   -0.202780371371939250E+01   -0.153537124465978625E+01    0.285653888972940331E+05
    0.878569141438880024E+03    0.137780558391093368E+02   -0.356040250871593855E+00   -0.216867244463421560E+01   -0.152751780961435291E+01    0.285661693892342446E+05
    0.877692432308666866E+03    0.141476968528043088E+02   -0.355517124296717668E+00   -0.221198348389885258E+01   -0.153926239121179176E+01    0.285655306240712962E+05
    0.877889887784019493E+03    0.142059843152845957E+02   -0.355590819774888267E+00   -0.218518122319012065E+01   -0.154110750449937406E+01    0.285656915443111502E+05
    0.878642696569244890E+03    0.135336766369895134E+02   -0.354976456100071225E+00   -0.215552681978977745E+01   -0.152950946910719665E+01    0.285661300209669280E+05
    0.878642696569244890E+03    0.135336766369895134E+02   -0.354976456100071225E+00   -0.215552681978977745E+01   -0.152950946910719665E+01    0.285661300209669280E+05
    0.878463130858197474E+03    0.144492250517594805E+02   -0.355154053829695115E+00   -0.208809580674066630E+01   -0.152976627880449545E+01    0.285660621824775335E+05
    0.877405496482399485E+03    0.139875412800883101E+02   -0.356175629196736843E+00   -0.213525314220339002E+01   -0.154548935960068068E+01    0.285655817568610873E+05
    0.879263275811648441E+03    0.133201957014960293E+02   -0.355350026206419756E+00   -0.214372820923160567E+01   -0.152683490704752689E+01    0.285665022592770838E+05
    0.879263275811648441E+03    0.133201957014960293E+02   -0.355350026206419756E+00   -0.214372820923160567E+01   -0.152683490704752689E+01    0.285665022592770838E+05
    0.878623928318148501E+03    0.136774070711024081E+02   -0.352767109718604921E+00   -0.215259179478420126E+01   -0.151650372852267878E+01    0.285654753876520263E+05
    0.878376658921032913E+03    0.138487279395830072E+02   -0.355957698078440465E+00   -0.217280791522384842E+01   -0.152613959243618247E+01    0.285660794059897526E+05
    0.878376658921032913E+03    0.138487279395830072E+02   -0.355957698078440465E+00   -0.217280791522384842E+01   -0.152613959243618247E+01    0.285660794059897526E+05
    0.877717262213617232E+03    0.135839286793284799E+02   -0.354729705865712397E+00   -0.219625285432934803E+01   -0.153022492008575828E+01    0.285655397364104938E+05
    0.878476557508990140E+03    0.141841971183258551E+02   -0.354984910713309176E+00   -0.216080187112376176E+01   -0.153642079722346914E+01    0.285660233605853173E+05
    0.878476557508990140E+03    0.141841971183258551E+02   -0.354984910713309176E+00   -0.216080187112376176E+01   -0.153642079722346914E+01    0.285660233605853173E+05
    0.878318183914250540E+03    0.140458773091317042E+02   -0.356896296307440686E+00   -0.206243626300604532E+01   -0.152113074482121302E+01    0.285662375523972951E+05
    0.878318183914250540E+03    0.140458773091317042E+02   -0.356896296307440686E+00   -0.206243626300604532E+01   -0.152113074482121302E+01    0.285662375523972951E+05
    0.878473495657934109E+03    0.141692106371372262E+02   -0.356535127892260384E+00   -0.208329859197578315E+01   -0.152089260695129980E+01    0.285662947457025366E+05
    0.878473495657934109E+03    0.141692106371372262E+02   -0.356535127892260384E+00   -0.208329859197578315E+01   -0.152089260695129980E+01    0.285662947457025366E+05
    0.878515443403318159E+03    0.142145764772895795E+02   -0.357252831011185989E+00   -0.198779234448683617E+01   -0.151202523894294671E+01    0.285660856588306015E+05
    0.878515443403318159E+03    0.142145764772895795E+02   -0.357252831011185989E+00   -0.198779234448683617E+01   -0.151202523894294671E+01    0.285660856588306015E+05
    0.878930686417495281E+03    0.140961492011660887E+02   -0.357281346451651771E+00   -0.216673106670732007E+01   -0.153118553981401373E+01    0.285662223139613779E+05
    0.878930686417495281E+03    0.140961492011660887E+02   -0.357281346451651771E+00   -0.216673106670732007E+01   -0.153118553981401373E+01    0.285662223139613779E+05
    0.878657741521063485E+03    0.141067709459959811E+02   -0.358399373103480912E+00   -0.213957664010144910E+01   -0.153222600374169637E+01    0.285661111329990781E+05
    0.878657741521063485E+03    0.141067709459959811E+02   -0.358399373103480912E+00   -0.213957664010144910E+01   -0.153222600374169637E+01    0.285661111329990781E+05
    0.878776349968594559E+03    0.142351300640867109E+02   -0.358525233521382880E+00   -0.199767094799518752E+01   -0.151316819874601105E+01    0.285665973874780830E+05
    0.878776349968594559E+03    0.142351300640867109E+02   -0.358525233521382880E+00   -0.199767094799518752E+01   -0.151316819874601105E+01    0.285665973874780830E+05
    0.878776349968594559E+03    0.142351300640867109E+02   -0.358525233521382880E+00   -0.199767094799518752E+01   -0.151316819874601105E+01    0.285665973874780830E+05
    0.878445628513328188E+03    0.141186543666821791E+02   -0.356956637271999000E+00   -0.199333752356964844E+01   -0.152170136432560987E+01    0.285660795381741336E+05
    0.878934134634576935E+03    0.139790829949224218E+02   -0.357249500756550376E+00   -0.192904795165697074E+01   -0.150977931329663750E+01    0.285657940125456262E+05
    0.877985032039480075E+03    0.143554656446127975E+02   -0.357269379166838874E+00   -0.221025818940105001E+01   -0.152654701459766784E+01    0.285657889530197172E+05
    0.877712921486432037E+03    0.141823397237856046E+02   -0.356594952244759789E+00   -0.216089250011337164E+01   -0.153020096145745388E+01    0.285658118054080696E+05
    0.877712921486432037E+03    0.141823397237856046E+02   -0.356594952244759789E+00   -0.216089250011337164E+01   -0.153020096145745388E+01    0.285658118054080696E+05
    0.878746027396999352E+03    0.140623621669260253E+02   -0.356037193272699781E+00   -0.202580149100762430E+01   -0.151736353210707797E+01    0.285661640317474448E+05
    0.878746027396999352E+03    0.140623621669260253E+02   -0.356037193272699781E+00   -0.202580149100762430E+01   -0.151736353210707797E+01    0.285661640317474448E+05
    0.877872369205386576E+03    0.142830108349422833E+02   -0.356184329833117097E+00   -0.217922036696741550E+01   -0.153046785564936361E+01    0.285658178798541485E+05
    0.877872369205386576E+03    0.142830108349422833E+02   -0.356184329833117097E+00   -0.217922036696741550E+01   -0.153046785564936361E+01    0.285658178798541485E+05
    0.878766378664642502E+03    0.144548864037156743E+02   -0.358227409008636144E+00   -0.204691730959424323E+01   -0.152076787229161159E+01    0.285666089189459344E+05
    0.878766378664642502E+03    0.144548864037156743E+02   -0.358227409008636144E+00   -0.204691730959424323E+01   -0.152076787229161159E+01    0.285666089189459344E+05
    0.878766378664642502E+03    0.144548864037156743E+02   -0.358227409008636144E+00   -0.204691730959424323E+01   -0.152076787229161159E+01    0.285666089189459344E+05
    0.878330293088401618E+03    0.143805396426258074E+02   -0.360197398828258741E+00   -0.202851717878388538E+01   -0.152296024376491257E+01    0.285664231808470722E+05
    0.878330293088401618E+03    0.143805396426258074E+02   -0.360197398828258741E+00   -0.202851717878388538E+01   -0.152296024376491257E+01    0.285664231808470722E+05
    0.878330293088401618E+03    0.143805396426258074E+02   -0.360197398828258741E+00   -0.202851717878388538E+01   -0.152296024376491257E+01    0.285664231808470722E+05
    0.878991107640681889E+03    0.142830731482013142E+02   -0.360384909779704721E+00   -0.189558331931354740E+01   -0.150547153102354425E+01    0.285664515501207206E+05
    0.878991107640681889E+03    0.142830731482013142E+02   -0.360384909779704721E+00   -0.189558331931354740E+01   -0.150547153102354425E+01    0.285664515501207206E+05
    0.878111049757342812E+03    0.147713314646193989E+02   -0.354541899662062399E+00   -0.213181248700663684E+01   -0.157989470420982858E+01    0.285655218628630719E+05
    0.877961414648097957E+03    0.145999809375299030E+02   -0.352988480731647236E+00   -0.216166805518340155E+01   -0.155239086214395794E+01    0.285654267769315265E+05
    0.877736690293163406E+03    0.146145546969934905E+02   -0.354017665944047266E+00   -0.211263565447584334E+01   -0.156220451411335315E+01    0.285654843720671015E+05
    0.877285715597513331E+03    0.145198603995559008E+02   -0.355427338990007335E+00   -0.209145851697083174E+01   -0.157432617202016711E+01    0.285653398436832940E+05
    0.877976336781199734E+03    0.147403276511571661E+02   -0.353319431214877078E+00   -0.217223189091587976E+01   -0.156236244506623745E+01    0.285654685983583113E+05
