    0.135156101087440135E+03    0.318878063849114653E+03    0.336907706635396487E+01   -0.560030211209447959E+00   -0.341953305538008356E+01    0.513716239315161527E+00   -0.303144044052689665E+01   -0.714658592002159487E+01   -0.309243952476467054E+01   -0.532706685264920665E+01    0.288203840562798068E+05
    0.210164638037623604E+03    0.248827152820869770E+03    0.346316475411683378E+01   -0.109127200764668841E+01   -0.113588990017497515E+01    0.746260148467108086E+00   -0.305486278234373820E+01   -0.544099793541307086E+01   -0.571896209492829577E+01   -0.486231864490301913E+01    0.288237561554156127E+05
    0.143759163411809567E+03    0.469979677257960375E+02    0.447719490919913454E+01   -0.474085571085002933E+00   -0.425548764608952457E+01    0.424362827070470572E+00   -0.129016429777753672E+01   -0.200267605741571852E+01   -0.252194588041546375E+01   -0.538310312148308068E+01    0.288248908819593998E+05
    0.243271773817923190E+03    0.150952107767494965E+03    0.250575494826981782E+01   -0.138577133327094093E+01   -0.131337364633661480E+01    0.680887212452148782E+00   -0.240844329669066948E+01   -0.427446429171098075E+01   -0.265249434024752517E+01   -0.527626759126781408E+01    0.288255650902559719E+05
    0.214743113891695430E+03    0.198040600413994099E+03    0.272999110633377917E+01   -0.136516694623435053E+01   -0.346878410683274652E+01    0.706213097766123621E+00   -0.144125821103505913E+01   -0.405624502084543526E+01   -0.286586580201744034E+01   -0.573465554321374071E+01    0.288256942846457387E+05
    0.139703745319272940E+03    0.293543218964059690E+03    0.228951752778908002E+01   -0.937044595405160052E+00   -0.495069872112863685E+01    0.623292789708301709E+00   -0.176944553685647232E+01   -0.169403511744720170E+01   -0.321969555497777904E+01   -0.604833210632409290E+01    0.288257519026413793E+05
    0.229452447009220748E+03    0.141586955641333617E+03    0.200631096655337515E+01   -0.137725504116365416E+01   -0.369461193945502497E+01    0.562892924798621741E+00   -0.123044698947328168E+01   -0.279586456702474262E+01   -0.345933400579785388E+01   -0.507045889105213110E+01    0.288261036241617912E+05
    0.320755004822259593E+03    0.136032603723713919E+03    0.885562577160727837E+00   -0.195226182112932500E+01   -0.323003721101030550E+01    0.522976585414541284E+00   -0.960729423994363785E+00   -0.160536966523934232E+01   -0.752314654254559034E+01   -0.471902468288252575E+01    0.288261697758850896E+05
    0.222066704614167719E+03    0.201712642128621525E+03    0.492753556891608824E+01   -0.140475903865131713E+01   -0.296666305005103981E+01    0.679017571123553987E+00   -0.159391748691552504E+01   -0.323991644602641848E+01   -0.542288128484940302E+01   -0.447443307360464537E+01    0.288264700026964456E+05
    0.328147448017104182E+03    0.101714324736594207E+03    0.349002167104941208E+01   -0.238998930189483882E+01   -0.439909794666261611E+01    0.715678514639092600E+00   -0.135128435256755353E+01   -0.308755475135441859E+01   -0.295732770446940219E+01   -0.600282137456025566E+01    0.288265152289594407E+05
    0.111139547378942979E+03    0.186334784420806926E+03    0.325236811236188039E+01   -0.596352709612433252E-01   -0.317034231941792433E+01    0.342316009727304360E+00   -0.194755855905012076E+01   -0.213142760912949214E+01   -0.440220462123696343E+01   -0.579311776654209964E+01    0.288268067629826910E+05
    0.258717720896992773E+03    0.197291935078284723E+03    0.540864398110209876E+01   -0.204993022846105966E+01   -0.526974579195145676E+01    0.614001397876358990E+00   -0.207955738868989037E+01   -0.355696292476648868E+01   -0.318947053152489346E+01   -0.499438465101963658E+01    0.288268070875548365E+05
    0.351711888602292106E+03    0.241144866371645207E+03    0.355161448746468800E+01   -0.261348171917275396E+01   -0.342340323756808340E+01    0.787548683301926733E+00   -0.177332250381189649E+01   -0.315953609051281248E+01   -0.763912546550202620E+01   -0.405320718104256983E+01    0.288269389396761399E+05
    0.244330360295642663E+03    0.231253768665925037E+03    0.413680700538621160E+00   -0.173201188181200139E+01   -0.473219040096765298E+01    0.493361158645992282E+00   -0.229248599696639754E+01   -0.191836384779935454E+01   -0.773985156725041090E+01   -0.606776535464462619E+01    0.288270535548623811E+05
    0.163682645498308375E+03    0.309963275091505409E+03    0.738953200371565533E+00   -0.136331069488280754E+01   -0.470318680792371424E+01    0.679512303062403733E+00   -0.190927668354925206E+01   -0.426434654808724467E+01   -0.539546365491020108E+01   -0.542165605978261489E+01    0.288270768962898401E+05
    0.400392049804830663E+03    0.897330762524844943E+02    0.472671064960896281E+01   -0.283836355240194127E+01   -0.384830749561566865E+01    0.697661666622234389E+00   -0.149422998557171294E+01   -0.320251926025040667E+01   -0.735150354004921347E+01   -0.435138793193782458E+01    0.288273052500505437E+05
    0.314456347904651921E+03    0.463084202783179393E+02    0.128117024255468426E+01   -0.202483624057013145E+01   -0.367833691919913797E+01    0.695236032014521665E+00   -0.110369393226742929E+01   -0.147601372632880956E+01   -0.459897772665116200E+01   -0.480370306074595099E+01    0.288273505976879678E+05
    0.187970779498389476E+03    0.286257363415429268E+03    0.548665236437411163E+00   -0.115797422063831346E+01   -0.325429095964122439E+01    0.455165060176102865E+00   -0.204113691806062114E+01   -0.179516815817293907E+01   -0.758412006924378179E+01   -0.447047847529860931E+01    0.288274180089593974E+05
    0.295096659277606136E+03    0.181768271151012272E+03    0.375545451235188210E+01   -0.191162188770666042E+01   -0.248745146115053739E+01    0.821173618482029299E+00   -0.191724022816862050E+01   -0.365466738607354813E+01   -0.390362170669798214E+01   -0.650379971381975608E+01    0.288274327520708321E+05
    0.343966736377809525E+03    0.148071872270354305E+03    0.111820637627570552E+01   -0.221721955770727064E+01   -0.261983133091395848E+01    0.803583678982509930E+00   -0.166494932978262877E+01   -0.241064550028444646E+01   -0.658516918412603047E+01   -0.671389697021079090E+01    0.288274693343996078E+05
    0.303917518730079053E+03    0.231836060141702632E+03    0.535746619547529157E+01   -0.243643013968786581E+01   -0.432278048960028460E+01    0.700321434841387314E+00   -0.192339581260958870E+01   -0.190808129912302071E+01   -0.591091962537974247E+01   -0.463147611904008194E+01    0.288274799229864402E+05
    0.147969408750705668E+03    0.259278457645338165E+03    0.440937842647991829E+01   -0.954589108602321712E+00   -0.521341689953535425E+01    0.473274353477213250E+00   -0.208990213953666348E+01   -0.408198443360537055E+01   -0.444410355412052027E+01   -0.525179458713533798E+01    0.288275485007015959E+05
    0.259844995378276678E+03    0.364375462497519266E+03    0.113912857824211766E+01   -0.229211498919765866E+01   -0.437965152002411084E+01    0.571557674014858019E+00   -0.205408383270323736E+01   -0.174738087021424970E+01   -0.256301716280094993E+01   -0.568987901135586771E+01    0.288275645257363358E+05
    0.100996933121866832E+03    0.416912062229301483E+01    0.550877850426182825E+01    0.274026934437974212E+00   -0.106755666655135073E+01    0.627579663294103751E+00   -0.326445900909135123E+01   -0.469669152042055416E+01   -0.549389013272171134E+01   -0.639847953746495079E+01    0.288276260957468330E+05
    0.364654576422150853E+03    0.859880392231338675E+01    0.277612915554411899E+01   -0.235336071599960750E+01   -0.254535850064055325E+01    0.749945285146709550E+00   -0.167301460230912724E+01   -0.202201909451806916E+01   -0.723542680313190534E+01   -0.560043767868849773E+01    0.288276330074575235E+05
    0.238288473149881526E+03    0.262219927004055990E+03    0.438053021882551796E+01   -0.173375393905875130E+01   -0.398769846736993649E+01    0.603882105718504647E+00   -0.310374097661776105E+01   -0.390400493740782029E+01   -0.682346891885772422E+01   -0.652179120577754112E+01    0.288276400720106503E+05
    0.163448353899203454E+03    0.352970864425765171E+03    0.299763391148816538E+01   -0.129404238884424538E+01   -0.358020423968345547E+01    0.702535219791429300E+00   -0.191329109843390466E+01   -0.191396748388404969E+01   -0.362012667628363438E+01   -0.466093359037205346E+01    0.288276507676684159E+05
    0.359047296614199524E+03    0.105069065040219854E+03    0.372732084154684351E+01   -0.247640470236474641E+01   -0.516284901707565513E+01    0.476835953774090715E+00   -0.147961629393944172E+01   -0.145285528990933344E+01   -0.697919383795883164E+01   -0.535346071631627929E+01    0.288276535201710794E+05
    0.229895189363832714E+03    0.316730843589415258E+03    0.169569278820772329E+00   -0.173822488894979132E+01   -0.506335425365650860E+01    0.573999772259549679E+00   -0.939231577165237752E+00   -0.148261287860768576E+01   -0.182644868495475432E+01   -0.561568509738235910E+01    0.288276611607808372E+05
    0.387710089371481217E+03    0.249859085402449654E+01    0.103691258758197913E+01   -0.263458399854481051E+01   -0.441747542145904948E+01    0.607289533223633216E+00   -0.898857246434011437E+00   -0.262997061079140337E+01   -0.682297211853443919E+01   -0.510174789662308203E+01    0.288276957910542114E+05
    0.179469979351252874E+03    0.322582528356180376E+03    0.100280554525005794E+01   -0.123600809281510449E+01   -0.414473287571004878E+01    0.716701669539760777E+00   -0.851049577034968863E+00   -0.268813794571267906E+01   -0.202386489545985704E+01   -0.483550802341204466E+01    0.288277720848262106E+05
    0.254253264397272233E+03    0.236441348469911674E+03    0.217642940496414194E+01   -0.183998262739913265E+01   -0.466863718380074832E+01    0.506078221241209159E+00   -0.149416347301843455E+01   -0.278910132576758496E+01   -0.646823419042747005E+01   -0.452514577497552928E+01    0.288277946502014529E+05
    0.209082293897367151E+03    0.377435457467197693E+03    0.158849233269664492E+01   -0.191168909217912097E+01   -0.394770503361034342E+01    0.639225696557276457E+00   -0.270996388303306279E+01   -0.239417564427929008E+01   -0.620162685709915351E+01   -0.624661481558957021E+01    0.288279012602798139E+05
    0.128391506570305921E+03    0.244106423123399395E+03    0.345670922139718328E+01   -0.418876892742233053E+00   -0.308625097523282843E+01    0.621471610957335496E+00   -0.184978988177242076E+01   -0.286747567469179199E+01   -0.340133998323407205E+01   -0.513996028128750559E+01    0.288279024816770907E+05
    0.151139519728986784E+03    0.340003394564131156E+03    0.249345429024685306E+01   -0.172079529016366717E+01   -0.563585545108847352E+01    0.631059446977127236E+00   -0.306051384672271176E+01   -0.444033800875888574E+01   -0.445963617877328211E+01   -0.621710496954124991E+01    0.288279256696599405E+05
    0.758887695427317936E+02    0.102527598938865722E+03    0.492840776144545067E+01    0.680915467622460913E+00   -0.242362737409901241E+01    0.393366033833490059E+00   -0.239840621640269358E+01   -0.340550080174929537E+01   -0.483199060024716331E+01   -0.583433871673500359E+01    0.288279753096738896E+05
    0.232469708556614478E+03    0.192845349295778334E+03    0.441922059269138678E+01   -0.168972413774675290E+01   -0.544866835662154436E+01    0.495011049072054510E+00   -0.222794331824405489E+01   -0.390426430591125762E+01   -0.645554161121845826E+01   -0.531630202237221461E+01    0.288279915752905581E+05
    0.101073412131343702E+03    0.191007656880214540E+03    0.210602843888765712E+01    0.101603099112584250E+00   -0.389031060896090342E+01    0.329341062878375446E+00   -0.260305545914870962E+01   -0.261594839238113241E+01   -0.548229928988149950E+01   -0.591053492059491958E+01    0.288280085103496895E+05
    0.201899234760733464E+03    0.266155989481136203E+03    0.564710124615971765E+01   -0.191045419233761926E+01   -0.523622131964046744E+01    0.699468640718687862E+00   -0.209779672229782133E+01   -0.326544180283786289E+01   -0.337107297874901413E+01   -0.559583112681727890E+01    0.288280847197271505E+05
    0.235405047039815940E+03    0.264581333902677329E+03    0.389876187280026620E+01   -0.167490629683666481E+01   -0.399775998984183456E+01    0.700971568350634566E+00   -0.138909306160602597E+01   -0.177081955425201976E+01   -0.140755661921363195E+01   -0.441792696969572063E+01    0.288280875692952977E+05
    0.281063977791433103E+03    0.249451461492991143E+03    0.202435815245117023E+01   -0.214923090769273628E+01   -0.471488831646573026E+01    0.621940424674018888E+00   -0.227391920321708518E+01   -0.309112523807649264E+01   -0.478316360652089401E+01   -0.582706141706872582E+01    0.288281226716554083E+05
    0.136044493965735484E+03    0.343686449430195637E+03    0.504093470853215031E+01   -0.127450352244416543E+01   -0.440693197840029072E+01    0.724670531914822336E+00   -0.203332303837842954E+01   -0.290435917699677582E+01   -0.274774996701154794E+01   -0.471751406572404086E+01    0.288281258516844791E+05
    0.127922638746047383E+03    0.215739575762089714E+03    0.489888946133982017E+01   -0.252804381264738698E+00   -0.182692150377438356E+01    0.562060881222427033E+00   -0.277352374847328242E+01   -0.334825285563552910E+01   -0.449297035481429319E+01   -0.619447145519251308E+01    0.288282108492686784E+05
    0.127922638746047383E+03    0.215739575762089714E+03    0.489888946133982017E+01   -0.252804381264738698E+00   -0.182692150377438356E+01    0.562060881222427033E+00   -0.277352374847328242E+01   -0.334825285563552910E+01   -0.449297035481429319E+01   -0.619447145519251308E+01    0.288282108492686784E+05
    0.245767582817529416E+03    0.212690142660741230E+03    0.182011921482852479E+01   -0.156576029401514316E+01   -0.274549156340032585E+01    0.667539422927533321E+00   -0.180772990452135218E+01   -0.209378244119126755E+01   -0.279920302533085952E+01   -0.514597828160267756E+01    0.288282142572647790E+05
    0.974700339514702563E+02    0.364584991944020658E+03    0.162347929493037668E+01   -0.520717636521056182E+00   -0.486899348905608154E+01    0.515973676388882030E+00   -0.209296349731851272E+01   -0.169681091385103233E+01   -0.365004753125734904E+01   -0.667708281058266540E+01    0.288282320945177780E+05
    0.117146810535748344E+03    0.377161515667174740E+03    0.285843119678765767E+01   -0.936872056961630228E+00   -0.474814574143330415E+01    0.566339642596187187E+00   -0.324638801129005206E+01   -0.349463495371688726E+01   -0.770947227898468679E+01   -0.658075852938170769E+01    0.288283227335076845E+05
    0.256697549779791018E+03    0.184857013688113312E+03    0.486622138448348984E+01   -0.179461046123452639E+01   -0.563370351629572319E+01    0.423570129761278946E+00   -0.245204494444232690E+01   -0.364710603505468622E+01   -0.683875922302229711E+01   -0.633453562942060699E+01    0.288283499560893179E+05
    0.108265226324056485E+03    0.351990688319612104E+03    0.528099916018357796E+01   -0.130806024787264530E+01   -0.476995508480866448E+01    0.759679320256887780E+00   -0.184809145501839733E+01   -0.208143098228063383E+01   -0.431374238004710087E+01   -0.402627465129220496E+01    0.288283520356579029E+05
    0.108265226324056485E+03    0.351990688319612104E+03    0.528099916018357796E+01   -0.130806024787264530E+01   -0.476995508480866448E+01    0.759679320256887780E+00   -0.184809145501839733E+01   -0.208143098228063383E+01   -0.431374238004710087E+01   -0.402627465129220496E+01    0.288283520356579029E+05
    0.253215471647577317E+03    0.362260859948718860E+03    0.159305211321910534E+01   -0.240942857805322941E+01   -0.450529878572647391E+01    0.592684089849917273E+00   -0.202365564268374598E+01   -0.246582556499841132E+01   -0.551917944994180143E+01   -0.447290179629087348E+01    0.288284015824561211E+05
    0.140493170265775802E+03    0.446662059698093174E+03    0.129592420701715394E+00   -0.125372752456885195E+01   -0.438510088570949286E+01    0.548318465652299247E+00   -0.946433508890796027E+00   -0.833661579670077479E+00   -0.561207412187295951E+01   -0.571168195476094454E+01    0.288284601716657271E+05
    0.140493170265775802E+03    0.446662059698093174E+03    0.129592420701715394E+00   -0.125372752456885195E+01   -0.438510088570949286E+01    0.548318465652299247E+00   -0.946433508890796027E+00   -0.833661579670077479E+00   -0.561207412187295951E+01   -0.571168195476094454E+01    0.288284601716657271E+05
    0.218455236336326152E+03    0.376027356418860904E+03    0.124498934727577559E+01   -0.246780018957094871E+01   -0.551593377150338693E+01    0.577173718358384824E+00   -0.228789066099306737E+01   -0.196375149624438983E+01   -0.350015003269550107E+01   -0.563569313194744925E+01    0.288284617005438558E+05
    0.218455236336326152E+03    0.376027356418860904E+03    0.124498934727577559E+01   -0.246780018957094871E+01   -0.551593377150338693E+01    0.577173718358384824E+00   -0.228789066099306737E+01   -0.196375149624438983E+01   -0.350015003269550107E+01   -0.563569313194744925E+01    0.288284617005438558E+05
    0.245674402055073870E+03    0.399591747866487026E+03    0.190377469848290293E+00   -0.255769640858760416E+01   -0.506927226219553440E+01    0.743396014270178762E+00   -0.141337452158848276E+01   -0.102602440290330676E+01   -0.331611081872487468E+01   -0.545725280921330125E+01    0.288284633120176331E+05
    0.156746960912168333E+03    0.161873536525007864E+03    0.301543291594051777E+01   -0.541020563056134218E+00   -0.127704937974338772E+01    0.687517552818915467E+00   -0.301593596977459910E+01   -0.466115385014658656E+01   -0.689551116714583401E+01   -0.651474995221408371E+01    0.288284732838135933E+05
    0.267874520627767083E+03    0.324467430233097105E+03    0.157994374574262686E+00   -0.223677845205586356E+01   -0.461458491369675095E+01    0.583928665812408987E+00   -0.138529747658062519E+01   -0.252718163092481785E+01   -0.547003174978689621E+01   -0.406258275761000043E+01    0.288284737960490165E+05
    0.326872572831467266E+03    0.241785280853827032E+03    0.172311396617692214E+01   -0.252671380604984286E+01   -0.433595978062186393E+01    0.719562412660701090E+00   -0.171924550511692242E+01   -0.211512647704237544E+01   -0.362397027883175848E+01   -0.459545285825034000E+01    0.288284785512077542E+05
    0.266178102583158704E+03    0.324158709696196070E+03    0.226151596000204336E+01   -0.250363437257003252E+01   -0.482921974373191087E+01    0.671338332423955020E+00   -0.167871603144627901E+01   -0.252368525335430860E+01   -0.189820402193942517E+01   -0.566127081906146401E+01    0.288285006642497610E+05
    0.266178102583158704E+03    0.324158709696196070E+03    0.226151596000204336E+01   -0.250363437257003252E+01   -0.482921974373191087E+01    0.671338332423955020E+00   -0.167871603144627901E+01   -0.252368525335430860E+01   -0.189820402193942517E+01   -0.566127081906146401E+01    0.288285006642497610E+05
    0.187946758088256729E+03    0.282545925523191386E+03    0.164714832763013330E+01   -0.132082406741994496E+01   -0.468445864142276491E+01    0.457777640772821237E+00   -0.226253535635784075E+01   -0.243139735369789189E+01   -0.643790603196915701E+01   -0.459456361872770103E+01    0.288285338197767414E+05
    0.183674815733657567E+03    0.237966810204552502E+03    0.380086077922260568E+01   -0.129044923450964566E+01   -0.491308480852266349E+01    0.541078047916298099E+00   -0.245823991678007125E+01   -0.249080364337100146E+01   -0.373583529943458714E+01   -0.677182196211281884E+01    0.288285506827277277E+05
    0.270441294443916604E+03    0.181354150087847074E+03    0.116523772981046081E+01   -0.165760075404085083E+01   -0.421021825106254433E+01    0.571239090914553826E+00   -0.894359021777955121E+00   -0.166452539361837548E+01   -0.680174288143424732E+01   -0.498938921707471827E+01    0.288285892274676844E+05
    0.216670511321984264E+03    0.187045472818412037E+03    0.426647346473127165E+01   -0.148283127173903884E+01   -0.538035555451102709E+01    0.480614242874555786E+00   -0.234470549488145252E+01   -0.332141727732567649E+01   -0.780681786722251392E+01   -0.566966913480143830E+01    0.288286098559359270E+05
    0.216670511321984264E+03    0.187045472818412037E+03    0.426647346473127165E+01   -0.148283127173903884E+01   -0.538035555451102709E+01    0.480614242874555786E+00   -0.234470549488145252E+01   -0.332141727732567649E+01   -0.780681786722251392E+01   -0.566966913480143830E+01    0.288286098559359270E+05
    0.168067933610626568E+03    0.259417287651058416E+03    0.536970816923728389E+01   -0.875126616357513321E+00   -0.294357978220037397E+01    0.608255376730201136E+00   -0.284368328094847733E+01   -0.336965233535266595E+01   -0.369937502761969128E+01   -0.774903142040838144E+01    0.288286225581970284E+05
    0.168067933610626568E+03    0.259417287651058416E+03    0.536970816923728389E+01   -0.875126616357513321E+00   -0.294357978220037397E+01    0.608255376730201136E+00   -0.284368328094847733E+01   -0.336965233535266595E+01   -0.369937502761969128E+01   -0.774903142040838144E+01    0.288286225581970284E+05
    0.174125944310861769E+03    0.214289703023768652E+03    0.310512620585941690E+01   -0.899872596588401130E+00   -0.338412273855190726E+01    0.449043018970872954E+00   -0.218536484410972065E+01   -0.198016897827506622E+01   -0.706178403185619175E+01   -0.493835737601906288E+01    0.288286912465461573E+05
    0.339329684340558401E+03    0.179655315698392570E+03    0.476891144483858387E+01   -0.274009803257543272E+01   -0.558578529877666252E+01    0.674842216902735714E+00   -0.138900018126718816E+01   -0.144024998592034681E+01   -0.596547010512283116E+01   -0.490316433709409871E+01    0.288287081632096633E+05
    0.188010746227615641E+03    0.204299040442783877E+03    0.315618113784273646E+01   -0.994467742227390872E+00   -0.352508975504969424E+01    0.591802013005424787E+00   -0.144108325212813959E+01   -0.127589963758765546E+01   -0.570663181271270936E+01   -0.457280661428376956E+01    0.288287125064549000E+05
    0.188010746227615641E+03    0.204299040442783877E+03    0.315618113784273646E+01   -0.994467742227390872E+00   -0.352508975504969424E+01    0.591802013005424787E+00   -0.144108325212813959E+01   -0.127589963758765546E+01   -0.570663181271270936E+01   -0.457280661428376956E+01    0.288287125064549000E+05
    0.227442747455752624E+03    0.342870734706197197E+03    0.203107460836011722E+01   -0.255560146260799259E+01   -0.496705682422058903E+01    0.750362973885703832E+00   -0.230639627147563608E+01   -0.330796000071704999E+01   -0.403488663952508553E+01   -0.602244599826372351E+01    0.288287163950784270E+05
    0.328916970772083573E+03    0.321522801553543118E+02    0.232153290054834738E+01   -0.169310160635758367E+01   -0.234424082893921515E+01    0.640373597523207105E+00   -0.138354869290765592E+01   -0.772746079160207877E+00   -0.702798599562086679E+01   -0.556382273292700891E+01    0.288287282097857278E+05
    0.145194289151472674E+03    0.249418458207170943E+03    0.548612498177933539E+01   -0.494243948375151732E+00   -0.187002091148134930E+01    0.633973053649717677E+00   -0.278911484997418402E+01   -0.334940185266439183E+01   -0.525056386494218774E+01   -0.607919503168340913E+01    0.288287591578435386E+05
    0.328202426582674775E+03    0.240184663078364338E+03    0.213363670471264477E+01   -0.252531332413820664E+01   -0.498663748058432166E+01    0.527879374187055994E+00   -0.219101076782851756E+01   -0.240524905354646634E+01   -0.793730891119713355E+01   -0.429218599765942521E+01    0.288288180198827649E+05
    0.291486429483180132E+03    0.308700129229630306E+03    0.290110213053449417E+00   -0.223770396350701173E+01   -0.541708052713698951E+01    0.565121800788880302E+00   -0.104608129820507223E+01   -0.146469839957099435E+01   -0.238433885756096053E+01   -0.556680654838617528E+01    0.288288331201592009E+05
    0.294728313081879151E+03    0.218683902375633778E+03    0.228589122140181100E+01   -0.185813598604645458E+01   -0.239312715182581925E+01    0.620294056989160403E+00   -0.250281818344258777E+01   -0.280611790732854249E+01   -0.759310777303749784E+01   -0.653428777371952751E+01    0.288288612603629663E+05
    0.294728313081879151E+03    0.218683902375633778E+03    0.228589122140181100E+01   -0.185813598604645458E+01   -0.239312715182581925E+01    0.620294056989160403E+00   -0.250281818344258777E+01   -0.280611790732854249E+01   -0.759310777303749784E+01   -0.653428777371952751E+01    0.288288612603629663E+05
    0.118105735195156882E+03    0.323236833425349118E+03    0.810985323586481677E+00   -0.520241382043748146E+00   -0.316889127484757882E+01    0.755207878029102053E+00   -0.221754369496402060E+01   -0.294177981065748995E+01   -0.495258648472376528E+01   -0.637642090483171842E+01    0.288288731696701361E+05
    0.261524543131812891E+03    0.278270596379846381E+03    0.430133877060293823E+00   -0.158187904737664953E+01   -0.302562813319876867E+01    0.607714162274328062E+00   -0.187705477497104933E+01   -0.104261835582411155E+01   -0.671581420148573027E+01   -0.617495896205386785E+01    0.288289862158236792E+05
    0.261524543131812891E+03    0.278270596379846381E+03    0.430133877060293823E+00   -0.158187904737664953E+01   -0.302562813319876867E+01    0.607714162274328062E+00   -0.187705477497104933E+01   -0.104261835582411155E+01   -0.671581420148573027E+01   -0.617495896205386785E+01    0.288289862158236792E+05
    0.405214900967947415E+03    0.615372873051473874E+02    0.468546727496070048E+01   -0.271748346155641451E+01   -0.519045665976295467E+01    0.604837523721805548E+00   -0.742647895651857404E+00   -0.189043689116775049E+01   -0.620217529182220950E+01   -0.449223030139916801E+01    0.288290237810310864E+05
    0.348711046036655262E+03    0.146305960157537839E+03    0.235574133449245338E+01   -0.260024935334131069E+01   -0.484663106040222313E+01    0.661246928545485502E+00   -0.140137649168522138E+01   -0.231810229825572822E+01   -0.469082256885496385E+01   -0.633050081895698291E+01    0.288290242906089661E+05
    0.348711046036655262E+03    0.146305960157537839E+03    0.235574133449245338E+01   -0.260024935334131069E+01   -0.484663106040222313E+01    0.661246928545485502E+00   -0.140137649168522138E+01   -0.231810229825572822E+01   -0.469082256885496385E+01   -0.633050081895698291E+01    0.288290242906089661E+05
    0.328454942126490380E+03    0.139298218811177463E+02    0.342390557599068934E+01   -0.143139686192053173E+01   -0.380426750203669739E+01    0.610465499929268463E+00   -0.751657116225715960E+00   -0.702316862830279831E+00   -0.590376556594751989E+01   -0.542587180761027454E+01    0.288290259370156673E+05
    0.328454942126490380E+03    0.139298218811177463E+02    0.342390557599068934E+01   -0.143139686192053173E+01   -0.380426750203669739E+01    0.610465499929268463E+00   -0.751657116225715960E+00   -0.702316862830279831E+00   -0.590376556594751989E+01   -0.542587180761027454E+01    0.288290259370156673E+05
    0.329763275512029793E+03    0.178544028829633135E+03    0.458364415408187043E+01   -0.242865241941674848E+01   -0.440657247135430286E+01    0.659798407019295485E+00   -0.219669159010450521E+01   -0.304051820608149725E+01   -0.785287049473949317E+01   -0.641283377031730062E+01    0.288291031079849199E+05
    0.329763275512029793E+03    0.178544028829633135E+03    0.458364415408187043E+01   -0.242865241941674848E+01   -0.440657247135430286E+01    0.659798407019295485E+00   -0.219669159010450521E+01   -0.304051820608149725E+01   -0.785287049473949317E+01   -0.641283377031730062E+01    0.288291031079849199E+05
    0.313292951528016886E+03    0.204437431120869775E+02    0.568074984458991139E+01   -0.202451909046233069E+01   -0.422488293328266096E+01    0.593748309847000999E+00   -0.100927137001007505E+01   -0.182172776164761796E+01   -0.435175166538737024E+01   -0.542279430945979257E+01    0.288291041982184761E+05
    0.313292951528016886E+03    0.204437431120869775E+02    0.568074984458991139E+01   -0.202451909046233069E+01   -0.422488293328266096E+01    0.593748309847000999E+00   -0.100927137001007505E+01   -0.182172776164761796E+01   -0.435175166538737024E+01   -0.542279430945979257E+01    0.288291041982184761E+05
    0.227158216788221324E+03    0.254413327888129970E+03    0.195934880833296710E+01   -0.170202969417907068E+01   -0.478439350681767550E+01    0.579242007325388331E+00   -0.168219006209292665E+01   -0.253641168002935657E+01   -0.646054844280217822E+01   -0.709428623711433204E+01    0.288291375807410841E+05
    0.227158216788221324E+03    0.254413327888129970E+03    0.195934880833296710E+01   -0.170202969417907068E+01   -0.478439350681767550E+01    0.579242007325388331E+00   -0.168219006209292665E+01   -0.253641168002935657E+01   -0.646054844280217822E+01   -0.709428623711433204E+01    0.288291375807410841E+05
    0.287307226870018042E+03    0.262072780286764555E+03    0.437379040537468455E+00   -0.192155494201769428E+01   -0.424686227253028026E+01    0.560566844756803406E+00   -0.102863392901262163E+01   -0.163910604355462830E+01   -0.529193431436984696E+01   -0.537886016154575142E+01    0.288291436928454968E+05
    0.121321915528667247E+03    0.352543011390600611E+03    0.415010096931071182E+01   -0.129004869365523156E+01   -0.553691296192034610E+01    0.587089982877567973E+00   -0.321558847026936334E+01   -0.373558356777517808E+01   -0.393859370165558786E+01   -0.773994971172459145E+01    0.288291439325904576E+05
    0.338327794329767642E+03    0.324298784886696865E+03    0.633977654014311831E+00   -0.297425263165076670E+01   -0.461234399844983578E+01    0.766565434365627740E+00   -0.132368274786925877E+01   -0.197462992583983166E+01   -0.287258206889133216E+01   -0.573202359355495794E+01    0.288291719342069373E+05
    0.338327794329767642E+03    0.324298784886696865E+03    0.633977654014311831E+00   -0.297425263165076670E+01   -0.461234399844983578E+01    0.766565434365627740E+00   -0.132368274786925877E+01   -0.197462992583983166E+01   -0.287258206889133216E+01   -0.573202359355495794E+01    0.288291719342069373E+05
    0.257643564980053497E+03    0.104850834468226196E+03    0.322540024400962988E+01   -0.165520451564681514E+01   -0.437692382043007555E+01    0.461715915975430213E+00   -0.259611598393051057E+01   -0.235205091162759938E+01   -0.722957896316398951E+01   -0.572579194565325800E+01    0.288291836094422761E+05
    0.138644164321973335E+03    0.317453946095038020E+03    0.322806321510114547E+01   -0.138976181969735579E+01   -0.514573009403760917E+01    0.715703913997596031E+00   -0.161231340467239370E+01   -0.257537039534937851E+01   -0.392910776013469132E+01   -0.475067856111524911E+01    0.288291906062995913E+05
    0.332700094753179371E+03    0.799272698589404200E+02    0.333807126145419808E+01   -0.255638680180421307E+01   -0.595916687503499443E+01    0.537747351170017152E+00   -0.195422074092439946E+01   -0.216088294522362645E+01   -0.536382733202570972E+01   -0.477364025495053745E+01    0.288292348687069170E+05
    0.332700094753179371E+03    0.799272698589404200E+02    0.333807126145419808E+01   -0.255638680180421307E+01   -0.595916687503499443E+01    0.537747351170017152E+00   -0.195422074092439946E+01   -0.216088294522362645E+01   -0.536382733202570972E+01   -0.477364025495053745E+01    0.288292348687069170E+05
    0.333308989408230445E+03    0.128137160759753868E+03    0.353611207249367610E+01   -0.243037473626683198E+01   -0.455762649717351298E+01    0.652045515711557222E+00   -0.152485838646375793E+01   -0.195315304666087730E+01   -0.697093027370013463E+01   -0.568003594176166082E+01    0.288292402924814633E+05
    0.191553253493250850E+03    0.224350682689039417E+03    0.122657144428672771E+01   -0.104037382518613186E+01   -0.459299205492128237E+01    0.511070378161463168E+00   -0.122968341673292159E+01   -0.110308867328499005E+01   -0.336993323930993238E+01   -0.537530910431791220E+01    0.288292648384860586E+05
    0.280821178931992620E+03    0.356430443836339236E+03    0.393028815015972199E-01   -0.269578314662252172E+01   -0.423478826093734639E+01    0.705084397279295727E+00   -0.197541320991131908E+01   -0.211357831004769015E+01   -0.511171759906032985E+01   -0.591381270069447140E+01    0.288292715793696443E+05
    0.395432654477660549E+03    0.169949152044240662E+03    0.337288424638458117E+01   -0.285107820782602550E+01   -0.397597703885402520E+01    0.693457173998457299E+00   -0.136633654440564101E+01   -0.238209670994482980E+01   -0.717776839793071009E+01   -0.487579719802671985E+01    0.288292756750806548E+05
    0.298924226520108505E+03    0.150780040229918455E+03    0.521189161871675743E+00   -0.211774805284371848E+01   -0.485626298785325350E+01    0.555716183047643364E+00   -0.246902243582698411E+01   -0.207716105982675625E+01   -0.571277485350386094E+01   -0.628032916770669303E+01    0.288292832370271317E+05
    0.298924226520108505E+03    0.150780040229918455E+03    0.521189161871675743E+00   -0.211774805284371848E+01   -0.485626298785325350E+01    0.555716183047643364E+00   -0.246902243582698411E+01   -0.207716105982675625E+01   -0.571277485350386094E+01   -0.628032916770669303E+01    0.288292832370271317E+05
    0.276621244222014525E+03    0.313412413683544230E+03    0.239872762656740157E+01   -0.268204768229900070E+01   -0.498586682746866217E+01    0.694596143582093317E+00   -0.133522568237143702E+01   -0.216289876494788658E+01   -0.578787086776751725E+01   -0.452046983344465758E+01    0.288292855952562095E+05
    0.257147523650201379E+03    0.343093422757622989E+03    0.183905222340976326E+01   -0.197411416425204367E+01   -0.309119312725054796E+01    0.748647070603370990E+00   -0.234813208972875920E+01   -0.300860639345201175E+01   -0.603918910007260301E+01   -0.714424743992768718E+01    0.288292972117280297E+05
    0.257147523650201379E+03    0.343093422757622989E+03    0.183905222340976326E+01   -0.197411416425204367E+01   -0.309119312725054796E+01    0.748647070603370990E+00   -0.234813208972875920E+01   -0.300860639345201175E+01   -0.603918910007260301E+01   -0.714424743992768718E+01    0.288292972117280297E+05
    0.242779806091502849E+03    0.396574235191871310E+03    0.426696743986149318E+00   -0.200729390566961152E+01   -0.321804770217728775E+01    0.683461515574600442E+00   -0.267519248785479036E+01   -0.332311236290899981E+01   -0.485253212669914546E+01   -0.583965086947985945E+01    0.288293129170117973E+05
    0.238272747822639218E+03    0.259743085103767214E+03    0.399197482863458486E+01   -0.202381065167730245E+01   -0.476199086224888291E+01    0.667344062773401414E+00   -0.178831232975189902E+01   -0.271566445729339545E+01   -0.620904476381193149E+01   -0.645817065981942395E+01    0.288293518286178441E+05
    0.192275073369085078E+03    0.245330900268069058E+03    0.235109630120535140E+01   -0.116792776854535107E+01   -0.378694758616951210E+01    0.575234518640059034E+00   -0.120090682275590854E+01   -0.182761266645820264E+01   -0.434147627487787524E+01   -0.597730123139294278E+01    0.288293712178737769E+05
    0.276673527300411195E+03    0.333774386148241774E+03    0.212107446459300686E+00   -0.222997734564070749E+01   -0.403767362632776994E+01    0.747356028799841532E+00   -0.143491729075215790E+01   -0.162984427703267176E+01   -0.603211112370380143E+01   -0.619824803026314708E+01    0.288293787366485521E+05
    0.201452477063645091E+03    0.241981317512277485E+03    0.196075511149963599E+01   -0.147090582212962762E+01   -0.565228317245222378E+01    0.499070721585347987E+00   -0.286439174103563232E+01   -0.349935263648746187E+01   -0.452642004210259774E+01   -0.788694508551593909E+01    0.288293823964177063E+05
    0.123767118002683759E+03    0.357649487477006005E+03    0.340029965921646848E+01   -0.144566882249599593E+01   -0.507724411183731661E+01    0.687666883895890813E+00   -0.279625773553381318E+01   -0.401163955268162731E+01   -0.459481055432006080E+01   -0.746424262463901300E+01    0.288294254928600167E+05
    0.320147957765276999E+03    0.174289859909398103E+03    0.128281687667337874E+01   -0.232883835875077017E+01   -0.578093795919615694E+01    0.483860149026997866E+00   -0.268432140048195400E+01   -0.299880040674066084E+01   -0.763054515107120768E+01   -0.690985739045074432E+01    0.288294408709842610E+05
    0.141313550538214827E+03    0.297773348455430892E+03    0.422189068523110400E+01   -0.116280676670958516E+01   -0.592141167491575438E+01    0.490310703308860285E+00   -0.259981816362583107E+01   -0.291642942810401262E+01   -0.434344919426440601E+01   -0.766286739037197950E+01    0.288295133229625681E+05
    0.141313550538214827E+03    0.297773348455430892E+03    0.422189068523110400E+01   -0.116280676670958516E+01   -0.592141167491575438E+01    0.490310703308860285E+00   -0.259981816362583107E+01   -0.291642942810401262E+01   -0.434344919426440601E+01   -0.766286739037197950E+01    0.288295133229625681E+05
    0.276558795445106796E+03    0.316053780591775933E+03    0.431712040272220055E+01   -0.228997728632734576E+01   -0.390183397275410915E+01    0.659846321232086308E+00   -0.236459444236856520E+01   -0.335008442403320661E+01   -0.620278210809407149E+01   -0.548077762638674670E+01    0.288295175872013351E+05
    0.341592941174278678E+03    0.284366344458471154E+02    0.209448902989052144E+01   -0.225448246044258482E+01   -0.332177170787622744E+01    0.593495891910929108E+00   -0.236421451207703548E+01   -0.296440387788976789E+01   -0.792164394454235321E+01   -0.618695605354735179E+01    0.288295629365916939E+05
    0.341592941174278678E+03    0.284366344458471154E+02    0.209448902989052144E+01   -0.225448246044258482E+01   -0.332177170787622744E+01    0.593495891910929108E+00   -0.236421451207703548E+01   -0.296440387788976789E+01   -0.792164394454235321E+01   -0.618695605354735179E+01    0.288295629365916939E+05
    0.318569156413313067E+03    0.197439282453849813E+03    0.212134514294100995E+01   -0.221289987119474585E+01   -0.386267398799294659E+01    0.644475659308963444E+00   -0.171838891848467412E+01   -0.198656744663074036E+01   -0.458311988048210939E+01   -0.672950562813940145E+01    0.288295711994755329E+05
    0.251244030221758663E+03    0.298844070368189307E+03    0.152408374430936222E+01   -0.230641477252407023E+01   -0.544183375658227320E+01    0.643082608304442860E+00   -0.255155024062905245E+01   -0.358781680089418309E+01   -0.564893532512023011E+01   -0.674100097937637432E+01    0.288296028948971143E+05
    0.244221744704152570E+03    0.257545810398655362E+03    0.217163378737480173E+01   -0.202267047264800137E+01   -0.558223339680186115E+01    0.568477619763964270E+00   -0.242850374569920735E+01   -0.339619417943136703E+01   -0.659745352915544103E+01   -0.605996871715896201E+01    0.288296119771281592E+05
    0.244221744704152570E+03    0.257545810398655362E+03    0.217163378737480173E+01   -0.202267047264800137E+01   -0.558223339680186115E+01    0.568477619763964270E+00   -0.242850374569920735E+01   -0.339619417943136703E+01   -0.659745352915544103E+01   -0.605996871715896201E+01    0.288296119771281592E+05
    0.237139725866381184E+03    0.241145151051402394E+03    0.217817202731359671E+01   -0.167569975727038845E+01   -0.447967175159339170E+01    0.525466022933659960E+00   -0.156756492220338473E+01   -0.178286981336587758E+01   -0.620165780852279447E+01   -0.455819771349121794E+01    0.288296340855789967E+05
    0.361765418607650645E+03    0.297928888804989747E+02    0.210796275799003041E+01   -0.213401995240529541E+01   -0.456794673134895923E+01    0.542390964768623030E+00   -0.100896975798170541E+01   -0.958355306851298216E+00   -0.570927266320022397E+01   -0.543775310367723552E+01    0.288296378047828912E+05
    0.361765418607650645E+03    0.297928888804989747E+02    0.210796275799003041E+01   -0.213401995240529541E+01   -0.456794673134895923E+01    0.542390964768623030E+00   -0.100896975798170541E+01   -0.958355306851298216E+00   -0.570927266320022397E+01   -0.543775310367723552E+01    0.288296378047828912E+05
    0.280333647853584750E+03    0.304791581099941368E+03    0.146688554615365785E+00   -0.218783456823546674E+01   -0.522743992461537488E+01    0.452586493877905116E+00   -0.230397553090318574E+01   -0.184789317041011270E+01   -0.587040872351529863E+01   -0.611485581403424128E+01    0.288296516737357124E+05
    0.322845821630633907E+03    0.197677546169371766E+03    0.289190582447240274E+01   -0.259126685295328940E+01   -0.579920809916375379E+01    0.543491455013316971E+00   -0.158874146660644211E+01   -0.202293676657939159E+01   -0.619022125915870003E+01   -0.713693784439503620E+01    0.288296604225430710E+05
    0.231349923456481037E+03    0.371491679256575424E+03    0.641654872857763792E+00   -0.210833882147843488E+01   -0.423966685662859710E+01    0.685473444634888684E+00   -0.274845494066883145E+01   -0.321916737309624423E+01   -0.523269302048156604E+01   -0.654941529556761903E+01    0.288296948017044197E+05
    0.190648018617487196E+03    0.242309318386218308E+03    0.589021596300448724E+01   -0.123803231751795995E+01   -0.351215687551133193E+01    0.676544904111665235E+00   -0.185053989293523635E+01   -0.229360279011632961E+01   -0.541771501063686856E+01   -0.635701272118209992E+01    0.288297080885422947E+05
    0.294674339900873406E+03    0.215452252062412271E+03    0.169447284634264594E+01   -0.220816201241040977E+01   -0.503452447505441381E+01    0.587103611994885699E+00   -0.258711363504777658E+01   -0.294754912432772009E+01   -0.517166191931440267E+01   -0.703604116997341222E+01    0.288297093722546051E+05
    0.314955754539439624E+03    0.369454618127788990E+03    0.652101841753103706E+00   -0.268415370835173572E+01   -0.523607513247498524E+01    0.566375095002124018E+00   -0.168510909952535570E+01   -0.108049972561513830E+01   -0.331657488606326023E+01   -0.708210423526138300E+01    0.288297214165149198E+05
    0.369036384326574648E+03    0.300796644990198132E+02    0.391735214431459511E+01   -0.261383530120093521E+01   -0.420458178741542099E+01    0.607543057124264263E+00   -0.152915873943197234E+01   -0.246250133006872574E+01   -0.721839477196782120E+01   -0.510331753269280775E+01    0.288297458472758190E+05
    0.327277530397187945E+03    0.391182213094695470E+02    0.539678782115157762E+01   -0.206619095022130317E+01   -0.347526037578037528E+01    0.576809938972498881E+00   -0.154497179249080663E+01   -0.135350293143505596E+01   -0.713256354995436670E+01   -0.544154664744896799E+01    0.288297542717844699E+05
    0.268504933429006030E+03    0.329072706861481663E+03    0.221980557467718853E+01   -0.279793450163749924E+01   -0.515463580483946693E+01    0.658423153896479874E+00   -0.206318788764277894E+01   -0.201496137431800548E+01   -0.479628080482816088E+01   -0.472772757178933301E+01    0.288297761769772769E+05
    0.213135713288027745E+03    0.327316381581502412E+03    0.127173126737627662E+01   -0.161225829102080187E+01   -0.440067459857947973E+01    0.727907807161053633E+00   -0.863327348309294251E+00   -0.164721688102002428E+01   -0.503608593259771276E+01   -0.449428904060740386E+01    0.288298019271214798E+05
    0.316421929735850711E+03    0.460916880820560735E+02    0.406349381464178094E+01   -0.220787445144173766E+01   -0.585999052577130630E+01    0.494434503344739928E+00   -0.177336173258994467E+01   -0.125966192329458426E+01   -0.573149431054989655E+01   -0.548539900829288474E+01    0.288298048094098376E+05
    0.304435752610436509E+03    0.184745772778346065E+03    0.143808239197497256E+01   -0.189702585755838005E+01   -0.375535807835967894E+01    0.579341100790395025E+00   -0.152832549931441442E+01   -0.114900796804847438E+01   -0.722423930569265682E+01   -0.668162061015115150E+01    0.288298158938203705E+05
    0.304435752610436509E+03    0.184745772778346065E+03    0.143808239197497256E+01   -0.189702585755838005E+01   -0.375535807835967894E+01    0.579341100790395025E+00   -0.152832549931441442E+01   -0.114900796804847438E+01   -0.722423930569265682E+01   -0.668162061015115150E+01    0.288298158938203705E+05
    0.320294318795586776E+03    0.138663103094015440E+03    0.946798351545707018E+00   -0.234665536475016667E+01   -0.583313416951244168E+01    0.466537124298525563E+00   -0.195915293899771736E+01   -0.219173813084761715E+01   -0.621516048788322806E+01   -0.559931260370483574E+01    0.288298163463381061E+05
    0.147738553423611336E+03    0.349288999597158295E+03    0.199809079507966558E+00   -0.974626146851073738E+00   -0.598881682617286337E+01    0.442060797093646374E+00   -0.131538903943638008E+01   -0.808721587412994936E+00   -0.480979309011640943E+01   -0.475896798131066490E+01    0.288298254887365438E+05
    0.179723421190897682E+03    0.224127469942927036E+03    0.375423409647861739E+01   -0.114471189418026831E+01   -0.479774829947258041E+01    0.470006596461320925E+00   -0.197960379040847823E+01   -0.211265244671955887E+01   -0.364724147113678487E+01   -0.780454440472008226E+01    0.288298302463392210E+05
    0.179723421190897682E+03    0.224127469942927036E+03    0.375423409647861739E+01   -0.114471189418026831E+01   -0.479774829947258041E+01    0.470006596461320925E+00   -0.197960379040847823E+01   -0.211265244671955887E+01   -0.364724147113678487E+01   -0.780454440472008226E+01    0.288298302463392210E+05
    0.243414450247170407E+03    0.330443699163472672E+03    0.166863260762750354E+01   -0.215239126390204127E+01   -0.461703874669316949E+01    0.710463159497762176E+00   -0.158549356903651084E+01   -0.147311501108758502E+01   -0.496178055250521144E+01   -0.553320897109165788E+01    0.288298331869360482E+05
    0.361168729857888479E+03    0.170365272514470831E+03    0.286338453546572680E+01   -0.268811344980882572E+01   -0.506795221094859816E+01    0.654247169250403271E+00   -0.159597383364865664E+01   -0.132603183701546268E+01   -0.594861615520047682E+01   -0.552263303199333855E+01    0.288298357365376360E+05
    0.361168729857888479E+03    0.170365272514470831E+03    0.286338453546572680E+01   -0.268811344980882572E+01   -0.506795221094859816E+01    0.654247169250403271E+00   -0.159597383364865664E+01   -0.132603183701546268E+01   -0.594861615520047682E+01   -0.552263303199333855E+01    0.288298357365376360E+05
    0.282738454439040879E+03    0.391957393744797344E+03    0.260331028286152488E+01   -0.285064528447140031E+01   -0.417653677622705466E+01    0.674693443666929404E+00   -0.309435695417023560E+01   -0.338541307999156693E+01   -0.492140029852583982E+01   -0.720991207374721288E+01    0.288298493158258025E+05
    0.247413505090337651E+03    0.370914946918726116E+03    0.115306866123069973E+01   -0.207500549134763945E+01   -0.385668320584044055E+01    0.635093745624257133E+00   -0.305214688959920455E+01   -0.349553670265327732E+01   -0.413949168655541477E+01   -0.757708339838364253E+01    0.288298497032226878E+05
    0.247413505090337651E+03    0.370914946918726116E+03    0.115306866123069973E+01   -0.207500549134763945E+01   -0.385668320584044055E+01    0.635093745624257133E+00   -0.305214688959920455E+01   -0.349553670265327732E+01   -0.413949168655541477E+01   -0.757708339838364253E+01    0.288298497032226878E+05
    0.168013660868843544E+03    0.256963688093183805E+03    0.422058849620948440E+01   -0.141503080185836394E+01   -0.589804708619631324E+01    0.551423317705439175E+00   -0.181760433151787026E+01   -0.275458883448069614E+01   -0.419105862328748735E+01   -0.707264222003541754E+01    0.288298903601366328E+05
    0.218483210009717482E+03    0.313612508637746657E+03    0.573835493957965515E+00   -0.147281093163844057E+01   -0.514739693997214953E+01    0.510924741616173739E+00   -0.904822570572694218E+00   -0.122975711490619233E+01   -0.223159197094646711E+01   -0.607261586004670306E+01    0.288298976461132806E+05
    0.258775768489228540E+03    0.276652887687979785E+03    0.415193435667064747E+01   -0.191853995628463081E+01   -0.384602848358329075E+01    0.748204586946370931E+00   -0.111419724200649561E+01   -0.159551663487308204E+01   -0.607713089420134889E+01   -0.546921208242439860E+01    0.288298997841288110E+05
    0.337468803030735558E+03    0.212390733184193948E+03    0.297795848383008988E+01   -0.252781778103800425E+01   -0.487805935140402003E+01    0.560726183899359354E+00   -0.138622225856598558E+01   -0.168973635545907896E+01   -0.455348835315421496E+01   -0.405711873674740886E+01    0.288299272326262872E+05
    0.213836151167148159E+03    0.284987950228034549E+03    0.347621830325023140E+01   -0.187395696191529493E+01   -0.549581117706430256E+01    0.614718063541247250E+00   -0.206230744054792492E+01   -0.129278706295623280E+01   -0.513290334804729653E+01   -0.458377914809607212E+01    0.288299393278201533E+05
    0.315805836834640900E+03    0.338681491686392519E+03    0.431075508576793442E+00   -0.292435847651552594E+01   -0.502029908942466463E+01    0.689832495677363489E+00   -0.130615402277640236E+01   -0.244988447277740473E+01   -0.367248184212934081E+01   -0.515524336562349283E+01    0.288299413677298544E+05
    0.221209621337103925E+03    0.233111177430259005E+03    0.468881253367142392E+01   -0.170910066530837357E+01   -0.559263458185894713E+01    0.597724977465929230E+00   -0.129048858084773510E+01   -0.139944086558846870E+01   -0.445984948817463156E+01   -0.564320789907981712E+01    0.288299696243614089E+05
    0.291836520207418971E+03    0.307578950582792345E+03    0.102063433437174966E+01   -0.254630577355645249E+01   -0.571423288244634708E+01    0.532307210764444316E+00   -0.170782094478617719E+01   -0.200401488400152417E+01   -0.549991027370190277E+01   -0.673716747275105554E+01    0.288299769830674195E+05
    0.376181176207124508E+03    0.138298553851797180E+03    0.356250827260995706E+01   -0.251090796857286191E+01   -0.321136518727463205E+01    0.667381921326826610E+00   -0.232533606942908921E+01   -0.202308649055942524E+01   -0.677203360872061388E+01   -0.620628448504950292E+01    0.288299798563027834E+05
    0.376413965336748163E+03    0.985873075308845017E+02    0.307748485400985938E+01   -0.276385580257917152E+01   -0.481622271147413450E+01    0.614242914245633376E+00   -0.142956846554536465E+01   -0.146458301729445584E+01   -0.599994606877021752E+01   -0.490024432844401581E+01    0.288299938860564689E+05
    0.376413965336748163E+03    0.985873075308845017E+02    0.307748485400985938E+01   -0.276385580257917152E+01   -0.481622271147413450E+01    0.614242914245633376E+00   -0.142956846554536465E+01   -0.146458301729445584E+01   -0.599994606877021752E+01   -0.490024432844401581E+01    0.288299938860564689E+05
    0.160992105707956682E+03    0.364889172142450604E+03    0.855459127085182569E+00   -0.127567273246623736E+01   -0.358545137006664749E+01    0.649211897062299759E+00   -0.234724597926904099E+01   -0.319261901142779347E+01   -0.502468935899806723E+01   -0.632405709894917489E+01    0.288300112310112963E+05
    0.160992105707956682E+03    0.364889172142450604E+03    0.855459127085182569E+00   -0.127567273246623736E+01   -0.358545137006664749E+01    0.649211897062299759E+00   -0.234724597926904099E+01   -0.319261901142779347E+01   -0.502468935899806723E+01   -0.632405709894917489E+01    0.288300112310112963E+05
    0.269914666968057645E+03    0.329187615336163446E+03    0.266896020673033085E+01   -0.259698199188647294E+01   -0.476412902715233155E+01    0.694839582252062660E+00   -0.200615038444102556E+01   -0.207451967681400973E+01   -0.672285969357757462E+01   -0.689877972594375688E+01    0.288300316325471904E+05
    0.149566943255852379E+03    0.296573973939271809E+03    0.195479470238828368E+01   -0.132015141988253903E+01   -0.583654002005564809E+01    0.555285593237326958E+00   -0.185628322444747607E+01   -0.237158424973151671E+01   -0.425278962923618131E+01   -0.499943175368531811E+01    0.288300502023704430E+05
    0.221858026052794116E+03    0.408418228898474069E+03    0.623360127130354158E+00   -0.209649188954315413E+01   -0.492385631869363571E+01    0.624062894275151825E+00   -0.115129953497896764E+01   -0.991009731100680469E+00   -0.523470482956441696E+01   -0.508900589505221124E+01    0.288300685289059329E+05
    0.306544578958382601E+03    0.272319562445530948E+03    0.252815009036620708E+01   -0.240296459808806251E+01   -0.472889714573604358E+01    0.657202604553373426E+00   -0.101501208047002489E+01   -0.210603814945798806E+01   -0.589513846613080883E+01   -0.493444028600706908E+01    0.288300815019729780E+05
    0.248939250101555956E+03    0.374171358541835161E+03    0.136133274278455385E+01   -0.249268980531164530E+01   -0.520210822725356792E+01    0.607570810757084523E+00   -0.164451022566876670E+01   -0.119321566196478646E+01   -0.692184370002748484E+01   -0.418379690620009548E+01    0.288300899434681705E+05
    0.368601216265489654E+03    0.353871181544255364E+02    0.177237094637235737E+01   -0.217173231116152454E+01   -0.458046256426093379E+01    0.514296746064319299E+00   -0.837315541311763667E+00   -0.104477560889243914E+01   -0.790438229931812231E+01   -0.626858504334193345E+01    0.288301033970854187E+05
    0.368601216265489654E+03    0.353871181544255364E+02    0.177237094637235737E+01   -0.217173231116152454E+01   -0.458046256426093379E+01    0.514296746064319299E+00   -0.837315541311763667E+00   -0.104477560889243914E+01   -0.790438229931812231E+01   -0.626858504334193345E+01    0.288301033970854187E+05
    0.293735098705327857E+03    0.349521576458772643E+03    0.155540908620179774E+01   -0.270326995616092436E+01   -0.541061328733958735E+01    0.613970853152599916E+00   -0.229583007258710392E+01   -0.110875335231528904E+01   -0.746898598188560836E+01   -0.717524859657113545E+01    0.288301094541499988E+05
    0.310515037128133599E+03    0.368179939805939568E+03    0.313438965439906347E+01   -0.280485702303879103E+01   -0.393390915183901235E+01    0.686993554770509718E+00   -0.293722506771585579E+01   -0.367668036770872053E+01   -0.612437925103004766E+01   -0.647416387959645512E+01    0.288301323476040416E+05
    0.276278922763839830E+03    0.273527850355980036E+03    0.472984108067273290E+01   -0.202384615377844224E+01   -0.415195373517087951E+01    0.622641957833859783E+00   -0.127322686245584915E+01   -0.132003070675424450E+01   -0.703273754470981771E+01   -0.692075885151866466E+01    0.288301442428086157E+05
    0.330795640293233760E+03    0.154008079963950166E+03    0.360286236825764217E+01   -0.224573405909584167E+01   -0.360612137818475631E+01    0.650727410094392056E+00   -0.176818544207511597E+01   -0.200462847633158070E+01   -0.795526185831832233E+01   -0.627553606349292981E+01    0.288301580990287111E+05
    0.392532968504789437E+03    0.593034271633739465E+02    0.104610743976723741E+01   -0.278222349424504278E+01   -0.388095221908639676E+01    0.684159885140405599E+00   -0.192568072776814780E+01   -0.261297130850771886E+01   -0.636270073280522830E+01   -0.544604094071894806E+01    0.288301647717163651E+05
    0.257004253491310010E+03    0.310683080963663656E+03    0.124985118016154839E+01   -0.186895853814099833E+01   -0.315999469055317661E+01    0.715065053939786255E+00   -0.192560754857553551E+01   -0.186578821091815161E+01   -0.485526364763071516E+01   -0.757063031883455473E+01    0.288301935556077187E+05
    0.305830228793453216E+03    0.316576793023216567E+03    0.302797715832541670E+01   -0.260925710848572256E+01   -0.508630350390937913E+01    0.595733245847485771E+00   -0.174502892120561359E+01   -0.119595048486102851E+01   -0.797233349020048543E+01   -0.662720983931204799E+01    0.288302178648157605E+05
    0.242494968770201211E+03    0.353357240296406076E+03    0.107677962814575068E+01   -0.245233831378146139E+01   -0.552130945226713976E+01    0.622007604520881219E+00   -0.184729113951959611E+01   -0.128058170939496385E+01   -0.555792070674488148E+01   -0.424483370673649141E+01    0.288302233019423511E+05
    0.342291261304877139E+03    0.209548338175101492E+03    0.938844918052422095E+00   -0.281996997766609336E+01   -0.590814314254323936E+01    0.637664353222356595E+00   -0.152467069777350694E+01   -0.155238721566702420E+01   -0.703128240112920277E+01   -0.647388240722246433E+01    0.288302401443708113E+05
    0.330250209469720687E+03    0.216918164130170794E+03    0.507190298812339968E+01   -0.269244853837002651E+01   -0.516837824828508463E+01    0.629701721881068321E+00   -0.245685193416536762E+01   -0.325932797426479315E+01   -0.651951074021234334E+01   -0.595480128552842736E+01    0.288302630409549347E+05
    0.298197076984843932E+03    0.171525421162185694E+03    0.430866357664556610E+01   -0.206629584693590251E+01   -0.537031602675968855E+01    0.572960649610988249E+00   -0.152194850977591134E+01   -0.111336556085972571E+01   -0.775160531231709005E+01   -0.729824464636062409E+01    0.288302676021048683E+05
    0.284662417054911316E+03    0.297469128824918698E+03    0.406865819200638690E+01   -0.225473346749208270E+01   -0.431768097663287875E+01    0.612427409925391575E+00   -0.175982729215971290E+01   -0.129077618432373953E+01   -0.552013282486399959E+01   -0.653588453018340765E+01    0.288302758570417463E+05
    0.280555959329085795E+03    0.363839077926679465E+03    0.310094379369489914E-01   -0.218929356972928657E+01   -0.403823669545916442E+01    0.702360088077942479E+00   -0.126839857132529499E+01   -0.904046268089312655E+00   -0.536429605551034605E+01   -0.464923932964500608E+01    0.288302975895664931E+05
    0.225219996382871898E+03    0.238976233763025562E+03    0.685497939609159168E+00   -0.154973365343630820E+01   -0.467967753166936351E+01    0.481680554065573308E+00   -0.232204807005904179E+01   -0.269239858882365368E+01   -0.624621176633008623E+01   -0.690156374700240693E+01    0.288303280755060405E+05
    0.307914864406461277E+03    0.182421674337376402E+03    0.452574794089556498E+01   -0.200832745084592590E+01   -0.401664886800224963E+01    0.638014772949591635E+00   -0.142412510369369905E+01   -0.115743363598225368E+01   -0.770496708861865631E+01   -0.609331302340633574E+01    0.288303681114353058E+05
    0.253211478806526571E+03    0.317396623754219775E+03    0.335331829997536701E+01   -0.216728964995665407E+01   -0.430319220216930987E+01    0.755129256779467184E+00   -0.121047017820846659E+01   -0.139487379026607528E+01   -0.312814375988628512E+01   -0.472340463109331665E+01    0.288303692671185709E+05
    0.344083466755004338E+03    0.199877370324905854E+03    0.385662453022919305E+01   -0.267006542946577730E+01   -0.546082542107903190E+01    0.523349531601736029E+00   -0.163448216552877668E+01   -0.207694055514983678E+01   -0.662095545816500586E+01   -0.600468263666713220E+01    0.288303925225126004E+05
    0.260685995544900095E+03    0.397667064430743039E+03    0.585866829820023582E+00   -0.243055962371191070E+01   -0.415281191318931064E+01    0.670074223861732987E+00   -0.304150238275333162E+01   -0.342631935985880443E+01   -0.682956525903162603E+01   -0.676667166706376388E+01    0.288304072103165490E+05
    0.218943008285469887E+03    0.244922517559094132E+03    0.116498161534246769E+01   -0.160557622777173248E+01   -0.546533192285757607E+01    0.486703121652656057E+00   -0.225217497739611083E+01   -0.195184960669188090E+01   -0.768050881356226078E+01   -0.627853132967369021E+01    0.288304147815614269E+05
    0.291847130512153115E+03    0.323598616313916011E+03    0.195520004940093628E+01   -0.229929425012916377E+01   -0.374911906009742379E+01    0.722536780638013743E+00   -0.195732238806864434E+01   -0.155393512726840299E+01   -0.555984751842990832E+01   -0.610787751710735716E+01    0.288304336067544500E+05
    0.149137776608575479E+03    0.328373814713595493E+03    0.140052138285266992E+01   -0.119235029285359873E+01   -0.587000310439272877E+01    0.527016049735615888E+00   -0.135776635616743846E+01   -0.123673295695936503E+01   -0.523357121623115695E+01   -0.580300156656280031E+01    0.288304399839007310E+05
    0.249358976209782639E+03    0.264147382296615604E+03    0.296789024517716893E+01   -0.179033516055838726E+01   -0.360522187593945942E+01    0.657401242101671501E+00   -0.193432256918766043E+01   -0.229277371180914624E+01   -0.614026063701446922E+01   -0.754443702844885067E+01    0.288304494557553626E+05
    0.322880339578979431E+03    0.223244850255032333E+03    0.784756920791586765E+00   -0.229343895910827289E+01   -0.425153934350955343E+01    0.604421874197240472E+00   -0.143653595480681329E+01   -0.179214198633408817E+01   -0.758234932365862058E+01   -0.693952815807163326E+01    0.288304838947028366E+05
    0.237352221029573201E+03    0.288583210020012018E+03    0.519348408148638718E+01   -0.200791804195417267E+01   -0.450563035177127880E+01    0.653214464677984052E+00   -0.147176437332020349E+01   -0.161010783547033309E+01   -0.480940052145230457E+01   -0.425750584683810551E+01    0.288305349016677610E+05
    0.367624189304144409E+03    0.196559897014212339E+03    0.436163047394054892E+01   -0.276597946562815356E+01   -0.519436183819529873E+01    0.514127970519879907E+00   -0.241788033768288724E+01   -0.209088254145023367E+01   -0.796883645243978211E+01   -0.730550257113750590E+01    0.288305434568370656E+05
    0.223499542702683641E+03    0.299257100507659800E+03    0.322356962965162186E+01   -0.196689083920574537E+01   -0.515132687230283537E+01    0.603223161907244343E+00   -0.176816837696280427E+01   -0.160779981583444087E+01   -0.785321137119792123E+01   -0.614423492259909398E+01    0.288305450709427678E+05
    0.314199648295857685E+03    0.200076202482542158E+03    0.206909168372573760E+01   -0.235802436500947987E+01   -0.516874342959135191E+01    0.577022212336307794E+00   -0.216293968682635906E+01   -0.189798147474518863E+01   -0.784944177180149083E+01   -0.718919214425080089E+01    0.288305492431095663E+05
    0.366975162572509305E+03    0.215393218131587446E+03    0.426735363069517515E+01   -0.294736944590079109E+01   -0.480113933869477716E+01    0.723119819922479978E+00   -0.124507405397145909E+01   -0.192990603330250110E+01   -0.693726214178018807E+01   -0.591996251535202944E+01    0.288305536304573798E+05
    0.265875464788935858E+03    0.238245457380317134E+03    0.132901913631115898E+01   -0.178480293942691559E+01   -0.416552310324432717E+01    0.539257307333098845E+00   -0.164640591594938623E+01   -0.139626911144594867E+01   -0.622808056118923048E+01   -0.721061109619116714E+01    0.288305932956535071E+05
    0.235660579256144416E+03    0.273972495918466734E+03    0.386622738296248514E+01   -0.165919047211480075E+01   -0.362284218901955146E+01    0.757355990827456527E+00   -0.151623340428629927E+01   -0.129383249073384476E+01   -0.540097700550875359E+01   -0.575552832083004251E+01    0.288306071574568377E+05
    0.144786232667093770E+03    0.275361744288790533E+03    0.279359311983781566E+01   -0.805074721788389791E+00   -0.579366395299418979E+01    0.491843306971505856E+00   -0.138191891754809415E+01   -0.110203628407705256E+01   -0.383200712153157141E+01   -0.704969699513836723E+01    0.288306098921825542E+05
    0.194036809989157803E+03    0.274644458618029887E+03    0.367486233667493600E+01   -0.109452620003209367E+01   -0.516912298525349989E+01    0.634115753743465183E+00   -0.117874670237056822E+01   -0.780664249794598142E+00   -0.381730402076120079E+01   -0.661551452281773855E+01    0.288306191881094201E+05
    0.229747994520393235E+03    0.287019315736459987E+03    0.324183374120221046E+01   -0.191203250398907110E+01   -0.510762285572584229E+01    0.566295811016781614E+00   -0.212797754187446131E+01   -0.170096796348585144E+01   -0.448346082644148947E+01   -0.563078321352583089E+01    0.288306264873368054E+05
    0.227228488679494802E+03    0.367540978266273328E+03    0.623930413144900609E+00   -0.218848622245224966E+01   -0.463452809324843429E+01    0.615807065112790486E+00   -0.159816933537903250E+01   -0.176589993385902844E+01   -0.361006614897095357E+01   -0.499537546490606310E+01    0.288306308576548618E+05
    0.270174192372078494E+03    0.277766366227598496E+03    0.187716575532899643E+01   -0.200596286523875289E+01   -0.465097122805522645E+01    0.644762423659330230E+00   -0.132275640077299173E+01   -0.122233882281131034E+01   -0.259433455229078902E+01   -0.771773237169072956E+01    0.288306634106508354E+05
    0.182751504885384151E+03    0.290974295209793013E+03    0.108420929396131527E+01   -0.143668316706658095E+01   -0.539475533396315576E+01    0.521091939279701766E+00   -0.181878370402250855E+01   -0.180902748784577927E+01   -0.535187802151887126E+01   -0.585833953257252649E+01    0.288306700236870311E+05
    0.350459803507789957E+03    0.222252349000735620E+03    0.127701904712155123E+01   -0.267332027550927487E+01   -0.548224162849099184E+01    0.499949842921289300E+00   -0.246166151848986647E+01   -0.252892225408804272E+01   -0.738947985805237550E+01   -0.637002036193284482E+01    0.288306876336565947E+05
    0.225013398474379784E+03    0.298280709974407443E+03    0.298275534002299825E+01   -0.172374423074493222E+01   -0.374428278420077065E+01    0.718004783576109196E+00   -0.201478345802194525E+01   -0.173280357710800281E+01   -0.792638891451952343E+01   -0.645898935366500737E+01    0.288306901753703933E+05
    0.228070261172178078E+03    0.294700315943432088E+03    0.406072810217689373E+00   -0.155317857013782934E+01   -0.461942306525159285E+01    0.495320408078764873E+00   -0.168700496883360085E+01   -0.111383050777658621E+01   -0.667645490943449538E+01   -0.646391497186164621E+01    0.288307077665480319E+05
    0.296717923188803638E+03    0.306161383207061249E+03    0.120441071395448329E+01   -0.264879886613315385E+01   -0.551092307688385752E+01    0.609982500444600007E+00   -0.138777274171054454E+01   -0.154412409227113567E+01   -0.349520303479003847E+01   -0.549824648357059864E+01    0.288307179196036632E+05
    0.235734731560431271E+03    0.280841750092199277E+03    0.465813530599862080E+00   -0.184835633320471127E+01   -0.542811892493620629E+01    0.509076829410510356E+00   -0.239205613165795405E+01   -0.235553963537268451E+01   -0.548006826369703237E+01   -0.695818536057972459E+01    0.288307227831991622E+05
    0.381625320056925773E+03    0.102669482395280681E+03   -0.119330972486644260E-01   -0.256711635002513594E+01   -0.375332731768157801E+01    0.596222961567246079E+00   -0.270032337887222695E+01   -0.297512163322127865E+01   -0.562081385579921111E+01   -0.724089962112659613E+01    0.288307282393956448E+05
    0.243960305521837427E+03    0.293000820622707920E+03    0.289076299919161883E+01   -0.184417599415107758E+01   -0.500000836103414148E+01    0.566531243140429241E+00   -0.976339581557923886E+00   -0.139928473870233372E+01   -0.267506582676803362E+01   -0.556394189519878513E+01    0.288307284348824760E+05
    0.286391196889801051E+03    0.256397147920847431E+03    0.193133978311445631E+01   -0.240255175014558375E+01   -0.533934629864961785E+01    0.616171579121586266E+00   -0.197919891599568398E+01   -0.201981954287225207E+01   -0.519925376833311059E+01   -0.652853884285555086E+01    0.288307295288201167E+05
    0.401655983817715310E+03    0.174354752893817505E+03    0.476652435568584831E+00   -0.298940870845519457E+01   -0.452782109798783239E+01    0.605155969898828472E+00   -0.213213741843922122E+01   -0.181050296887407480E+01   -0.599204620778200692E+01   -0.637339374611424603E+01    0.288307334134165976E+05
    0.126057706338109398E+03    0.328410791562389477E+03    0.177567832602245712E+01   -0.574153197622094602E+00   -0.428765142414447276E+01    0.595332751226959500E+00   -0.133781224864269443E+01   -0.106129242566827653E+01   -0.342904295446504115E+01   -0.504988391350384980E+01    0.288307398920152336E+05
    0.324030265781197045E+03    0.933954689054116045E+02    0.218394331038233958E+01   -0.218672234248085573E+01   -0.417779363927294689E+01    0.541046346580836501E+00   -0.206410009681925999E+01   -0.188304266094325978E+01   -0.722842517205461821E+01   -0.758779898612539938E+01    0.288307588866282385E+05
    0.281974893843256268E+03    0.309270589874437405E+03    0.161928237424523669E+01   -0.284004962956946994E+01   -0.576434474919303330E+01    0.635805320942694818E+00   -0.149471670388316014E+01   -0.204058908827553243E+01   -0.501846724326904603E+01   -0.488266379225164560E+01    0.288307626107994329E+05
    0.295662221160042861E+03    0.332140637163795247E+03    0.133077406282492561E+01   -0.244223681654483737E+01   -0.421697467955960459E+01    0.692546238395272851E+00   -0.209543557531922353E+01   -0.142270151009829959E+01   -0.514760549603900586E+01   -0.724918440960752797E+01    0.288307813424149535E+05
    0.336909297803167703E+03    0.492585843593497330E+02    0.129909293003580384E+01   -0.238784900866960559E+01   -0.508355488192707483E+01    0.540072922050435333E+00   -0.193788547016617763E+01   -0.151330796752384344E+01   -0.706724806019254537E+01   -0.657162278790823429E+01    0.288307972444683510E+05
    0.329717688903519672E+03    0.230805699149382178E+03    0.495398200303783742E+01   -0.279768071620042758E+01   -0.566328476731175279E+01    0.640379850490339964E+00   -0.153167589595173759E+01   -0.127960498710084014E+01   -0.601279302906571544E+01   -0.589208182397071312E+01    0.288307983408156942E+05
    0.201408404035874213E+03    0.299871768024040534E+03    0.563718093023509059E+01   -0.159298989771589516E+01   -0.429036753329924903E+01    0.753225754634324174E+00   -0.135625650171714263E+01   -0.117181224491975122E+01   -0.487581106640357120E+01   -0.579635414132180848E+01    0.288308026156159649E+05
    0.352264629253720443E+03    0.127014428629013565E+03    0.118551223866463662E+01   -0.248414286143239593E+01   -0.503153685937942630E+01    0.550869848883242530E+00   -0.127935452616354528E+01   -0.150339441810753360E+01   -0.660164621824514875E+01   -0.754428892430211118E+01    0.288308177881587071E+05
    0.169101626829251217E+03    0.344222707348322331E+03    0.152787546841149746E+01   -0.102793553462219389E+01   -0.479918958289795761E+01    0.555138103116929238E+00   -0.119488069863327873E+01   -0.897765721244092596E+00   -0.525621359764813523E+01   -0.619553722316908750E+01    0.288308215441556094E+05
    0.318441059322582078E+03    0.226719135580115250E+03    0.396817599085295569E+01   -0.238310356496531428E+01   -0.467016856432781946E+01    0.560868577471599350E+00   -0.163464484298339752E+01   -0.159015373769166946E+01   -0.468811964363109368E+01   -0.562381319473083785E+01    0.288311587573675279E+05
    0.238794326682001383E+03    0.304941085525333733E+03    0.130335314567992100E+01   -0.190903544402181446E+01   -0.420903570182528686E+01    0.656358339538783087E+00   -0.175949747915604604E+01   -0.182670833030044566E+01   -0.701155310377090224E+01   -0.666037015648196196E+01    0.288314028668784667E+05
    0.275311938965412935E+03    0.328652301260131310E+03    0.124758565914637565E+01   -0.256759167566466795E+01   -0.513146189312984990E+01    0.625482633143256139E+00   -0.192914070119156555E+01   -0.219732832557947066E+01   -0.472377308108030292E+01   -0.662329116697920384E+01    0.288312134187369520E+05
    0.375893470768338318E+03    0.110096646671349006E+03    0.226809378634303460E+01   -0.260528087657360619E+01   -0.427957644664974612E+01    0.585236494782426453E+00   -0.194228814856086007E+01   -0.149293537838427515E+01   -0.793862279207434174E+01   -0.643018904035777084E+01    0.288312510000462498E+05
    0.404491461928508329E+03    0.217399105882808819E+01    0.193398977715828391E+01   -0.291611697943468462E+01   -0.447031596104526585E+01    0.592806292975653903E+00   -0.215660277576044201E+01   -0.180072143994862888E+01   -0.687802830798266385E+01   -0.578487034833898139E+01    0.288310830260056318E+05
    0.362146567055900618E+03    0.207098794040332109E+03    0.241054043204846025E+01   -0.277362392209318642E+01   -0.465521717680573843E+01    0.646782899199787598E+00   -0.191455702003090522E+01   -0.204152095436536918E+01   -0.649237320780414429E+01   -0.764900265045268934E+01    0.288315886941619101E+05
    0.324266542824436385E+03    0.312776550775975977E+03    0.779351415657210111E-01   -0.276097032922069641E+01   -0.489903536777628279E+01    0.638489011348827074E+00   -0.152764219651514210E+01   -0.213397952438851490E+01   -0.590061671730345250E+01   -0.583892640159498910E+01    0.288309746848344148E+05
    0.362609664604278237E+03    0.215521621943057710E+03    0.989655705038508859E+00   -0.293690736908229866E+01   -0.577129975667704986E+01    0.574349696892269668E+00   -0.256159983267222202E+01   -0.299307116484753255E+01   -0.584855433764944177E+01   -0.715376853238220889E+01    0.288309766690461802E+05
    0.378899263715571237E+03    0.272334055674614319E+03    0.158507344653076920E+00   -0.297884486662097592E+01   -0.469319837442122090E+01    0.650975594128280211E+00   -0.178305747200467124E+01   -0.160738040448197594E+01   -0.653496940083618583E+01   -0.680298027520637660E+01    0.288317600720007285E+05
    0.378899263715571237E+03    0.272334055674614319E+03    0.158507344653076920E+00   -0.297884486662097592E+01   -0.469319837442122090E+01    0.650975594128280211E+00   -0.178305747200467124E+01   -0.160738040448197594E+01   -0.653496940083618583E+01   -0.680298027520637660E+01    0.288317600720007285E+05
    0.383537474338901063E+03    0.107453088411662321E+03    0.341025530471055482E+01   -0.292055464883090110E+01   -0.526718133329486271E+01    0.591550916409412153E+00   -0.189505005891114742E+01   -0.149217103368998227E+01   -0.523432391308461398E+01   -0.789379375895636137E+01    0.288316753926584752E+05
    0.383537474338901063E+03    0.107453088411662321E+03    0.341025530471055482E+01   -0.292055464883090110E+01   -0.526718133329486271E+01    0.591550916409412153E+00   -0.189505005891114742E+01   -0.149217103368998227E+01   -0.523432391308461398E+01   -0.789379375895636137E+01    0.288316753926584752E+05
    0.306699594041400985E+03    0.238307272235751043E+03    0.317457045290492701E+01   -0.229586435935920008E+01   -0.495872193649446835E+01    0.538620194170503441E+00   -0.172762370075475236E+01   -0.141552212063578509E+01   -0.745269706131122422E+01   -0.529397339482238038E+01    0.288311845108635825E+05
    0.237828605161856302E+03    0.271156207388647715E+03    0.440044675683834186E+01   -0.183513194191363516E+01   -0.413135673007265591E+01    0.614977134131612369E+00   -0.214596314439864955E+01   -0.250749833543749556E+01   -0.606982624771237145E+01   -0.671001382451044215E+01    0.288310466358015183E+05
    0.330465079653353257E+03    0.290207969694881513E+03    0.717230788586895596E+00   -0.267273082649017368E+01   -0.541433656760415882E+01    0.554506537009680334E+00   -0.203698031167913829E+01   -0.143197104623863503E+01   -0.799221607512200016E+01   -0.604093836014514896E+01    0.288311552008845829E+05
    0.350539985567108090E+03    0.218520590777535404E+03    0.303293919097581988E+01   -0.266674343837604377E+01   -0.444413401260011121E+01    0.651619641492828361E+00   -0.173103384823284046E+01   -0.202055463596351181E+01   -0.660652399737175067E+01   -0.581961867832743529E+01    0.288313346793873061E+05
    0.369377676184749873E+03    0.205179318075258863E+03    0.240398052826894837E+01   -0.266461617062974554E+01   -0.441380516688905544E+01    0.606603256385515710E+00   -0.212895050517342721E+01   -0.144630710621327996E+01   -0.784843560469069512E+01   -0.620271546283189146E+01    0.288308946863707752E+05
    0.312779654116676568E+03    0.272356641071560375E+03    0.292495338925636172E+01   -0.248169836810402256E+01   -0.489753172062371078E+01    0.613544918070737411E+00   -0.198411323389045791E+01   -0.133736376913515365E+01   -0.481124238622882583E+01   -0.659659420083245429E+01    0.288314266865234458E+05
    0.312779654116676568E+03    0.272356641071560375E+03    0.292495338925636172E+01   -0.248169836810402256E+01   -0.489753172062371078E+01    0.613544918070737411E+00   -0.198411323389045791E+01   -0.133736376913515365E+01   -0.481124238622882583E+01   -0.659659420083245429E+01    0.288314266865234458E+05
    0.381847583122206061E+03    0.173788542897231537E+03    0.354517697371875862E+01   -0.296816783145917640E+01   -0.495856711807113903E+01    0.617739852260508204E+00   -0.215731671828877758E+01   -0.218875362097016968E+01   -0.706607863969796579E+01   -0.762411372032112311E+01    0.288317856924911466E+05
    0.381847583122206061E+03    0.173788542897231537E+03    0.354517697371875862E+01   -0.296816783145917640E+01   -0.495856711807113903E+01    0.617739852260508204E+00   -0.215731671828877758E+01   -0.218875362097016968E+01   -0.706607863969796579E+01   -0.762411372032112311E+01    0.288317856924911466E+05
    0.322664070056939352E+03    0.281054235718911912E+03    0.135053564551231187E+01   -0.270435388108012997E+01   -0.533113735303047953E+01    0.578176112860798175E+00   -0.222222517578191692E+01   -0.191010852071946857E+01   -0.657636167394866344E+01   -0.596218289651925915E+01    0.288313868271255124E+05
    0.373926946994846617E+03    0.105849260011989330E+03    0.172230238130264901E+01   -0.267638101631902359E+01   -0.506395678697489782E+01    0.548299543941381140E+00   -0.122522903234411373E+01   -0.152579543510147264E+01   -0.683596357301215996E+01   -0.763089359322517957E+01    0.288312176689972657E+05
    0.386995961984037820E+03    0.135259201603520836E+03    0.169714257172695682E+01   -0.290412757957474010E+01   -0.506094219378651378E+01    0.551414182539851971E+00   -0.229067616291523990E+01   -0.197688010400226588E+01   -0.510488420936335974E+01   -0.697789800124724113E+01    0.288309686222655582E+05
    0.246222142378757667E+03    0.343955007177847108E+03    0.246878682541515460E+01   -0.235450764267715940E+01   -0.461704539879547049E+01    0.670204987745642078E+00   -0.152687226037638890E+01   -0.161604482824717532E+01   -0.367573851787248973E+01   -0.595625827001219754E+01    0.288310451112569062E+05
    0.141162136586554340E+03    0.329026991623783374E+03    0.189606576061041121E+01   -0.113624023911915994E+01   -0.539397149492138972E+01    0.597460981366955579E+00   -0.112550243430311170E+01   -0.152919432221450968E+01   -0.521598007325099378E+01   -0.469082885840264296E+01    0.288312146054767654E+05
    0.294310712524453322E+03    0.328302391461664627E+03    0.443867098223689105E+01   -0.270481019022603375E+01   -0.497977461067708660E+01    0.712692837770037557E+00   -0.954507105193916239E+00   -0.134652635842585244E+01   -0.638783506914002874E+01   -0.506440844988481054E+01    0.288314991997319521E+05
    0.157300486687721843E+03    0.317886487047408991E+03    0.367278638925158418E+01   -0.126571572194175808E+01   -0.585172749805907344E+01    0.569270534275672979E+00   -0.155801184901812384E+01   -0.100216545879450614E+01   -0.375998706084712886E+01   -0.600536110277103585E+01    0.288314628472635814E+05
    0.139104364158287950E+03    0.304035413577066606E+03    0.371445987126004784E+01   -0.128923688614706800E+01   -0.575230460655661346E+01    0.643354423430451905E+00   -0.149053787940706162E+01   -0.131115470633933739E+01   -0.395333124802864955E+01   -0.567701786443134004E+01    0.288309371675035145E+05
    0.202887180495698317E+03    0.285043543332943386E+03    0.464121843366698794E+01   -0.149509281934403138E+01   -0.433007427143664092E+01    0.696808505721935978E+00   -0.123264425371367103E+01   -0.132814656283475596E+01   -0.718980847874611939E+01   -0.544536946701606972E+01    0.288310365187184070E+05
    0.202580043073663120E+03    0.259356362499618399E+03    0.427734826349218089E+01   -0.132860438400283210E+01   -0.548664946816163912E+01    0.594654393967934070E+00   -0.970885296075543636E+00   -0.108748424200692817E+01   -0.488026608981642074E+01   -0.582266652947680186E+01    0.288310605859002026E+05
    0.274265664260406822E+03    0.316105500019043518E+03    0.505424469142723876E+01   -0.229966527491811146E+01   -0.519914358963065570E+01    0.639878986191931398E+00   -0.996516877134604684E+00   -0.107992855058043169E+01   -0.517920619006343053E+01   -0.474305960279626326E+01    0.288314168082530960E+05
    0.145259413856119920E+03    0.289709785518079570E+03    0.458813166911275427E+01   -0.760024370313942210E+00   -0.417062820481070951E+01    0.660979568731171585E+00   -0.159595706345189647E+01   -0.110020775671407378E+01   -0.634983106950142240E+01   -0.534738624051858391E+01    0.288309356595962308E+05
    0.138651262964430970E+03    0.338160572453861107E+03    0.350141312496219648E+01   -0.113497171005298636E+01   -0.537563582692107289E+01    0.655171824469399033E+00   -0.109031535027293458E+01   -0.120163484348817118E+01   -0.251515037929741769E+01   -0.459013533161181364E+01    0.288311039557165459E+05
    0.224317699018751398E+03    0.287795254995211678E+03    0.459100876783924150E+01   -0.197328571523740925E+01   -0.506307530072218359E+01    0.646374513218137103E+00   -0.165844608257978532E+01   -0.130795152105547707E+01   -0.705543185974329834E+01   -0.647045112913851295E+01    0.288320524586668325E+05
    0.224317699018751398E+03    0.287795254995211678E+03    0.459100876783924150E+01   -0.197328571523740925E+01   -0.506307530072218359E+01    0.646374513218137103E+00   -0.165844608257978532E+01   -0.130795152105547707E+01   -0.705543185974329834E+01   -0.647045112913851295E+01    0.288320524586668325E+05
    0.236883533684514020E+03    0.267180865797394176E+03    0.402566375240295393E+01   -0.157722554293930495E+01   -0.408503115564890074E+01    0.685759377079630195E+00   -0.114789951164637305E+01   -0.113099054944575617E+01   -0.668383386093450582E+01   -0.586148589163335565E+01    0.288313663151886503E+05
    0.249027142460318998E+03    0.294851268080338855E+03    0.345042717497333395E+01   -0.242271435416189673E+01   -0.543791529106249794E+01    0.667999910274651776E+00   -0.128502988919384364E+01   -0.164739513656550862E+01   -0.349688418242968435E+01   -0.615358685980896070E+01    0.288309735223562311E+05
    0.231944608143586606E+03    0.343000376751078647E+03    0.315623905940398153E+01   -0.177731626197305959E+01   -0.475001778321916035E+01    0.633085462403584209E+00   -0.135754310284918578E+01   -0.871191706259385690E+00   -0.449466998976771315E+01   -0.655869523638351826E+01    0.288317470665922519E+05
    0.163504675529020147E+03    0.357905012621861886E+03    0.226184663431589250E+01   -0.148570292216701683E+01   -0.585697892985389057E+01    0.639627178983648403E+00   -0.894401391690825776E+00   -0.114229902103493064E+01   -0.447900214609346037E+01   -0.472978115409225008E+01    0.288314123329599170E+05
    0.174323632880960645E+03    0.296959049529841025E+03    0.593538172943996845E+01   -0.130851206065603676E+01   -0.513307804668619827E+01    0.602100867545631413E+00   -0.124781260960682339E+01   -0.104802560146969626E+01   -0.534861525280251904E+01   -0.576722349474013640E+01    0.288313487802439995E+05
    0.101585033334063198E+03    0.320093841822616639E+03    0.216728972426551181E+01   -0.317945661684837955E+00   -0.470096472617111250E+01    0.542205483940428223E+00   -0.149413040339765590E+01   -0.141954053082093523E+01   -0.649186738277724196E+01   -0.562020469744386109E+01    0.288309427767754823E+05
    0.303860817439970958E+03    0.330583575819506677E+03    0.288856438014563022E+01   -0.260216588838679819E+01   -0.491325823139965934E+01    0.680187209618365207E+00   -0.967198104651218138E+00   -0.130412192510227509E+01   -0.637473075489894470E+01   -0.497282402223273401E+01    0.288312593575884312E+05
    0.289569928362569044E+03    0.348003293089921954E+03    0.103664228947206993E+01   -0.285319956863697977E+01   -0.518095577645833227E+01    0.688690418411775696E+00   -0.120376735954646819E+01   -0.198591056911216413E+01   -0.604183703260612504E+01   -0.596785056948443149E+01    0.288310945521307694E+05
    0.959345524046531466E+02    0.386034240950729099E+03    0.184221694435888494E+01   -0.697968326304607256E+00   -0.554142929817875807E+01    0.577297253416695133E+00   -0.123893544292191837E+01   -0.104138566978876312E+01   -0.564447419728117517E+01   -0.619049377057162964E+01    0.288312229119447329E+05
    0.253683846452655160E+03    0.245865532902328141E+03    0.565808604087469735E+01   -0.215959129801254468E+01   -0.558755314390315139E+01    0.577083622684988584E+00   -0.201598353276411935E+01   -0.150119906416604731E+01   -0.672535456350029737E+01   -0.628897925878917974E+01    0.288309880428926990E+05
    0.270711238165311727E+03    0.283269768644602550E+03    0.579784927878088219E+01   -0.199347962345066176E+01   -0.461181525722761076E+01    0.718501762654744303E+00   -0.123782209264889875E+01   -0.931267128709470704E+00   -0.702146748544250165E+01   -0.578337982428169095E+01    0.288317378120245812E+05
    0.270711238165311727E+03    0.283269768644602550E+03    0.579784927878088219E+01   -0.199347962345066176E+01   -0.461181525722761076E+01    0.718501762654744303E+00   -0.123782209264889875E+01   -0.931267128709470704E+00   -0.702146748544250165E+01   -0.578337982428169095E+01    0.288317378120245812E+05
    0.234144705070269794E+03    0.348017269017324622E+03    0.134279690754489867E+01   -0.153184596939699058E+01   -0.437932533574647387E+01    0.611877293723531945E+00   -0.103435667564576672E+01   -0.855636475800078067E+00   -0.430746730505495279E+01   -0.553430262091028347E+01    0.288309249312344655E+05
